<?xml version="1.0"?>
<opencv_storage>
<cascade>
  <stageType>BOOST</stageType>
  <featureType>HAAR</featureType>
  <height>24</height>
  <width>24</width>
  <stageParams>
    <boostType>GAB</boostType>
    <minHitRate>9.9500000476837158e-01</minHitRate>
    <maxFalseAlarm>5.0000000000000000e-01</maxFalseAlarm>
    <weightTrimRate>9.4999999999999996e-01</weightTrimRate>
    <maxDepth>1</maxDepth>
    <maxWeakCount>100</maxWeakCount></stageParams>
  <featureParams>
    <maxCatCount>0</maxCatCount>
    <featSize>1</featSize>
    <mode>ALL</mode></featureParams>
  <stageNum>15</stageNum>
  <stages>
    <!-- stage 0 -->
    <_>
      <maxWeakCount>6</maxWeakCount>
      <stageThreshold>-1.0011001825332642e+00</stageThreshold>
      <weakClassifiers>
        <_>
          <internalNodes>
            0 -1 18 1.0737739503383636e-02</internalNodes>
          <leafValues>
            -6.0383385419845581e-01 7.1052628755569458e-01</leafValues></_>
        <_>
          <internalNodes>
            0 -1 4 -9.4668734818696976e-03</internalNodes>
          <leafValues>
            8.6455589532852173e-01 -4.2117595672607422e-01</leafValues></_>
        <_>
          <internalNodes>
            0 -1 5 2.4609554558992386e-02</internalNodes>
          <leafValues>
            -2.8396075963973999e-01 7.5465464591979980e-01</leafValues></_>
        <_>
          <internalNodes>
            0 -1 102 -1.6156129539012909e-02</internalNodes>
          <leafValues>
            8.4216266870498657e-01 -2.0730720460414886e-01</leafValues></_>
        <_>
          <internalNodes>
            0 -1 98 -1.4097664505243301e-02</internalNodes>
          <leafValues>
            9.1295176744461060e-01 -2.5336620211601257e-01</leafValues></_>
        <_>
          <internalNodes>
            0 -1 106 3.6978151183575392e-03</internalNodes>
          <leafValues>
            -2.3457418382167816e-01 7.6854383945465088e-01</leafValues></_></weakClassifiers></_>
    <!-- stage 1 -->
    <_>
      <maxWeakCount>7</maxWeakCount>
      <stageThreshold>-1.0291002988815308e+00</stageThreshold>
      <weakClassifiers>
        <_>
          <internalNodes>
            0 -1 51 -5.3486686199903488e-02</internalNodes>
          <leafValues>
            7.0542633533477783e-01 -5.5624037981033325e-01</leafValues></_>
        <_>
          <internalNodes>
            0 -1 21 1.2420646846294403e-02</internalNodes>
          <leafValues>
            -2.8909158706665039e-01 8.5658788681030273e-01</leafValues></_>
        <_>
          <internalNodes>
            0 -1 3 -1.6386823356151581e-01</internalNodes>
          <leafValues>
            -7.3065984249114990e-01 2.6710921525955200e-01</leafValues></_>
        <_>
          <internalNodes>
            0 -1 77 -1.6942111775279045e-02</internalNodes>
          <leafValues>
            7.6142662763595581e-01 -2.9145854711532593e-01</leafValues></_>
        <_>
          <internalNodes>
            0 -1 44 -2.1942377090454102e-02</internalNodes>
          <leafValues>
            9.1416162252426147e-01 -1.4997151494026184e-01</leafValues></_>
        <_>
          <internalNodes>
            0 -1 83 7.0326393470168114e-03</internalNodes>
          <leafValues>
            -2.0992064476013184e-01 6.9418334960937500e-01</leafValues></_>
        <_>
          <internalNodes>
            0 -1 25 4.5096699148416519e-02</internalNodes>
          <leafValues>
            3.4505099058151245e-01 -7.0363074541091919e-01</leafValues></_></weakClassifiers></_>
    <!-- stage 2 -->
    <_>
      <maxWeakCount>4</maxWeakCount>
      <stageThreshold>-1.1634448766708374e+00</stageThreshold>
      <weakClassifiers>
        <_>
          <internalNodes>
            0 -1 6 -2.1566604077816010e-01</internalNodes>
          <leafValues>
            -9.0862941741943359e-01 2.2916667163372040e-01</leafValues></_>
        <_>
          <internalNodes>
            0 -1 40 -1.5025478787720203e-02</internalNodes>
          <leafValues>
            8.2954931259155273e-01 -4.4497516751289368e-01</leafValues></_>
        <_>
          <internalNodes>
            0 -1 73 9.6705239266157150e-03</internalNodes>
          <leafValues>
            -3.3745056390762329e-01 8.8699787855148315e-01</leafValues></_>
        <_>
          <internalNodes>
            0 -1 42 1.7704748315736651e-03</internalNodes>
          <leafValues>
            -4.3924862146377563e-01 5.2761036157608032e-01</leafValues></_></weakClassifiers></_>
    <!-- stage 3 -->
    <_>
      <maxWeakCount>6</maxWeakCount>
      <stageThreshold>-8.9525675773620605e-01</stageThreshold>
      <weakClassifiers>
        <_>
          <internalNodes>
            0 -1 59 -1.1999497190117836e-02</internalNodes>
          <leafValues>
            8.4375000000000000e-01 -5.8153843879699707e-01</leafValues></_>
        <_>
          <internalNodes>
            0 -1 66 2.8834447730332613e-03</internalNodes>
          <leafValues>
            -3.0559495091438293e-01 9.1862255334854126e-01</leafValues></_>
        <_>
          <internalNodes>
            0 -1 53 -7.2714509442448616e-03</internalNodes>
          <leafValues>
            7.9943126440048218e-01 -2.6320248842239380e-01</leafValues></_>
        <_>
          <internalNodes>
            0 -1 84 6.6319797188043594e-03</internalNodes>
          <leafValues>
            -3.0813774466514587e-01 8.6247318983078003e-01</leafValues></_>
        <_>
          <internalNodes>
            0 -1 37 7.8201480209827423e-03</internalNodes>
          <leafValues>
            -1.7318713665008545e-01 8.8486135005950928e-01</leafValues></_>
        <_>
          <internalNodes>
            0 -1 70 -7.3715266771614552e-03</internalNodes>
          <leafValues>
            7.9601210355758667e-01 -3.2164445519447327e-01</leafValues></_></weakClassifiers></_>
    <!-- stage 4 -->
    <_>
      <maxWeakCount>6</maxWeakCount>
      <stageThreshold>-8.3156216144561768e-01</stageThreshold>
      <weakClassifiers>
        <_>
          <internalNodes>
            0 -1 31 -3.7316963076591492e-02</internalNodes>
          <leafValues>
            7.6363635063171387e-01 -5.2994012832641602e-01</leafValues></_>
        <_>
          <internalNodes>
            0 -1 30 1.4548417180776596e-02</internalNodes>
          <leafValues>
            -2.7188614010810852e-01 8.6405396461486816e-01</leafValues></_>
        <_>
          <internalNodes>
            0 -1 93 -1.4295966830104589e-03</internalNodes>
          <leafValues>
            6.1439889669418335e-01 -2.7318784594535828e-01</leafValues></_>
        <_>
          <internalNodes>
            0 -1 16 4.9449871294200420e-03</internalNodes>
          <leafValues>
            -2.8390640020370483e-01 6.6131728887557983e-01</leafValues></_>
        <_>
          <internalNodes>
            0 -1 9 -1.6745135188102722e-02</internalNodes>
          <leafValues>
            8.7224906682968140e-01 -2.0853395760059357e-01</leafValues></_>
        <_>
          <internalNodes>
            0 -1 94 -2.3522833362221718e-02</internalNodes>
          <leafValues>
            8.4413272142410278e-01 -1.5169440209865570e-01</leafValues></_></weakClassifiers></_>
    <!-- stage 5 -->
    <_>
      <maxWeakCount>8</maxWeakCount>
      <stageThreshold>-1.2316570281982422e+00</stageThreshold>
      <weakClassifiers>
        <_>
          <internalNodes>
            0 -1 32 -8.1899024546146393e-02</internalNodes>
          <leafValues>
            6.0305345058441162e-01 -5.3941267728805542e-01</leafValues></_>
        <_>
          <internalNodes>
            0 -1 103 1.2138364836573601e-02</internalNodes>
          <leafValues>
            -2.5936219096183777e-01 7.6617282629013062e-01</leafValues></_>
        <_>
          <internalNodes>
            0 -1 52 7.1012387052178383e-03</internalNodes>
          <leafValues>
            -2.0205022394657135e-01 7.7604144811630249e-01</leafValues></_>
        <_>
          <internalNodes>
            0 -1 58 1.0838316753506660e-02</internalNodes>
          <leafValues>
            -2.9068827629089355e-01 6.9337880611419678e-01</leafValues></_>
        <_>
          <internalNodes>
            0 -1 2 1.3910332322120667e-01</internalNodes>
          <leafValues>
            2.5536057353019714e-01 -8.5175305604934692e-01</leafValues></_>
        <_>
          <internalNodes>
            0 -1 1 -4.3643519282341003e-02</internalNodes>
          <leafValues>
            -7.0636415481567383e-01 3.0339306592941284e-01</leafValues></_>
        <_>
          <internalNodes>
            0 -1 79 -1.3550066389143467e-02</internalNodes>
          <leafValues>
            7.7835786342620850e-01 -2.9064404964447021e-01</leafValues></_>
        <_>
          <internalNodes>
            0 -1 60 1.9701085984706879e-02</internalNodes>
          <leafValues>
            -1.7658764123916626e-01 8.4225094318389893e-01</leafValues></_></weakClassifiers></_>
    <!-- stage 6 -->
    <_>
      <maxWeakCount>8</maxWeakCount>
      <stageThreshold>-8.9792609214782715e-01</stageThreshold>
      <weakClassifiers>
        <_>
          <internalNodes>
            0 -1 104 2.5486744940280914e-02</internalNodes>
          <leafValues>
            -5.2154529094696045e-01 7.7142858505249023e-01</leafValues></_>
        <_>
          <internalNodes>
            0 -1 101 -3.6804564297199249e-02</internalNodes>
          <leafValues>
            8.6134654283523560e-01 -1.9240085780620575e-01</leafValues></_>
        <_>
          <internalNodes>
            0 -1 111 2.2000526078045368e-03</internalNodes>
          <leafValues>
            2.3158285021781921e-01 -8.2853084802627563e-01</leafValues></_>
        <_>
          <internalNodes>
            0 -1 90 6.6781294299289584e-04</internalNodes>
          <leafValues>
            1.6823713481426239e-01 -7.6129078865051270e-01</leafValues></_>
        <_>
          <internalNodes>
            0 -1 110 6.5881307236850262e-03</internalNodes>
          <leafValues>
            1.9222939014434814e-01 -7.1030938625335693e-01</leafValues></_>
        <_>
          <internalNodes>
            0 -1 50 -8.6435890989378095e-04</internalNodes>
          <leafValues>
            -6.4276665449142456e-01 2.1695399284362793e-01</leafValues></_>
        <_>
          <internalNodes>
            0 -1 62 -1.4116019010543823e-02</internalNodes>
          <leafValues>
            6.6892236471176147e-01 -2.3204644024372101e-01</leafValues></_>
        <_>
          <internalNodes>
            0 -1 72 5.3395666182041168e-03</internalNodes>
          <leafValues>
            2.2727525234222412e-01 -7.6093685626983643e-01</leafValues></_></weakClassifiers></_>
    <!-- stage 7 -->
    <_>
      <maxWeakCount>8</maxWeakCount>
      <stageThreshold>-1.0621582269668579e+00</stageThreshold>
      <weakClassifiers>
        <_>
          <internalNodes>
            0 -1 107 1.0917834937572479e-02</internalNodes>
          <leafValues>
            -5.1796406507492065e-01 6.9090908765792847e-01</leafValues></_>
        <_>
          <internalNodes>
            0 -1 105 -7.9188253730535507e-03</internalNodes>
          <leafValues>
            7.0789146423339844e-01 -2.7487164735794067e-01</leafValues></_>
        <_>
          <internalNodes>
            0 -1 39 1.7297023441642523e-03</internalNodes>
          <leafValues>
            -4.8449009656906128e-01 3.5106456279754639e-01</leafValues></_>
        <_>
          <internalNodes>
            0 -1 15 -6.4367741346359253e-02</internalNodes>
          <leafValues>
            -6.9985556602478027e-01 2.3873232305049896e-01</leafValues></_>
        <_>
          <internalNodes>
            0 -1 78 -7.4355155229568481e-03</internalNodes>
          <leafValues>
            -8.4720003604888916e-01 1.9005185365676880e-01</leafValues></_>
        <_>
          <internalNodes>
            0 -1 76 9.3805305659770966e-03</internalNodes>
          <leafValues>
            1.9846996665000916e-01 -7.1005082130432129e-01</leafValues></_>
        <_>
          <internalNodes>
            0 -1 29 -4.1114422492682934e-03</internalNodes>
          <leafValues>
            3.9694845676422119e-01 -3.9751204848289490e-01</leafValues></_>
        <_>
          <internalNodes>
            0 -1 17 -6.3770085573196411e-02</internalNodes>
          <leafValues>
            -7.7628093957901001e-01 2.0251899957656860e-01</leafValues></_></weakClassifiers></_>
    <!-- stage 8 -->
    <_>
      <maxWeakCount>10</maxWeakCount>
      <stageThreshold>-1.0496774911880493e+00</stageThreshold>
      <weakClassifiers>
        <_>
          <internalNodes>
            0 -1 33 4.6305045485496521e-02</internalNodes>
          <leafValues>
            -5.6097561120986938e-01 4.6012270450592041e-01</leafValues></_>
        <_>
          <internalNodes>
            0 -1 108 -1.7731312662363052e-02</internalNodes>
          <leafValues>
            6.9692140817642212e-01 -2.4854294955730438e-01</leafValues></_>
        <_>
          <internalNodes>
            0 -1 99 1.7372049391269684e-02</internalNodes>
          <leafValues>
            -2.0196646451950073e-01 7.7652084827423096e-01</leafValues></_>
        <_>
          <internalNodes>
            0 -1 97 -1.1304415762424469e-02</internalNodes>
          <leafValues>
            8.2507431507110596e-01 -1.0026781260967255e-01</leafValues></_>
        <_>
          <internalNodes>
            0 -1 118 -2.4187244707718492e-04</internalNodes>
          <leafValues>
            -5.4994821548461914e-01 2.5361117720603943e-01</leafValues></_>
        <_>
          <internalNodes>
            0 -1 64 1.7657760530710220e-02</internalNodes>
          <leafValues>
            -1.6368442773818970e-01 8.6815333366394043e-01</leafValues></_>
        <_>
          <internalNodes>
            0 -1 81 -1.6936123371124268e-02</internalNodes>
          <leafValues>
            7.0128864049911499e-01 -1.6068843007087708e-01</leafValues></_>
        <_>
          <internalNodes>
            0 -1 91 1.6723612789064646e-03</internalNodes>
          <leafValues>
            -3.4506174921989441e-01 4.1576480865478516e-01</leafValues></_>
        <_>
          <internalNodes>
            0 -1 43 9.3710244982503355e-05</internalNodes>
          <leafValues>
            -4.7928336262702942e-01 3.0596426129341125e-01</leafValues></_>
        <_>
          <internalNodes>
            0 -1 86 4.8405919224023819e-02</internalNodes>
          <leafValues>
            2.1466739475727081e-01 -7.6933687925338745e-01</leafValues></_></weakClassifiers></_>
    <!-- stage 9 -->
    <_>
      <maxWeakCount>10</maxWeakCount>
      <stageThreshold>-1.2685128450393677e+00</stageThreshold>
      <weakClassifiers>
        <_>
          <internalNodes>
            0 -1 28 -3.3960264176130295e-02</internalNodes>
          <leafValues>
            8.5000002384185791e-01 -4.8424068093299866e-01</leafValues></_>
        <_>
          <internalNodes>
            0 -1 8 -1.9917873665690422e-02</internalNodes>
          <leafValues>
            8.0021679401397705e-01 -2.6540940999984741e-01</leafValues></_>
        <_>
          <internalNodes>
            0 -1 10 2.8037831187248230e-02</internalNodes>
          <leafValues>
            -1.4644819498062134e-01 6.6676765680313110e-01</leafValues></_>
        <_>
          <internalNodes>
            0 -1 57 2.4235002696514130e-02</internalNodes>
          <leafValues>
            -1.5164279937744141e-01 8.8931512832641602e-01</leafValues></_>
        <_>
          <internalNodes>
            0 -1 74 3.3920665737241507e-04</internalNodes>
          <leafValues>
            -3.6921143531799316e-01 3.8596111536026001e-01</leafValues></_>
        <_>
          <internalNodes>
            0 -1 80 -9.4255488365888596e-03</internalNodes>
          <leafValues>
            6.1105179786682129e-01 -2.2291733324527740e-01</leafValues></_>
        <_>
          <internalNodes>
            0 -1 55 2.4189034476876259e-02</internalNodes>
          <leafValues>
            1.6588859260082245e-01 -9.0765088796615601e-01</leafValues></_>
        <_>
          <internalNodes>
            0 -1 56 -1.0264500975608826e-02</internalNodes>
          <leafValues>
            -5.5340486764907837e-01 2.3303185403347015e-01</leafValues></_>
        <_>
          <internalNodes>
            0 -1 48 -3.0291646718978882e-02</internalNodes>
          <leafValues>
            9.0467739105224609e-01 -1.7534992098808289e-01</leafValues></_>
        <_>
          <internalNodes>
            0 -1 49 -1.3304103165864944e-02</internalNodes>
          <leafValues>
            7.9603487253189087e-01 -1.4580406248569489e-01</leafValues></_></weakClassifiers></_>
    <!-- stage 10 -->
    <_>
      <maxWeakCount>9</maxWeakCount>
      <stageThreshold>-1.0313647985458374e+00</stageThreshold>
      <weakClassifiers>
        <_>
          <internalNodes>
            0 -1 63 2.7320714667439461e-02</internalNodes>
          <leafValues>
            -4.9926361441612244e-01 6.9696968793869019e-01</leafValues></_>
        <_>
          <internalNodes>
            0 -1 71 -1.9335564225912094e-02</internalNodes>
          <leafValues>
            6.7506313323974609e-01 -2.2416764497756958e-01</leafValues></_>
        <_>
          <internalNodes>
            0 -1 36 3.5045892000198364e-02</internalNodes>
          <leafValues>
            -2.3351892828941345e-01 5.5350565910339355e-01</leafValues></_>
        <_>
          <internalNodes>
            0 -1 12 -7.9560652375221252e-03</internalNodes>
          <leafValues>
            5.4260611534118652e-01 -2.4761733412742615e-01</leafValues></_>
        <_>
          <internalNodes>
            0 -1 65 4.3736584484577179e-02</internalNodes>
          <leafValues>
            -1.4051978290081024e-01 8.2307815551757812e-01</leafValues></_>
        <_>
          <internalNodes>
            0 -1 67 -1.5824439004063606e-02</internalNodes>
          <leafValues>
            6.8744802474975586e-01 -1.7145968973636627e-01</leafValues></_>
        <_>
          <internalNodes>
            0 -1 115 -1.7084870487451553e-03</internalNodes>
          <leafValues>
            -5.4538428783416748e-01 2.6097655296325684e-01</leafValues></_>
        <_>
          <internalNodes>
            0 -1 112 3.2116116490215063e-03</internalNodes>
          <leafValues>
            2.5324600934982300e-01 -6.5695255994796753e-01</leafValues></_>
        <_>
          <internalNodes>
            0 -1 0 -2.6401422917842865e-02</internalNodes>
          <leafValues>
            -8.1926375627517700e-01 1.2684114277362823e-01</leafValues></_></weakClassifiers></_>
    <!-- stage 11 -->
    <_>
      <maxWeakCount>9</maxWeakCount>
      <stageThreshold>-1.1499152183532715e+00</stageThreshold>
      <weakClassifiers>
        <_>
          <internalNodes>
            0 -1 109 -2.6897292584180832e-02</internalNodes>
          <leafValues>
            6.9387757778167725e-01 -4.9705880880355835e-01</leafValues></_>
        <_>
          <internalNodes>
            0 -1 111 -1.0118938516825438e-03</internalNodes>
          <leafValues>
            -6.4870029687881470e-01 1.9853091239929199e-01</leafValues></_>
        <_>
          <internalNodes>
            0 -1 35 4.7295326367020607e-03</internalNodes>
          <leafValues>
            -3.3157739043235779e-01 3.4806793928146362e-01</leafValues></_>
        <_>
          <internalNodes>
            0 -1 13 2.4469850584864616e-02</internalNodes>
          <leafValues>
            -1.8922260403633118e-01 6.2144172191619873e-01</leafValues></_>
        <_>
          <internalNodes>
            0 -1 29 -9.0283062309026718e-03</internalNodes>
          <leafValues>
            6.0039168596267700e-01 -2.2156327962875366e-01</leafValues></_>
        <_>
          <internalNodes>
            0 -1 27 -3.1111348653212190e-04</internalNodes>
          <leafValues>
            -6.5363365411758423e-01 1.6011036932468414e-01</leafValues></_>
        <_>
          <internalNodes>
            0 -1 40 2.7245301753282547e-02</internalNodes>
          <leafValues>
            -1.7205238342285156e-01 6.9707685708999634e-01</leafValues></_>
        <_>
          <internalNodes>
            0 -1 82 8.1358654424548149e-03</internalNodes>
          <leafValues>
            -2.1400763094425201e-01 5.0214874744415283e-01</leafValues></_>
        <_>
          <internalNodes>
            0 -1 88 -2.4794405326247215e-03</internalNodes>
          <leafValues>
            -7.7656936645507812e-01 1.4220191538333893e-01</leafValues></_></weakClassifiers></_>
    <!-- stage 12 -->
    <_>
      <maxWeakCount>11</maxWeakCount>
      <stageThreshold>-1.3015112876892090e+00</stageThreshold>
      <weakClassifiers>
        <_>
          <internalNodes>
            0 -1 45 8.9414581656455994e-02</internalNodes>
          <leafValues>
            -4.7965115308761597e-01 6.6666668653488159e-01</leafValues></_>
        <_>
          <internalNodes>
            0 -1 23 5.6877080351114273e-03</internalNodes>
          <leafValues>
            -2.6898691058158875e-01 5.5626636743545532e-01</leafValues></_>
        <_>
          <internalNodes>
            0 -1 89 -9.9897999316453934e-03</internalNodes>
          <leafValues>
            3.6097890138626099e-01 -3.4305572509765625e-01</leafValues></_>
        <_>
          <internalNodes>
            0 -1 68 -2.5747466832399368e-02</internalNodes>
          <leafValues>
            7.8321027755737305e-01 -1.4929266273975372e-01</leafValues></_>
        <_>
          <internalNodes>
            0 -1 26 -1.6423570923507214e-03</internalNodes>
          <leafValues>
            -8.0653643608093262e-01 1.6554641723632812e-01</leafValues></_>
        <_>
          <internalNodes>
            0 -1 38 1.0799892246723175e-02</internalNodes>
          <leafValues>
            -1.8669760227203369e-01 6.4836233854293823e-01</leafValues></_>
        <_>
          <internalNodes>
            0 -1 114 1.9639562815427780e-03</internalNodes>
          <leafValues>
            -2.2345241904258728e-01 5.6485635042190552e-01</leafValues></_>
        <_>
          <internalNodes>
            0 -1 47 4.6768713742494583e-02</internalNodes>
          <leafValues>
            2.0006132125854492e-01 -6.6586637496948242e-01</leafValues></_>
        <_>
          <internalNodes>
            0 -1 61 3.8908021524548531e-03</internalNodes>
          <leafValues>
            -2.7081117033958435e-01 4.8116803169250488e-01</leafValues></_>
        <_>
          <internalNodes>
            0 -1 69 -1.6383653506636620e-02</internalNodes>
          <leafValues>
            6.3771766424179077e-01 -1.6538906097412109e-01</leafValues></_>
        <_>
          <internalNodes>
            0 -1 95 -3.0896768439561129e-03</internalNodes>
          <leafValues>
            4.2021766304969788e-01 -2.8829580545425415e-01</leafValues></_></weakClassifiers></_>
    <!-- stage 13 -->
    <_>
      <maxWeakCount>9</maxWeakCount>
      <stageThreshold>-8.8332670927047729e-01</stageThreshold>
      <weakClassifiers>
        <_>
          <internalNodes>
            0 -1 96 5.3427584469318390e-02</internalNodes>
          <leafValues>
            -5.6552964448928833e-01 2.0361991226673126e-01</leafValues></_>
        <_>
          <internalNodes>
            0 -1 41 6.2182634137570858e-03</internalNodes>
          <leafValues>
            -2.5497114658355713e-01 5.2571851015090942e-01</leafValues></_>
        <_>
          <internalNodes>
            0 -1 19 1.5325372107326984e-02</internalNodes>
          <leafValues>
            -1.9857552647590637e-01 5.3289598226547241e-01</leafValues></_>
        <_>
          <internalNodes>
            0 -1 14 -9.3655064702033997e-03</internalNodes>
          <leafValues>
            6.6678440570831299e-01 -1.4984169602394104e-01</leafValues></_>
        <_>
          <internalNodes>
            0 -1 87 -1.0179450735449791e-02</internalNodes>
          <leafValues>
            5.1319783926010132e-01 -1.7361097037792206e-01</leafValues></_>
        <_>
          <internalNodes>
            0 -1 92 -1.7600001228856854e-05</internalNodes>
          <leafValues>
            3.0731424689292908e-01 -3.6053290963172913e-01</leafValues></_>
        <_>
          <internalNodes>
            0 -1 100 7.9908221960067749e-03</internalNodes>
          <leafValues>
            -1.8017520010471344e-01 5.8329051733016968e-01</leafValues></_>
        <_>
          <internalNodes>
            0 -1 22 1.6537562478333712e-03</internalNodes>
          <leafValues>
            2.3360390961170197e-01 -5.6328111886978149e-01</leafValues></_>
        <_>
          <internalNodes>
            0 -1 11 5.9597678482532501e-03</internalNodes>
          <leafValues>
            1.6908939182758331e-01 -6.7069017887115479e-01</leafValues></_></weakClassifiers></_>
    <!-- stage 14 -->
    <_>
      <maxWeakCount>11</maxWeakCount>
      <stageThreshold>-1.0567530393600464e+00</stageThreshold>
      <weakClassifiers>
        <_>
          <internalNodes>
            0 -1 34 1.7005169764161110e-02</internalNodes>
          <leafValues>
            -5.4696130752563477e-01 1.1489361524581909e-01</leafValues></_>
        <_>
          <internalNodes>
            0 -1 117 2.5649163872003555e-03</internalNodes>
          <leafValues>
            1.3707342743873596e-01 -6.4808976650238037e-01</leafValues></_>
        <_>
          <internalNodes>
            0 -1 20 -3.5348786041140556e-03</internalNodes>
          <leafValues>
            -7.1231806278228760e-01 1.3118270039558411e-01</leafValues></_>
        <_>
          <internalNodes>
            0 -1 7 -1.8400108674541116e-03</internalNodes>
          <leafValues>
            -4.5104870200157166e-01 2.4848788976669312e-01</leafValues></_>
        <_>
          <internalNodes>
            0 -1 85 -1.9134473055601120e-02</internalNodes>
          <leafValues>
            3.6170607805252075e-01 -3.4564608335494995e-01</leafValues></_>
        <_>
          <internalNodes>
            0 -1 46 -1.4990858733654022e-02</internalNodes>
          <leafValues>
            5.6628078222274780e-01 -2.4293798208236694e-01</leafValues></_>
        <_>
          <internalNodes>
            0 -1 54 -1.8602615222334862e-02</internalNodes>
          <leafValues>
            6.6961270570755005e-01 -1.6367739439010620e-01</leafValues></_>
        <_>
          <internalNodes>
            0 -1 75 -4.1727032512426376e-03</internalNodes>
          <leafValues>
            5.5866014957427979e-01 -2.1551167964935303e-01</leafValues></_>
        <_>
          <internalNodes>
            0 -1 116 1.2688993010669947e-03</internalNodes>
          <leafValues>
            1.7525620758533478e-01 -6.2878227233886719e-01</leafValues></_>
        <_>
          <internalNodes>
            0 -1 113 -2.4160465691238642e-03</internalNodes>
          <leafValues>
            -5.5427485704421997e-01 1.7866076529026031e-01</leafValues></_>
        <_>
          <internalNodes>
            0 -1 24 6.5174219198524952e-03</internalNodes>
          <leafValues>
            -3.0500191450119019e-01 4.0944945812225342e-01</leafValues></_></weakClassifiers></_></stages>
  <features>
    <_>
      <rects>
        <_>
          0 0 2 24 -1.</_>
        <_>
          0 6 2 12 2.</_></rects>
      <tilted>0</tilted></_>
    <_>
      <rects>
        <_>
          0 0 24 14 -1.</_>
        <_>
          0 0 12 7 2.</_>
        <_>
          12 7 12 7 2.</_></rects>
      <tilted>0</tilted></_>
    <_>
      <rects>
        <_>
          0 0 24 20 -1.</_>
        <_>
          0 0 12 10 2.</_>
        <_>
          12 10 12 10 2.</_></rects>
      <tilted>0</tilted></_>
    <_>
      <rects>
        <_>
          0 0 16 24 -1.</_>
        <_>
          0 12 16 12 2.</_></rects>
      <tilted>0</tilted></_>
    <_>
      <rects>
        <_>
          0 1 4 13 -1.</_>
        <_>
          1 1 2 13 2.</_></rects>
      <tilted>0</tilted></_>
    <_>
      <rects>
        <_>
          0 1 4 22 -1.</_>
        <_>
          0 1 2 11 2.</_>
        <_>
          2 12 2 11 2.</_></rects>
      <tilted>0</tilted></_>
    <_>
      <rects>
        <_>
          0 1 24 23 -1.</_>
        <_>
          12 1 12 23 2.</_></rects>
      <tilted>0</tilted></_>
    <_>
      <rects>
        <_>
          0 2 1 15 -1.</_>
        <_>
          0 7 1 5 3.</_></rects>
      <tilted>0</tilted></_>
    <_>
      <rects>
        <_>
          0 2 4 8 -1.</_>
        <_>
          1 2 2 8 2.</_></rects>
      <tilted>0</tilted></_>
    <_>
      <rects>
        <_>
          0 2 3 11 -1.</_>
        <_>
          1 2 1 11 3.</_></rects>
      <tilted>0</tilted></_>
    <_>
      <rects>
        <_>
          0 2 4 16 -1.</_>
        <_>
          0 2 2 8 2.</_>
        <_>
          2 10 2 8 2.</_></rects>
      <tilted>0</tilted></_>
    <_>
      <rects>
        <_>
          0 3 1 16 -1.</_>
        <_>
          0 7 1 8 2.</_></rects>
      <tilted>0</tilted></_>
    <_>
      <rects>
        <_>
          0 3 6 2 -1.</_>
        <_>
          2 3 2 2 3.</_></rects>
      <tilted>0</tilted></_>
    <_>
      <rects>
        <_>
          0 6 4 13 -1.</_>
        <_>
          2 6 2 13 2.</_></rects>
      <tilted>0</tilted></_>
    <_>
      <rects>
        <_>
          0 7 2 8 -1.</_>
        <_>
          1 7 1 8 2.</_></rects>
      <tilted>0</tilted></_>
    <_>
      <rects>
        <_>
          0 7 24 16 -1.</_>
        <_>
          0 7 12 8 2.</_>
        <_>
          12 15 12 8 2.</_></rects>
      <tilted>0</tilted></_>
    <_>
      <rects>
        <_>
          0 8 3 5 -1.</_>
        <_>
          1 8 1 5 3.</_></rects>
      <tilted>0</tilted></_>
    <_>
      <rects>
        <_>
          0 8 24 6 -1.</_>
        <_>
          12 8 12 6 2.</_></rects>
      <tilted>0</tilted></_>
    <_>
      <rects>
        <_>
          0 9 4 13 -1.</_>
        <_>
          1 9 2 13 2.</_></rects>
      <tilted>0</tilted></_>
    <_>
      <rects>
        <_>
          0 9 3 14 -1.</_>
        <_>
          1 9 1 14 3.</_></rects>
      <tilted>0</tilted></_>
    <_>
      <rects>
        <_>
          0 11 1 12 -1.</_>
        <_>
          0 14 1 6 2.</_></rects>
      <tilted>0</tilted></_>
    <_>
      <rects>
        <_>
          0 11 2 10 -1.</_>
        <_>
          1 11 1 10 2.</_></rects>
      <tilted>0</tilted></_>
    <_>
      <rects>
        <_>
          0 13 1 8 -1.</_>
        <_>
          0 15 1 4 2.</_></rects>
      <tilted>0</tilted></_>
    <_>
      <rects>
        <_>
          0 13 2 5 -1.</_>
        <_>
          1 13 1 5 2.</_></rects>
      <tilted>0</tilted></_>
    <_>
      <rects>
        <_>
          0 18 6 3 -1.</_>
        <_>
          2 18 2 3 3.</_></rects>
      <tilted>0</tilted></_>
    <_>
      <rects>
        <_>
          1 4 22 7 -1.</_>
        <_>
          12 4 11 7 2.</_></rects>
      <tilted>0</tilted></_>
    <_>
      <rects>
        <_>
          1 14 1 3 -1.</_>
        <_>
          1 15 1 1 3.</_></rects>
      <tilted>0</tilted></_>
    <_>
      <rects>
        <_>
          1 15 1 2 -1.</_>
        <_>
          1 16 1 1 2.</_></rects>
      <tilted>0</tilted></_>
    <_>
      <rects>
        <_>
          1 22 22 2 -1.</_>
        <_>
          1 23 22 1 2.</_></rects>
      <tilted>0</tilted></_>
    <_>
      <rects>
        <_>
          2 0 3 4 -1.</_>
        <_>
          2 2 3 2 2.</_></rects>
      <tilted>0</tilted></_>
    <_>
      <rects>
        <_>
          2 0 9 3 -1.</_>
        <_>
          2 1 9 1 3.</_></rects>
      <tilted>0</tilted></_>
    <_>
      <rects>
        <_>
          2 0 20 4 -1.</_>
        <_>
          2 1 20 2 2.</_></rects>
      <tilted>0</tilted></_>
    <_>
      <rects>
        <_>
          2 0 20 6 -1.</_>
        <_>
          2 2 20 2 3.</_></rects>
      <tilted>0</tilted></_>
    <_>
      <rects>
        <_>
          2 1 2 20 -1.</_>
        <_>
          2 11 2 10 2.</_></rects>
      <tilted>0</tilted></_>
    <_>
      <rects>
        <_>
          2 1 6 7 -1.</_>
        <_>
          5 1 3 7 2.</_></rects>
      <tilted>0</tilted></_>
    <_>
      <rects>
        <_>
          2 5 12 2 -1.</_>
        <_>
          5 5 6 2 2.</_></rects>
      <tilted>0</tilted></_>
    <_>
      <rects>
        <_>
          2 18 18 6 -1.</_>
        <_>
          2 20 18 2 3.</_></rects>
      <tilted>0</tilted></_>
    <_>
      <rects>
        <_>
          2 21 9 3 -1.</_>
        <_>
          2 22 9 1 3.</_></rects>
      <tilted>0</tilted></_>
    <_>
      <rects>
        <_>
          3 0 2 3 -1.</_>
        <_>
          3 0 1 3 2.</_></rects>
      <tilted>1</tilted></_>
    <_>
      <rects>
        <_>
          3 1 20 4 -1.</_>
        <_>
          8 1 10 4 2.</_></rects>
      <tilted>0</tilted></_>
    <_>
      <rects>
        <_>
          3 1 19 3 -1.</_>
        <_>
          3 2 19 1 3.</_></rects>
      <tilted>0</tilted></_>
    <_>
      <rects>
        <_>
          3 2 3 3 -1.</_>
        <_>
          4 3 1 1 9.</_></rects>
      <tilted>0</tilted></_>
    <_>
      <rects>
        <_>
          3 2 8 6 -1.</_>
        <_>
          7 2 4 6 2.</_></rects>
      <tilted>0</tilted></_>
    <_>
      <rects>
        <_>
          3 7 12 3 -1.</_>
        <_>
          7 7 4 3 3.</_></rects>
      <tilted>0</tilted></_>
    <_>
      <rects>
        <_>
          3 8 17 3 -1.</_>
        <_>
          3 9 17 1 3.</_></rects>
      <tilted>0</tilted></_>
    <_>
      <rects>
        <_>
          3 8 19 6 -1.</_>
        <_>
          3 10 19 2 3.</_></rects>
      <tilted>0</tilted></_>
    <_>
      <rects>
        <_>
          3 13 13 3 -1.</_>
        <_>
          3 14 13 1 3.</_></rects>
      <tilted>0</tilted></_>
    <_>
      <rects>
        <_>
          3 14 16 10 -1.</_>
        <_>
          11 14 8 10 2.</_></rects>
      <tilted>0</tilted></_>
    <_>
      <rects>
        <_>
          3 19 18 3 -1.</_>
        <_>
          3 20 18 1 3.</_></rects>
      <tilted>0</tilted></_>
    <_>
      <rects>
        <_>
          3 20 7 4 -1.</_>
        <_>
          3 21 7 2 2.</_></rects>
      <tilted>0</tilted></_>
    <_>
      <rects>
        <_>
          3 23 4 1 -1.</_>
        <_>
          5 23 2 1 2.</_></rects>
      <tilted>0</tilted></_>
    <_>
      <rects>
        <_>
          4 0 14 6 -1.</_>
        <_>
          4 2 14 2 3.</_></rects>
      <tilted>0</tilted></_>
    <_>
      <rects>
        <_>
          4 1 5 3 -1.</_>
        <_>
          4 2 5 1 3.</_></rects>
      <tilted>0</tilted></_>
    <_>
      <rects>
        <_>
          4 13 10 3 -1.</_>
        <_>
          4 14 10 1 3.</_></rects>
      <tilted>0</tilted></_>
    <_>
      <rects>
        <_>
          4 15 17 4 -1.</_>
        <_>
          4 16 17 2 2.</_></rects>
      <tilted>0</tilted></_>
    <_>
      <rects>
        <_>
          5 0 12 6 -1.</_>
        <_>
          8 0 6 6 2.</_></rects>
      <tilted>0</tilted></_>
    <_>
      <rects>
        <_>
          5 0 12 4 -1.</_>
        <_>
          9 0 4 4 3.</_></rects>
      <tilted>0</tilted></_>
    <_>
      <rects>
        <_>
          5 1 18 2 -1.</_>
        <_>
          5 2 18 1 2.</_></rects>
      <tilted>0</tilted></_>
    <_>
      <rects>
        <_>
          5 2 11 3 -1.</_>
        <_>
          5 3 11 1 3.</_></rects>
      <tilted>0</tilted></_>
    <_>
      <rects>
        <_>
          5 8 17 3 -1.</_>
        <_>
          5 9 17 1 3.</_></rects>
      <tilted>0</tilted></_>
    <_>
      <rects>
        <_>
          5 10 15 3 -1.</_>
        <_>
          5 11 15 1 3.</_></rects>
      <tilted>0</tilted></_>
    <_>
      <rects>
        <_>
          5 11 1 4 -1.</_>
        <_>
          4 12 1 2 2.</_></rects>
      <tilted>1</tilted></_>
    <_>
      <rects>
        <_>
          5 13 9 3 -1.</_>
        <_>
          5 14 9 1 3.</_></rects>
      <tilted>0</tilted></_>
    <_>
      <rects>
        <_>
          5 21 18 3 -1.</_>
        <_>
          5 22 18 1 3.</_></rects>
      <tilted>0</tilted></_>
    <_>
      <rects>
        <_>
          6 1 8 4 -1.</_>
        <_>
          6 2 8 2 2.</_></rects>
      <tilted>0</tilted></_>
    <_>
      <rects>
        <_>
          6 7 17 4 -1.</_>
        <_>
          6 9 17 2 2.</_></rects>
      <tilted>0</tilted></_>
    <_>
      <rects>
        <_>
          6 8 2 3 -1.</_>
        <_>
          6 9 2 1 3.</_></rects>
      <tilted>0</tilted></_>
    <_>
      <rects>
        <_>
          6 9 11 4 -1.</_>
        <_>
          6 10 11 2 2.</_></rects>
      <tilted>0</tilted></_>
    <_>
      <rects>
        <_>
          6 13 17 3 -1.</_>
        <_>
          6 14 17 1 3.</_></rects>
      <tilted>0</tilted></_>
    <_>
      <rects>
        <_>
          6 16 16 3 -1.</_>
        <_>
          6 17 16 1 3.</_></rects>
      <tilted>0</tilted></_>
    <_>
      <rects>
        <_>
          6 21 10 3 -1.</_>
        <_>
          6 22 10 1 3.</_></rects>
      <tilted>0</tilted></_>
    <_>
      <rects>
        <_>
          7 8 13 3 -1.</_>
        <_>
          7 9 13 1 3.</_></rects>
      <tilted>0</tilted></_>
    <_>
      <rects>
        <_>
          8 1 8 4 -1.</_>
        <_>
          10 1 4 4 2.</_></rects>
      <tilted>0</tilted></_>
    <_>
      <rects>
        <_>
          8 1 15 3 -1.</_>
        <_>
          8 2 15 1 3.</_></rects>
      <tilted>0</tilted></_>
    <_>
      <rects>
        <_>
          8 7 12 3 -1.</_>
        <_>
          12 7 4 3 3.</_></rects>
      <tilted>0</tilted></_>
    <_>
      <rects>
        <_>
          8 14 7 3 -1.</_>
        <_>
          8 15 7 1 3.</_></rects>
      <tilted>0</tilted></_>
    <_>
      <rects>
        <_>
          9 0 6 10 -1.</_>
        <_>
          12 0 3 10 2.</_></rects>
      <tilted>0</tilted></_>
    <_>
      <rects>
        <_>
          9 0 13 3 -1.</_>
        <_>
          9 1 13 1 3.</_></rects>
      <tilted>0</tilted></_>
    <_>
      <rects>
        <_>
          9 1 6 4 -1.</_>
        <_>
          12 1 3 4 2.</_></rects>
      <tilted>0</tilted></_>
    <_>
      <rects>
        <_>
          9 10 11 3 -1.</_>
        <_>
          9 11 11 1 3.</_></rects>
      <tilted>0</tilted></_>
    <_>
      <rects>
        <_>
          10 1 7 4 -1.</_>
        <_>
          10 2 7 2 2.</_></rects>
      <tilted>0</tilted></_>
    <_>
      <rects>
        <_>
          10 1 8 3 -1.</_>
        <_>
          10 2 8 1 3.</_></rects>
      <tilted>0</tilted></_>
    <_>
      <rects>
        <_>
          10 2 11 3 -1.</_>
        <_>
          10 3 11 1 3.</_></rects>
      <tilted>0</tilted></_>
    <_>
      <rects>
        <_>
          10 8 9 3 -1.</_>
        <_>
          10 9 9 1 3.</_></rects>
      <tilted>0</tilted></_>
    <_>
      <rects>
        <_>
          10 13 9 3 -1.</_>
        <_>
          10 14 9 1 3.</_></rects>
      <tilted>0</tilted></_>
    <_>
      <rects>
        <_>
          11 2 12 5 -1.</_>
        <_>
          11 2 6 5 2.</_></rects>
      <tilted>1</tilted></_>
    <_>
      <rects>
        <_>
          11 7 8 9 -1.</_>
        <_>
          11 7 4 9 2.</_></rects>
      <tilted>1</tilted></_>
    <_>
      <rects>
        <_>
          12 22 11 2 -1.</_>
        <_>
          12 23 11 1 2.</_></rects>
      <tilted>0</tilted></_>
    <_>
      <rects>
        <_>
          14 0 6 1 -1.</_>
        <_>
          16 0 2 1 3.</_></rects>
      <tilted>0</tilted></_>
    <_>
      <rects>
        <_>
          14 7 10 3 -1.</_>
        <_>
          14 7 5 3 2.</_></rects>
      <tilted>1</tilted></_>
    <_>
      <rects>
        <_>
          15 0 3 1 -1.</_>
        <_>
          16 0 1 1 3.</_></rects>
      <tilted>0</tilted></_>
    <_>
      <rects>
        <_>
          15 5 6 3 -1.</_>
        <_>
          17 6 2 1 9.</_></rects>
      <tilted>0</tilted></_>
    <_>
      <rects>
        <_>
          17 0 2 6 -1.</_>
        <_>
          17 0 1 3 2.</_>
        <_>
          18 3 1 3 2.</_></rects>
      <tilted>0</tilted></_>
    <_>
      <rects>
        <_>
          17 4 1 2 -1.</_>
        <_>
          17 4 1 1 2.</_></rects>
      <tilted>1</tilted></_>
    <_>
      <rects>
        <_>
          18 3 6 6 -1.</_>
        <_>
          20 3 2 6 3.</_></rects>
      <tilted>0</tilted></_>
    <_>
      <rects>
        <_>
          18 6 4 3 -1.</_>
        <_>
          20 6 2 3 2.</_></rects>
      <tilted>0</tilted></_>
    <_>
      <rects>
        <_>
          19 2 3 20 -1.</_>
        <_>
          19 12 3 10 2.</_></rects>
      <tilted>0</tilted></_>
    <_>
      <rects>
        <_>
          20 2 3 6 -1.</_>
        <_>
          21 2 1 6 3.</_></rects>
      <tilted>0</tilted></_>
    <_>
      <rects>
        <_>
          20 3 4 20 -1.</_>
        <_>
          21 3 2 20 2.</_></rects>
      <tilted>0</tilted></_>
    <_>
      <rects>
        <_>
          20 4 3 13 -1.</_>
        <_>
          21 4 1 13 3.</_></rects>
      <tilted>0</tilted></_>
    <_>
      <rects>
        <_>
          20 5 3 6 -1.</_>
        <_>
          21 5 1 6 3.</_></rects>
      <tilted>0</tilted></_>
    <_>
      <rects>
        <_>
          20 9 4 13 -1.</_>
        <_>
          22 9 2 13 2.</_></rects>
      <tilted>0</tilted></_>
    <_>
      <rects>
        <_>
          20 10 4 13 -1.</_>
        <_>
          22 10 2 13 2.</_></rects>
      <tilted>0</tilted></_>
    <_>
      <rects>
        <_>
          20 11 4 7 -1.</_>
        <_>
          21 11 2 7 2.</_></rects>
      <tilted>0</tilted></_>
    <_>
      <rects>
        <_>
          21 2 1 16 -1.</_>
        <_>
          21 10 1 8 2.</_></rects>
      <tilted>0</tilted></_>
    <_>
      <rects>
        <_>
          21 13 3 11 -1.</_>
        <_>
          22 13 1 11 3.</_></rects>
      <tilted>0</tilted></_>
    <_>
      <rects>
        <_>
          21 14 3 5 -1.</_>
        <_>
          22 14 1 5 3.</_></rects>
      <tilted>0</tilted></_>
    <_>
      <rects>
        <_>
          21 15 3 8 -1.</_>
        <_>
          22 15 1 8 3.</_></rects>
      <tilted>0</tilted></_>
    <_>
      <rects>
        <_>
          22 0 2 20 -1.</_>
        <_>
          22 0 1 10 2.</_>
        <_>
          23 10 1 10 2.</_></rects>
      <tilted>0</tilted></_>
    <_>
      <rects>
        <_>
          22 0 2 22 -1.</_>
        <_>
          22 0 1 11 2.</_>
        <_>
          23 11 1 11 2.</_></rects>
      <tilted>0</tilted></_>
    <_>
      <rects>
        <_>
          22 13 2 10 -1.</_>
        <_>
          22 18 2 5 2.</_></rects>
      <tilted>0</tilted></_>
    <_>
      <rects>
        <_>
          22 15 2 3 -1.</_>
        <_>
          22 16 2 1 3.</_></rects>
      <tilted>0</tilted></_>
    <_>
      <rects>
        <_>
          23 2 1 8 -1.</_>
        <_>
          23 6 1 4 2.</_></rects>
      <tilted>0</tilted></_>
    <_>
      <rects>
        <_>
          23 3 1 16 -1.</_>
        <_>
          23 7 1 8 2.</_></rects>
      <tilted>0</tilted></_>
    <_>
      <rects>
        <_>
          23 4 1 3 -1.</_>
        <_>
          22 5 1 1 3.</_></rects>
      <tilted>1</tilted></_>
    <_>
      <rects>
        <_>
          23 4 1 12 -1.</_>
        <_>
          23 7 1 6 2.</_></rects>
      <tilted>0</tilted></_>
    <_>
      <rects>
        <_>
          23 5 1 4 -1.</_>
        <_>
          23 7 1 2 2.</_></rects>
      <tilted>0</tilted></_>
    <_>
      <rects>
        <_>
          23 8 1 8 -1.</_>
        <_>
          23 10 1 4 2.</_></rects>
      <tilted>0</tilted></_>
    <_>
      <rects>
        <_>
          23 12 1 3 -1.</_>
        <_>
          23 13 1 1 3.</_></rects>
      <tilted>0</tilted></_></features></cascade>
</opencv_storage>
