<?xml version="1.0"?>
<opencv_storage>
<stage3>
  <maxWeakCount>9</maxWeakCount>
  <stageThreshold>-1.2156816720962524e+00</stageThreshold>
  <weakClassifiers>
    <_>
      <internalNodes>
        0 -1 66653 -1.6556095331907272e-02</internalNodes>
      <leafValues>
        7.6326531171798706e-01 -5.6398713588714600e-01</leafValues></_>
    <_>
      <internalNodes>
        0 -1 1622 -2.4737492203712463e-02</internalNodes>
      <leafValues>
        7.2324138879776001e-01 -3.1579509377479553e-01</leafValues></_>
    <_>
      <internalNodes>
        0 -1 254908 -4.4812381267547607e-02</internalNodes>
      <leafValues>
        8.3774477243423462e-01 -1.7808537185192108e-01</leafValues></_>
    <_>
      <internalNodes>
        0 -1 18825 -6.2943711876869202e-02</internalNodes>
      <leafValues>
        7.3790091276168823e-01 -2.2798846662044525e-01</leafValues></_>
    <_>
      <internalNodes>
        0 -1 36347 2.0333614200353622e-02</internalNodes>
      <leafValues>
        -1.4751642942428589e-01 8.2338720560073853e-01</leafValues></_>
    <_>
      <internalNodes>
        0 -1 1527 -1.3986010104417801e-02</internalNodes>
      <leafValues>
        7.7747416496276855e-01 -1.8401396274566650e-01</leafValues></_>
    <_>
      <internalNodes>
        0 -1 9775 1.0672587901353836e-02</internalNodes>
      <leafValues>
        -1.6252689063549042e-01 7.9998701810836792e-01</leafValues></_>
    <_>
      <internalNodes>
        0 -1 75688 -4.9741707742214203e-02</internalNodes>
      <leafValues>
        8.1368464231491089e-01 -1.4860960841178894e-01</leafValues></_>
    <_>
      <internalNodes>
        0 -1 92099 1.0117907077074051e-02</internalNodes>
      <leafValues>
        -2.4883559346199036e-01 7.1284127235412598e-01</leafValues></_></weakClassifiers></stage3>
</opencv_storage>
