<?xml version="1.0"?>
<opencv_storage>
<stage5>
  <maxWeakCount>15</maxWeakCount>
  <stageThreshold>-1.1023482084274292e+00</stageThreshold>
  <weakClassifiers>
    <_>
      <internalNodes>
        0 -1 259265 -2.1126046776771545e-02</internalNodes>
      <leafValues>
        6.2553191184997559e-01 -5.3482425212860107e-01</leafValues></_>
    <_>
      <internalNodes>
        0 -1 4234 -1.5269768424332142e-02</internalNodes>
      <leafValues>
        5.4859399795532227e-01 -2.6339903473854065e-01</leafValues></_>
    <_>
      <internalNodes>
        0 -1 4286 2.4989465251564980e-02</internalNodes>
      <leafValues>
        -2.3107206821441650e-01 7.1513879299163818e-01</leafValues></_>
    <_>
      <internalNodes>
        0 -1 25624 -9.8416268825531006e-02</internalNodes>
      <leafValues>
        8.3184576034545898e-01 -9.1271728277206421e-02</leafValues></_>
    <_>
      <internalNodes>
        0 -1 77385 -1.9641797989606857e-02</internalNodes>
      <leafValues>
        6.2409776449203491e-01 -1.5371026098728180e-01</leafValues></_>
    <_>
      <internalNodes>
        0 -1 6557 -9.3135598581284285e-04</internalNodes>
      <leafValues>
        -6.1764854192733765e-01 1.8442724645137787e-01</leafValues></_>
    <_>
      <internalNodes>
        0 -1 1561 -3.2679386436939240e-02</internalNodes>
      <leafValues>
        9.0945637226104736e-01 -1.0980107635259628e-01</leafValues></_>
    <_>
      <internalNodes>
        0 -1 5448 2.4647122249007225e-02</internalNodes>
      <leafValues>
        -1.5676847100257874e-01 7.3290264606475830e-01</leafValues></_>
    <_>
      <internalNodes>
        0 -1 261169 1.2294142507016659e-03</internalNodes>
      <leafValues>
        2.1022097766399384e-01 -5.5265235900878906e-01</leafValues></_>
    <_>
      <internalNodes>
        0 -1 52910 -9.5024332404136658e-02</internalNodes>
      <leafValues>
        7.7603948116302490e-01 -1.3641859591007233e-01</leafValues></_>
    <_>
      <internalNodes>
        0 -1 51748 -3.3922791481018066e-02</internalNodes>
      <leafValues>
        6.4441990852355957e-01 -1.6332586109638214e-01</leafValues></_>
    <_>
      <internalNodes>
        0 -1 243924 -4.9992099404335022e-02</internalNodes>
      <leafValues>
        5.8666980266571045e-01 -1.7716433107852936e-01</leafValues></_>
    <_>
      <internalNodes>
        0 -1 214581 -1.1894589988514781e-03</internalNodes>
      <leafValues>
        -7.1033996343612671e-01 2.0888915657997131e-01</leafValues></_>
    <_>
      <internalNodes>
        0 -1 256554 1.1574949137866497e-02</internalNodes>
      <leafValues>
        -2.0540295541286469e-01 6.7714893817901611e-01</leafValues></_>
    <_>
      <internalNodes>
        0 -1 45478 -2.1208623424172401e-02</internalNodes>
      <leafValues>
        7.4374538660049438e-01 -1.3932485878467560e-01</leafValues></_></weakClassifiers></stage5>
</opencv_storage>
