<?xml version="1.0"?>
<opencv_storage>
<stage10>
  <maxWeakCount>9</maxWeakCount>
  <stageThreshold>-1.0313647985458374e+00</stageThreshold>
  <weakClassifiers>
    <_>
      <internalNodes>
        0 -1 98087 2.7320714667439461e-02</internalNodes>
      <leafValues>
        -4.9926361441612244e-01 6.9696968793869019e-01</leafValues></_>
    <_>
      <internalNodes>
        0 -1 122593 -1.9335564225912094e-02</internalNodes>
      <leafValues>
        6.7506313323974609e-01 -2.2416764497756958e-01</leafValues></_>
    <_>
      <internalNodes>
        0 -1 49700 3.5045892000198364e-02</internalNodes>
      <leafValues>
        -2.3351892828941345e-01 5.5350565910339355e-01</leafValues></_>
    <_>
      <internalNodes>
        0 -1 4218 -7.9560652375221252e-03</internalNodes>
      <leafValues>
        5.4260611534118652e-01 -2.4761733412742615e-01</leafValues></_>
    <_>
      <internalNodes>
        0 -1 106923 4.3736584484577179e-02</internalNodes>
      <leafValues>
        -1.4051978290081024e-01 8.2307815551757812e-01</leafValues></_>
    <_>
      <internalNodes>
        0 -1 108469 -1.5824439004063606e-02</internalNodes>
      <leafValues>
        6.8744802474975586e-01 -1.7145968973636627e-01</leafValues></_>
    <_>
      <internalNodes>
        0 -1 261219 -1.7084870487451553e-03</internalNodes>
      <leafValues>
        -5.4538428783416748e-01 2.6097655296325684e-01</leafValues></_>
    <_>
      <internalNodes>
        0 -1 261135 3.2116116490215063e-03</internalNodes>
      <leafValues>
        2.5324600934982300e-01 -6.5695255994796753e-01</leafValues></_>
    <_>
      <internalNodes>
        0 -1 163 -2.6401422917842865e-02</internalNodes>
      <leafValues>
        -8.1926375627517700e-01 1.2684114277362823e-01</leafValues></_></weakClassifiers></stage10>
</opencv_storage>
