<?xml version="1.0"?>
<opencv_storage>
<stage4>
  <maxWeakCount>10</maxWeakCount>
  <stageThreshold>-1.2295935153961182e+00</stageThreshold>
  <weakClassifiers>
    <_>
      <internalNodes>
        0 -1 76 1.6559664160013199e-02</internalNodes>
      <leafValues>
        -5.7648628950119019e-01 5.7095712423324585e-01</leafValues></_>
    <_>
      <internalNodes>
        0 -1 251836 -2.2295299917459488e-02</internalNodes>
      <leafValues>
        5.3317767381668091e-01 -3.1783071160316467e-01</leafValues></_>
    <_>
      <internalNodes>
        0 -1 258311 1.2806920334696770e-02</internalNodes>
      <leafValues>
        -2.0367999374866486e-01 7.3883062601089478e-01</leafValues></_>
    <_>
      <internalNodes>
        0 -1 257235 -1.1948401108384132e-02</internalNodes>
      <leafValues>
        8.0034035444259644e-01 -1.3934297859668732e-01</leafValues></_>
    <_>
      <internalNodes>
        0 -1 184346 -5.1761448383331299e-02</internalNodes>
      <leafValues>
        -8.0656820535659790e-01 1.8565538525581360e-01</leafValues></_>
    <_>
      <internalNodes>
        0 -1 156662 -6.3922032713890076e-03</internalNodes>
      <leafValues>
        -6.1754643917083740e-01 2.1897616982460022e-01</leafValues></_>
    <_>
      <internalNodes>
        0 -1 137871 -1.8042374402284622e-02</internalNodes>
      <leafValues>
        7.9599988460540771e-01 -1.6999180614948273e-01</leafValues></_>
    <_>
      <internalNodes>
        0 -1 10747 -1.8855683505535126e-02</internalNodes>
      <leafValues>
        8.8402557373046875e-01 -1.2422468513250351e-01</leafValues></_>
    <_>
      <internalNodes>
        0 -1 92259 -2.5092761963605881e-02</internalNodes>
      <leafValues>
        8.3673804998397827e-01 -1.1461067944765091e-01</leafValues></_>
    <_>
      <internalNodes>
        0 -1 107535 8.0548033118247986e-02</internalNodes>
      <leafValues>
        1.5315732359886169e-01 -9.0756869316101074e-01</leafValues></_></weakClassifiers></stage4>
</opencv_storage>
