<?xml version="1.0"?>
<opencv_storage>
<stage2>
  <maxWeakCount>8</maxWeakCount>
  <stageThreshold>-1.3641990423202515e+00</stageThreshold>
  <weakClassifiers>
    <_>
      <internalNodes>
        0 -1 35166 -7.0921391248703003e-02</internalNodes>
      <leafValues>
        6.6782009601593018e-01 -5.8438122272491455e-01</leafValues></_>
    <_>
      <internalNodes>
        0 -1 56222 -4.2269814759492874e-02</internalNodes>
      <leafValues>
        -7.5264227390289307e-01 2.8214761614799500e-01</leafValues></_>
    <_>
      <internalNodes>
        0 -1 254840 1.0601643472909927e-02</internalNodes>
      <leafValues>
        -3.5065421462059021e-01 6.6942137479782104e-01</leafValues></_>
    <_>
      <internalNodes>
        0 -1 20607 5.0622504204511642e-03</internalNodes>
      <leafValues>
        -4.1481405496597290e-01 4.3799474835395813e-01</leafValues></_>
    <_>
      <internalNodes>
        0 -1 100016 7.9020624980330467e-03</internalNodes>
      <leafValues>
        -2.4086666107177734e-01 7.5569504499435425e-01</leafValues></_>
    <_>
      <internalNodes>
        0 -1 255303 -3.0622700229287148e-02</internalNodes>
      <leafValues>
        8.2720029354095459e-01 -1.1853229254484177e-01</leafValues></_>
    <_>
      <internalNodes>
        0 -1 259584 1.7474772408604622e-02</internalNodes>
      <leafValues>
        -1.5211831033229828e-01 8.6343330144882202e-01</leafValues></_>
    <_>
      <internalNodes>
        0 -1 40046 3.0331971123814583e-02</internalNodes>
      <leafValues>
        -5.4873138666152954e-01 3.5799154639244080e-01</leafValues></_></weakClassifiers></stage2>
</opencv_storage>
