<?xml version="1.0"?>
<opencv_storage>
<stage9>
  <maxWeakCount>16</maxWeakCount>
  <stageThreshold>-1.2810666561126709e+00</stageThreshold>
  <weakClassifiers>
    <_>
      <internalNodes>
        0 -1 4138 -1.1192590929567814e-02</internalNodes>
      <leafValues>
        3.6625513434410095e-01 -5.0032114982604980e-01</leafValues></_>
    <_>
      <internalNodes>
        0 -1 50390 -2.7357261627912521e-02</internalNodes>
      <leafValues>
        5.5296099185943604e-01 -2.0221857726573944e-01</leafValues></_>
    <_>
      <internalNodes>
        0 -1 21412 1.5948165208101273e-02</internalNodes>
      <leafValues>
        -1.4838077127933502e-01 6.2571328878402710e-01</leafValues></_>
    <_>
      <internalNodes>
        0 -1 206546 1.1282645165920258e-02</internalNodes>
      <leafValues>
        -2.6384198665618896e-01 3.2182183861732483e-01</leafValues></_>
    <_>
      <internalNodes>
        0 -1 98965 7.7307410538196564e-02</internalNodes>
      <leafValues>
        1.0741993784904480e-01 -7.4297481775283813e-01</leafValues></_>
    <_>
      <internalNodes>
        0 -1 98945 -2.7510341256856918e-02</internalNodes>
      <leafValues>
        -5.2945876121520996e-01 1.5236386656761169e-01</leafValues></_>
    <_>
      <internalNodes>
        0 -1 261253 -2.9081096872687340e-03</internalNodes>
      <leafValues>
        -5.6737118959426880e-01 1.3314333558082581e-01</leafValues></_>
    <_>
      <internalNodes>
        0 -1 84151 2.7995593845844269e-03</internalNodes>
      <leafValues>
        -1.7664481699466705e-01 5.4934716224670410e-01</leafValues></_>
    <_>
      <internalNodes>
        0 -1 35830 -7.6797474175691605e-03</internalNodes>
      <leafValues>
        4.7872036695480347e-01 -1.6052332520484924e-01</leafValues></_>
    <_>
      <internalNodes>
        0 -1 208343 1.3302614912390709e-02</internalNodes>
      <leafValues>
        -4.0945473313331604e-01 1.9732372462749481e-01</leafValues></_>
    <_>
      <internalNodes>
        0 -1 200443 -4.2205918580293655e-03</internalNodes>
      <leafValues>
        4.4313415884971619e-01 -1.9004876911640167e-01</leafValues></_>
    <_>
      <internalNodes>
        0 -1 198616 6.1767175793647766e-04</internalNodes>
      <leafValues>
        -1.5352910757064819e-01 4.8755279183387756e-01</leafValues></_>
    <_>
      <internalNodes>
        0 -1 23635 3.3961900044232607e-04</internalNodes>
      <leafValues>
        1.8032298982143402e-01 -4.4506913423538208e-01</leafValues></_>
    <_>
      <internalNodes>
        0 -1 182487 -1.8458306789398193e-02</internalNodes>
      <leafValues>
        5.4652506113052368e-01 -1.7087174952030182e-01</leafValues></_>
    <_>
      <internalNodes>
        0 -1 260655 4.5627225190401077e-03</internalNodes>
      <leafValues>
        1.5500818192958832e-01 -5.9526062011718750e-01</leafValues></_>
    <_>
      <internalNodes>
        0 -1 113549 -5.5695292539894581e-03</internalNodes>
      <leafValues>
        4.9249947071075439e-01 -1.9952775537967682e-01</leafValues></_></weakClassifiers></stage9>
</opencv_storage>
