<?xml version="1.0"?>
<opencv_storage>
<stage8>
  <maxWeakCount>10</maxWeakCount>
  <stageThreshold>-1.0496774911880493e+00</stageThreshold>
  <weakClassifiers>
    <_>
      <internalNodes>
        0 -1 35431 4.6305045485496521e-02</internalNodes>
      <leafValues>
        -5.6097561120986938e-01 4.6012270450592041e-01</leafValues></_>
    <_>
      <internalNodes>
        0 -1 259265 -1.7731312662363052e-02</internalNodes>
      <leafValues>
        6.9692140817642212e-01 -2.4854294955730438e-01</leafValues></_>
    <_>
      <internalNodes>
        0 -1 253173 1.7372049391269684e-02</internalNodes>
      <leafValues>
        -2.0196646451950073e-01 7.7652084827423096e-01</leafValues></_>
    <_>
      <internalNodes>
        0 -1 252406 -1.1304415762424469e-02</internalNodes>
      <leafValues>
        8.2507431507110596e-01 -1.0026781260967255e-01</leafValues></_>
    <_>
      <internalNodes>
        0 -1 261468 -2.4187244707718492e-04</internalNodes>
      <leafValues>
        -5.4994821548461914e-01 2.5361117720603943e-01</leafValues></_>
    <_>
      <internalNodes>
        0 -1 100294 1.7657760530710220e-02</internalNodes>
      <leafValues>
        -1.6368442773818970e-01 8.6815333366394043e-01</leafValues></_>
    <_>
      <internalNodes>
        0 -1 158173 -1.6936123371124268e-02</internalNodes>
      <leafValues>
        7.0128864049911499e-01 -1.6068843007087708e-01</leafValues></_>
    <_>
      <internalNodes>
        0 -1 218432 1.6723612789064646e-03</internalNodes>
      <leafValues>
        -3.4506174921989441e-01 4.1576480865478516e-01</leafValues></_>
    <_>
      <internalNodes>
        0 -1 58880 9.3710244982503355e-05</internalNodes>
      <leafValues>
        -4.7928336262702942e-01 3.0596426129341125e-01</leafValues></_>
    <_>
      <internalNodes>
        0 -1 176091 4.8405919224023819e-02</internalNodes>
      <leafValues>
        2.1466739475727081e-01 -7.6933687925338745e-01</leafValues></_></weakClassifiers></stage8>
</opencv_storage>
