<?xml version="1.0"?>
<opencv_storage>
<stage1>
  <maxWeakCount>6</maxWeakCount>
  <stageThreshold>-1.1214777231216431e+00</stageThreshold>
  <weakClassifiers>
    <_>
      <internalNodes>
        0 -1 156209 1.5085594728589058e-02</internalNodes>
      <leafValues>
        -5.7744652032852173e-01 7.8210115432739258e-01</leafValues></_>
    <_>
      <internalNodes>
        0 -1 242725 9.1344658285379410e-03</internalNodes>
      <leafValues>
        -5.7311600446701050e-01 4.5756962895393372e-01</leafValues></_>
    <_>
      <internalNodes>
        0 -1 169249 -5.7573076337575912e-03</internalNodes>
      <leafValues>
        7.6098084449768066e-01 -3.7651178240776062e-01</leafValues></_>
    <_>
      <internalNodes>
        0 -1 121784 8.3400402218103409e-03</internalNodes>
      <leafValues>
        -1.6588130593299866e-01 8.6479353904724121e-01</leafValues></_>
    <_>
      <internalNodes>
        0 -1 106683 -5.4856282658874989e-03</internalNodes>
      <leafValues>
        8.3079725503921509e-01 -2.6929834485054016e-01</leafValues></_>
    <_>
      <internalNodes>
        0 -1 2850 -8.2705933600664139e-03</internalNodes>
      <leafValues>
        8.4236824512481689e-01 -1.8989852070808411e-01</leafValues></_></weakClassifiers></stage1>
</opencv_storage>
