<?xml version="1.0"?>
<opencv_storage>
<stage6>
  <maxWeakCount>13</maxWeakCount>
  <stageThreshold>-1.6194726228713989e+00</stageThreshold>
  <weakClassifiers>
    <_>
      <internalNodes>
        0 -1 17482 -2.8952455148100853e-02</internalNodes>
      <leafValues>
        5.8798283338546753e-01 -5.2776002883911133e-01</leafValues></_>
    <_>
      <internalNodes>
        0 -1 241593 -2.0847501233220100e-02</internalNodes>
      <leafValues>
        6.1046826839447021e-01 -2.7090367674827576e-01</leafValues></_>
    <_>
      <internalNodes>
        0 -1 1065 3.0627548694610596e-02</internalNodes>
      <leafValues>
        -4.8201581835746765e-01 2.9648506641387939e-01</leafValues></_>
    <_>
      <internalNodes>
        0 -1 81547 -2.0288711413741112e-02</internalNodes>
      <leafValues>
        8.1788909435272217e-01 -1.5358610451221466e-01</leafValues></_>
    <_>
      <internalNodes>
        0 -1 155214 9.9111180752515793e-03</internalNodes>
      <leafValues>
        -1.4973655343055725e-01 8.0414384603500366e-01</leafValues></_>
    <_>
      <internalNodes>
        0 -1 2836 -7.1827434003353119e-03</internalNodes>
      <leafValues>
        5.8248353004455566e-01 -1.7384919524192810e-01</leafValues></_>
    <_>
      <internalNodes>
        0 -1 106979 5.2877315320074558e-03</internalNodes>
      <leafValues>
        -2.8758701682090759e-01 3.9748570322990417e-01</leafValues></_>
    <_>
      <internalNodes>
        0 -1 10691 1.2278942158445716e-03</internalNodes>
      <leafValues>
        2.4184611439704895e-01 -5.5241870880126953e-01</leafValues></_>
    <_>
      <internalNodes>
        0 -1 23749 -8.6655933409929276e-03</internalNodes>
      <leafValues>
        5.1378268003463745e-01 -2.4419349431991577e-01</leafValues></_>
    <_>
      <internalNodes>
        0 -1 179262 6.5498212352395058e-03</internalNodes>
      <leafValues>
        -1.9899372756481171e-01 5.4971182346343994e-01</leafValues></_>
    <_>
      <internalNodes>
        0 -1 139782 -1.2564255855977535e-02</internalNodes>
      <leafValues>
        8.4357768297195435e-01 -1.3009749352931976e-01</leafValues></_>
    <_>
      <internalNodes>
        0 -1 128678 1.3593823648989201e-02</internalNodes>
      <leafValues>
        2.0028851926326752e-01 -5.8333528041839600e-01</leafValues></_>
    <_>
      <internalNodes>
        0 -1 110945 -8.2370229065418243e-03</internalNodes>
      <leafValues>
        5.8276355266571045e-01 -2.0169028639793396e-01</leafValues></_></weakClassifiers></stage6>
</opencv_storage>
