<?xml version="1.0"?>
<opencv_storage>
<stage14>
  <maxWeakCount>11</maxWeakCount>
  <stageThreshold>-9.9802613258361816e-01</stageThreshold>
  <weakClassifiers>
    <_>
      <internalNodes>
        0 -1 252291 4.6091809868812561e-02</internalNodes>
      <leafValues>
        -5.9595960378646851e-01 8.8339224457740784e-02</leafValues></_>
    <_>
      <internalNodes>
        0 -1 112032 -8.1398934125900269e-03</internalNodes>
      <leafValues>
        4.7632062435150146e-01 -2.4697013199329376e-01</leafValues></_>
    <_>
      <internalNodes>
        0 -1 141080 8.3763422444462776e-03</internalNodes>
      <leafValues>
        -1.8786355853080750e-01 6.1441868543624878e-01</leafValues></_>
    <_>
      <internalNodes>
        0 -1 1483 6.1588846147060394e-03</internalNodes>
      <leafValues>
        1.9544745981693268e-01 -6.2731611728668213e-01</leafValues></_>
    <_>
      <internalNodes>
        0 -1 83701 -4.6826340258121490e-02</internalNodes>
      <leafValues>
        -6.1579674482345581e-01 1.8850722908973694e-01</leafValues></_>
    <_>
      <internalNodes>
        0 -1 12370 1.3739147689193487e-03</internalNodes>
      <leafValues>
        -2.2848646342754364e-01 5.4096049070358276e-01</leafValues></_>
    <_>
      <internalNodes>
        0 -1 2829 -1.4895354397594929e-03</internalNodes>
      <leafValues>
        -4.9157437682151794e-01 2.4702732264995575e-01</leafValues></_>
    <_>
      <internalNodes>
        0 -1 8735 6.0326454695314169e-04</internalNodes>
      <leafValues>
        1.4680415391921997e-01 -6.5395075082778931e-01</leafValues></_>
    <_>
      <internalNodes>
        0 -1 51552 -3.0024290084838867e-02</internalNodes>
      <leafValues>
        6.1714470386505127e-01 -1.8870468437671661e-01</leafValues></_>
    <_>
      <internalNodes>
        0 -1 7745 2.3507995065301657e-03</internalNodes>
      <leafValues>
        1.5483210980892181e-01 -7.3593342304229736e-01</leafValues></_>
    <_>
      <internalNodes>
        0 -1 226268 1.0599661618471146e-03</internalNodes>
      <leafValues>
        -2.8032815456390381e-01 4.4704329967498779e-01</leafValues></_></weakClassifiers></stage14>
</opencv_storage>
