<?xml version="1.0"?>
<opencv_storage>
<stage4>
  <maxWeakCount>6</maxWeakCount>
  <stageThreshold>-8.3156216144561768e-01</stageThreshold>
  <weakClassifiers>
    <_>
      <internalNodes>
        0 -1 35163 -3.7316963076591492e-02</internalNodes>
      <leafValues>
        7.6363635063171387e-01 -5.2994012832641602e-01</leafValues></_>
    <_>
      <internalNodes>
        0 -1 34752 1.4548417180776596e-02</internalNodes>
      <leafValues>
        -2.7188614010810852e-01 8.6405396461486816e-01</leafValues></_>
    <_>
      <internalNodes>
        0 -1 234843 -1.4295966830104589e-03</internalNodes>
      <leafValues>
        6.1439889669418335e-01 -2.7318784594535828e-01</leafValues></_>
    <_>
      <internalNodes>
        0 -1 9754 4.9449871294200420e-03</internalNodes>
      <leafValues>
        -2.8390640020370483e-01 6.6131728887557983e-01</leafValues></_>
    <_>
      <internalNodes>
        0 -1 2865 -1.6745135188102722e-02</internalNodes>
      <leafValues>
        8.7224906682968140e-01 -2.0853395760059357e-01</leafValues></_>
    <_>
      <internalNodes>
        0 -1 241593 -2.3522833362221718e-02</internalNodes>
      <leafValues>
        8.4413272142410278e-01 -1.5169440209865570e-01</leafValues></_></weakClassifiers></stage4>
</opencv_storage>
