<?xml version="1.0"?>
<opencv_storage>
<stage11>
  <maxWeakCount>10</maxWeakCount>
  <stageThreshold>-9.8913800716400146e-01</stageThreshold>
  <weakClassifiers>
    <_>
      <internalNodes>
        0 -1 43014 -5.0555311143398285e-02</internalNodes>
      <leafValues>
        8.4375000000000000e-01 -4.5378151535987854e-01</leafValues></_>
    <_>
      <internalNodes>
        0 -1 42108 -2.9124429449439049e-02</internalNodes>
      <leafValues>
        8.0172520875930786e-01 -2.0171488821506500e-01</leafValues></_>
    <_>
      <internalNodes>
        0 -1 57500 4.1794382035732269e-02</internalNodes>
      <leafValues>
        -1.5697889029979706e-01 6.2342536449432373e-01</leafValues></_>
    <_>
      <internalNodes>
        0 -1 256527 -9.7285518422722816e-03</internalNodes>
      <leafValues>
        6.3500624895095825e-01 -1.5861493349075317e-01</leafValues></_>
    <_>
      <internalNodes>
        0 -1 256816 1.0931538417935371e-02</internalNodes>
      <leafValues>
        -2.0521701872348785e-01 6.2989503145217896e-01</leafValues></_>
    <_>
      <internalNodes>
        0 -1 47535 -3.1763568520545959e-02</internalNodes>
      <leafValues>
        8.7843251228332520e-01 -1.0432353615760803e-01</leafValues></_>
    <_>
      <internalNodes>
        0 -1 205880 2.7070077136158943e-02</internalNodes>
      <leafValues>
        1.9397734105587006e-01 -7.3389846086502075e-01</leafValues></_>
    <_>
      <internalNodes>
        0 -1 9864 2.0851703360676765e-02</internalNodes>
      <leafValues>
        -2.0904369652271271e-01 5.6328195333480835e-01</leafValues></_>
    <_>
      <internalNodes>
        0 -1 11565 -1.0154212359338999e-03</internalNodes>
      <leafValues>
        -5.9258085489273071e-01 2.1761581301689148e-01</leafValues></_>
    <_>
      <internalNodes>
        0 -1 9739 3.2792994752526283e-03</internalNodes>
      <leafValues>
        2.2800397872924805e-01 -6.8338233232498169e-01</leafValues></_></weakClassifiers></stage11>
</opencv_storage>
