<?xml version="1.0"?>
<opencv_storage>
<cascade>
  <stageType>BOOST</stageType>
  <featureType>HAAR</featureType>
  <height>24</height>
  <width>24</width>
  <stageParams>
    <boostType>GAB</boostType>
    <minHitRate>9.9699997901916504e-01</minHitRate>
    <maxFalseAlarm>3.0000000260770321e-03</maxFalseAlarm>
    <weightTrimRate>9.7000002861022949e-01</weightTrimRate>
    <maxDepth>1</maxDepth>
    <maxWeakCount>100</maxWeakCount></stageParams>
  <featureParams>
    <maxCatCount>0</maxCatCount>
    <featSize>1</featSize>
    <mode>ALL</mode></featureParams>
  <stageNum>7</stageNum>
  <stages>
    <!-- stage 0 -->
    <_>
      <maxWeakCount>18</maxWeakCount>
      <stageThreshold>-2.6093575358390808e-01</stageThreshold>
      <weakClassifiers>
        <_>
          <internalNodes>
            0 -1 53 -1.3621520251035690e-02</internalNodes>
          <leafValues>
            6.6013073921203613e-01 -7.4702703952789307e-01</leafValues></_>
        <_>
          <internalNodes>
            0 -1 201 2.3734658025205135e-03</internalNodes>
          <leafValues>
            -4.9000310897827148e-01 7.8743785619735718e-01</leafValues></_>
        <_>
          <internalNodes>
            0 -1 35 5.8498620055615902e-03</internalNodes>
          <leafValues>
            -6.3202929496765137e-01 4.2618182301521301e-01</leafValues></_>
        <_>
          <internalNodes>
            0 -1 174 -7.1502448990941048e-03</internalNodes>
          <leafValues>
            8.5949373245239258e-01 -2.8362908959388733e-01</leafValues></_>
        <_>
          <internalNodes>
            0 -1 88 1.6166586428880692e-02</internalNodes>
          <leafValues>
            -2.3873439431190491e-01 9.1683512926101685e-01</leafValues></_>
        <_>
          <internalNodes>
            0 -1 109 -8.5466932505369186e-03</internalNodes>
          <leafValues>
            8.1019377708435059e-01 -2.1979470551013947e-01</leafValues></_>
        <_>
          <internalNodes>
            0 -1 183 1.0413359850645065e-03</internalNodes>
          <leafValues>
            -2.5964087247848511e-01 7.7644687891006470e-01</leafValues></_>
        <_>
          <internalNodes>
            0 -1 74 -9.6817221492528915e-03</internalNodes>
          <leafValues>
            8.5242855548858643e-01 -2.2212742269039154e-01</leafValues></_>
        <_>
          <internalNodes>
            0 -1 142 3.4722548443824053e-03</internalNodes>
          <leafValues>
            -2.4136154353618622e-01 8.2602012157440186e-01</leafValues></_>
        <_>
          <internalNodes>
            0 -1 90 1.1284759966656566e-03</internalNodes>
          <leafValues>
            -2.6690870523452759e-01 7.6940131187438965e-01</leafValues></_>
        <_>
          <internalNodes>
            0 -1 105 -5.4197451099753380e-03</internalNodes>
          <leafValues>
            7.8875809907913208e-01 -2.2782966494560242e-01</leafValues></_>
        <_>
          <internalNodes>
            0 -1 33 -1.9414354115724564e-02</internalNodes>
          <leafValues>
            8.8174885511398315e-01 -2.0839199423789978e-01</leafValues></_>
        <_>
          <internalNodes>
            0 -1 140 -5.7403193786740303e-03</internalNodes>
          <leafValues>
            7.5905692577362061e-01 -2.5960919260978699e-01</leafValues></_>
        <_>
          <internalNodes>
            0 -1 181 -4.8462720587849617e-03</internalNodes>
          <leafValues>
            6.8234932422637939e-01 -2.9712942242622375e-01</leafValues></_>
        <_>
          <internalNodes>
            0 -1 118 -1.0763552039861679e-02</internalNodes>
          <leafValues>
            7.9053717851638794e-01 -2.6182907819747925e-01</leafValues></_>
        <_>
          <internalNodes>
            0 -1 20 9.8037049174308777e-03</internalNodes>
          <leafValues>
            -1.7259599268436432e-01 9.0982079505920410e-01</leafValues></_>
        <_>
          <internalNodes>
            0 -1 15 1.3913851231336594e-02</internalNodes>
          <leafValues>
            -2.0153503119945526e-01 8.2559919357299805e-01</leafValues></_>
        <_>
          <internalNodes>
            0 -1 122 -1.1478923261165619e-02</internalNodes>
          <leafValues>
            8.2500916719436646e-01 -2.3616167902946472e-01</leafValues></_></weakClassifiers></_>
    <!-- stage 1 -->
    <_>
      <maxWeakCount>26</maxWeakCount>
      <stageThreshold>-8.2579679787158966e-02</stageThreshold>
      <weakClassifiers>
        <_>
          <internalNodes>
            0 -1 50 -7.2248794138431549e-02</internalNodes>
          <leafValues>
            4.7517731785774231e-01 -7.0117396116256714e-01</leafValues></_>
        <_>
          <internalNodes>
            0 -1 97 -2.8284855186939240e-02</internalNodes>
          <leafValues>
            -7.9069727659225464e-01 1.7931942641735077e-01</leafValues></_>
        <_>
          <internalNodes>
            0 -1 227 2.2866159677505493e-02</internalNodes>
          <leafValues>
            -2.7509406208992004e-01 8.6461418867111206e-01</leafValues></_>
        <_>
          <internalNodes>
            0 -1 66 -1.6837380826473236e-02</internalNodes>
          <leafValues>
            -6.9408881664276123e-01 3.0948278307914734e-01</leafValues></_>
        <_>
          <internalNodes>
            0 -1 134 -9.6071790903806686e-03</internalNodes>
          <leafValues>
            -8.1259256601333618e-01 2.3054012656211853e-01</leafValues></_>
        <_>
          <internalNodes>
            0 -1 96 -2.0200874656438828e-02</internalNodes>
          <leafValues>
            9.2628639936447144e-01 -2.1971704065799713e-01</leafValues></_>
        <_>
          <internalNodes>
            0 -1 34 -4.3660562485456467e-02</internalNodes>
          <leafValues>
            7.3622369766235352e-01 -1.8988499045372009e-01</leafValues></_>
        <_>
          <internalNodes>
            0 -1 176 2.5551626094966196e-05</internalNodes>
          <leafValues>
            -4.0485027432441711e-01 4.4694873690605164e-01</leafValues></_>
        <_>
          <internalNodes>
            0 -1 41 1.6086479648947716e-02</internalNodes>
          <leafValues>
            -2.0348431169986725e-01 7.2833287715911865e-01</leafValues></_>
        <_>
          <internalNodes>
            0 -1 133 4.7401087358593941e-03</internalNodes>
          <leafValues>
            2.4178479611873627e-01 -6.7413121461868286e-01</leafValues></_>
        <_>
          <internalNodes>
            0 -1 16 1.6185294836759567e-02</internalNodes>
          <leafValues>
            -2.2113202512264252e-01 7.7916425466537476e-01</leafValues></_>
        <_>
          <internalNodes>
            0 -1 89 -1.9431763212196529e-04</internalNodes>
          <leafValues>
            -6.7340433597564697e-01 2.4381819367408752e-01</leafValues></_>
        <_>
          <internalNodes>
            0 -1 86 1.6191536560654640e-02</internalNodes>
          <leafValues>
            -3.0058401823043823e-01 5.6558448076248169e-01</leafValues></_>
        <_>
          <internalNodes>
            0 -1 129 2.4700373411178589e-02</internalNodes>
          <leafValues>
            -1.5418024361133575e-01 8.7364006042480469e-01</leafValues></_>
        <_>
          <internalNodes>
            0 -1 85 -2.3519657552242279e-02</internalNodes>
          <leafValues>
            8.8069820404052734e-01 -1.6296797990798950e-01</leafValues></_>
        <_>
          <internalNodes>
            0 -1 2 -5.5443119257688522e-02</internalNodes>
          <leafValues>
            -6.8918418884277344e-01 2.5651794672012329e-01</leafValues></_>
        <_>
          <internalNodes>
            0 -1 123 -1.0057734325528145e-02</internalNodes>
          <leafValues>
            -7.2537219524383545e-01 1.7164053022861481e-01</leafValues></_>
        <_>
          <internalNodes>
            0 -1 57 -3.7748075556010008e-04</internalNodes>
          <leafValues>
            -6.9620800018310547e-01 1.8614080548286438e-01</leafValues></_>
        <_>
          <internalNodes>
            0 -1 126 1.3186126016080379e-02</internalNodes>
          <leafValues>
            1.9436116516590118e-01 -7.5780463218688965e-01</leafValues></_>
        <_>
          <internalNodes>
            0 -1 87 -1.6265921294689178e-02</internalNodes>
          <leafValues>
            7.3498421907424927e-01 -2.3144474625587463e-01</leafValues></_>
        <_>
          <internalNodes>
            0 -1 14 -1.8378227949142456e-02</internalNodes>
          <leafValues>
            -5.0149369239807129e-01 3.1714069843292236e-01</leafValues></_>
        <_>
          <internalNodes>
            0 -1 49 1.9677538424730301e-02</internalNodes>
          <leafValues>
            -1.9991888105869293e-01 8.2721924781799316e-01</leafValues></_>
        <_>
          <internalNodes>
            0 -1 117 -2.1585671231150627e-02</internalNodes>
          <leafValues>
            -8.2725250720977783e-01 2.0690971612930298e-01</leafValues></_>
        <_>
          <internalNodes>
            0 -1 120 -1.3955255970358849e-02</internalNodes>
          <leafValues>
            6.5982282161712646e-01 -2.4867659807205200e-01</leafValues></_>
        <_>
          <internalNodes>
            0 -1 25 -2.1379269310273230e-04</internalNodes>
          <leafValues>
            -5.8141422271728516e-01 2.8697240352630615e-01</leafValues></_>
        <_>
          <internalNodes>
            0 -1 43 1.2596922926604748e-02</internalNodes>
          <leafValues>
            -1.9804656505584717e-01 7.6800864934921265e-01</leafValues></_></weakClassifiers></_>
    <!-- stage 2 -->
    <_>
      <maxWeakCount>29</maxWeakCount>
      <stageThreshold>-4.4448047876358032e-01</stageThreshold>
      <weakClassifiers>
        <_>
          <internalNodes>
            0 -1 6 -1.2746058404445648e-02</internalNodes>
          <leafValues>
            6.1904764175415039e-01 -7.0168066024780273e-01</leafValues></_>
        <_>
          <internalNodes>
            0 -1 219 -2.2830018773674965e-02</internalNodes>
          <leafValues>
            6.0466080904006958e-01 -4.1801020503044128e-01</leafValues></_>
        <_>
          <internalNodes>
            0 -1 67 3.2527796924114227e-02</internalNodes>
          <leafValues>
            -4.0571886301040649e-01 4.2675930261611938e-01</leafValues></_>
        <_>
          <internalNodes>
            0 -1 171 5.7706575840711594e-02</internalNodes>
          <leafValues>
            2.2250929474830627e-01 -7.7596610784530640e-01</leafValues></_>
        <_>
          <internalNodes>
            0 -1 233 1.4194171875715256e-02</internalNodes>
          <leafValues>
            -1.9872170686721802e-01 7.7523779869079590e-01</leafValues></_>
        <_>
          <internalNodes>
            0 -1 230 -1.0235110297799110e-02</internalNodes>
          <leafValues>
            6.0983467102050781e-01 -2.2368432581424713e-01</leafValues></_>
        <_>
          <internalNodes>
            0 -1 25 8.5547100752592087e-04</internalNodes>
          <leafValues>
            2.3816275596618652e-01 -6.1153393983840942e-01</leafValues></_>
        <_>
          <internalNodes>
            0 -1 3 7.3399282991886139e-03</internalNodes>
          <leafValues>
            -2.8368413448333740e-01 5.4413533210754395e-01</leafValues></_>
        <_>
          <internalNodes>
            0 -1 244 -6.3862940296530724e-03</internalNodes>
          <leafValues>
            -8.1549066305160522e-01 1.5880548954010010e-01</leafValues></_>
        <_>
          <internalNodes>
            0 -1 245 -1.5428711194545031e-03</internalNodes>
          <leafValues>
            -5.5645292997360229e-01 2.3231957852840424e-01</leafValues></_>
        <_>
          <internalNodes>
            0 -1 7 -1.7745776101946831e-02</internalNodes>
          <leafValues>
            6.0450065135955811e-01 -2.3892119526863098e-01</leafValues></_>
        <_>
          <internalNodes>
            0 -1 220 -4.7149620950222015e-02</internalNodes>
          <leafValues>
            7.7261841297149658e-01 -1.6065502166748047e-01</leafValues></_>
        <_>
          <internalNodes>
            0 -1 5 -1.2270409613847733e-02</internalNodes>
          <leafValues>
            7.5187593698501587e-01 -1.4678257703781128e-01</leafValues></_>
        <_>
          <internalNodes>
            0 -1 192 2.8705867007374763e-03</internalNodes>
          <leafValues>
            -2.4245169758796692e-01 4.9915379285812378e-01</leafValues></_>
        <_>
          <internalNodes>
            0 -1 239 4.9898801371455193e-03</internalNodes>
          <leafValues>
            1.8575763702392578e-01 -7.5718551874160767e-01</leafValues></_>
        <_>
          <internalNodes>
            0 -1 11 1.7712354660034180e-02</internalNodes>
          <leafValues>
            1.5602852404117584e-01 -6.4653319120407104e-01</leafValues></_>
        <_>
          <internalNodes>
            0 -1 157 -1.0535646229982376e-02</internalNodes>
          <leafValues>
            5.8129864931106567e-01 -2.1590924263000488e-01</leafValues></_>
        <_>
          <internalNodes>
            0 -1 48 2.6719998568296432e-03</internalNodes>
          <leafValues>
            1.6890478134155273e-01 -7.5101107358932495e-01</leafValues></_>
        <_>
          <internalNodes>
            0 -1 190 6.1580154579132795e-05</internalNodes>
          <leafValues>
            -3.7402608990669250e-01 2.9549992084503174e-01</leafValues></_>
        <_>
          <internalNodes>
            0 -1 160 1.0210452601313591e-03</internalNodes>
          <leafValues>
            -3.9453226327896118e-01 3.2381176948547363e-01</leafValues></_>
        <_>
          <internalNodes>
            0 -1 82 1.5927106142044067e-03</internalNodes>
          <leafValues>
            -3.3733299374580383e-01 3.2283177971839905e-01</leafValues></_>
        <_>
          <internalNodes>
            0 -1 208 -2.6860879734158516e-02</internalNodes>
          <leafValues>
            7.4733006954193115e-01 -1.5786229074001312e-01</leafValues></_>
        <_>
          <internalNodes>
            0 -1 224 2.7301521040499210e-03</internalNodes>
          <leafValues>
            -1.5997993946075439e-01 7.6774835586547852e-01</leafValues></_>
        <_>
          <internalNodes>
            0 -1 249 1.8130557145923376e-03</internalNodes>
          <leafValues>
            2.2286672890186310e-01 -5.7259440422058105e-01</leafValues></_>
        <_>
          <internalNodes>
            0 -1 93 3.4304596483707428e-03</internalNodes>
          <leafValues>
            -2.6467373967170715e-01 4.3602606654167175e-01</leafValues></_>
        <_>
          <internalNodes>
            0 -1 128 1.2027484364807606e-02</internalNodes>
          <leafValues>
            -2.2270861268043518e-01 5.6086945533752441e-01</leafValues></_>
        <_>
          <internalNodes>
            0 -1 155 9.5027498900890350e-04</internalNodes>
          <leafValues>
            -2.0977324247360229e-01 5.6472337245941162e-01</leafValues></_>
        <_>
          <internalNodes>
            0 -1 166 -3.6265272647142410e-03</internalNodes>
          <leafValues>
            5.0154566764831543e-01 -2.4056932330131531e-01</leafValues></_>
        <_>
          <internalNodes>
            0 -1 249 -1.7765169031918049e-03</internalNodes>
          <leafValues>
            -5.7566845417022705e-01 2.3560790717601776e-01</leafValues></_></weakClassifiers></_>
    <!-- stage 3 -->
    <_>
      <maxWeakCount>44</maxWeakCount>
      <stageThreshold>-3.2290214300155640e-01</stageThreshold>
      <weakClassifiers>
        <_>
          <internalNodes>
            0 -1 231 2.8337949886918068e-02</internalNodes>
          <leafValues>
            -6.6188526153564453e-01 5.4901963472366333e-01</leafValues></_>
        <_>
          <internalNodes>
            0 -1 149 -3.1943723559379578e-02</internalNodes>
          <leafValues>
            3.8455337285995483e-01 -3.2160329818725586e-01</leafValues></_>
        <_>
          <internalNodes>
            0 -1 234 1.1285565793514252e-02</internalNodes>
          <leafValues>
            1.1099189519882202e-01 -8.9900702238082886e-01</leafValues></_>
        <_>
          <internalNodes>
            0 -1 60 -1.4722134917974472e-02</internalNodes>
          <leafValues>
            5.4647248983383179e-01 -1.7730011045932770e-01</leafValues></_>
        <_>
          <internalNodes>
            0 -1 98 6.2706563621759415e-03</internalNodes>
          <leafValues>
            1.5730318427085876e-01 -6.2522506713867188e-01</leafValues></_>
        <_>
          <internalNodes>
            0 -1 10 1.6475258162245154e-03</internalNodes>
          <leafValues>
            1.7102502286434174e-01 -5.5590295791625977e-01</leafValues></_>
        <_>
          <internalNodes>
            0 -1 101 -1.1450262740254402e-02</internalNodes>
          <leafValues>
            -8.8460206985473633e-01 9.2896871268749237e-02</leafValues></_>
        <_>
          <internalNodes>
            0 -1 100 1.7216805368661880e-02</internalNodes>
          <leafValues>
            9.0769439935684204e-02 -8.2826191186904907e-01</leafValues></_>
        <_>
          <internalNodes>
            0 -1 22 -3.1786782201379538e-03</internalNodes>
          <leafValues>
            -6.2897169589996338e-01 1.4360837638378143e-01</leafValues></_>
        <_>
          <internalNodes>
            0 -1 29 1.2811240740120411e-03</internalNodes>
          <leafValues>
            -3.0140465497970581e-01 3.0615374445915222e-01</leafValues></_>
        <_>
          <internalNodes>
            0 -1 203 5.9896823950111866e-04</internalNodes>
          <leafValues>
            -3.1445354223251343e-01 3.0222278833389282e-01</leafValues></_>
        <_>
          <internalNodes>
            0 -1 206 2.6355485897511244e-03</internalNodes>
          <leafValues>
            1.3679152727127075e-01 -6.3973248004913330e-01</leafValues></_>
        <_>
          <internalNodes>
            0 -1 12 1.3129712641239166e-01</internalNodes>
          <leafValues>
            1.1159384995698929e-01 -6.8717586994171143e-01</leafValues></_>
        <_>
          <internalNodes>
            0 -1 248 1.3470310950651765e-03</internalNodes>
          <leafValues>
            1.0521756112575531e-01 -7.0205557346343994e-01</leafValues></_>
        <_>
          <internalNodes>
            0 -1 188 6.1913649551570415e-04</internalNodes>
          <leafValues>
            -2.0736691355705261e-01 4.3389737606048584e-01</leafValues></_>
        <_>
          <internalNodes>
            0 -1 56 -8.5225189104676247e-03</internalNodes>
          <leafValues>
            -9.2502075433731079e-01 1.0292013734579086e-01</leafValues></_>
        <_>
          <internalNodes>
            0 -1 225 2.4856351315975189e-02</internalNodes>
          <leafValues>
            -2.1662455797195435e-01 4.2721727490425110e-01</leafValues></_>
        <_>
          <internalNodes>
            0 -1 240 2.6280744932591915e-03</internalNodes>
          <leafValues>
            1.0642424970865250e-01 -7.7328729629516602e-01</leafValues></_>
        <_>
          <internalNodes>
            0 -1 229 6.3850935548543930e-03</internalNodes>
          <leafValues>
            -1.8011924624443054e-01 4.9444609880447388e-01</leafValues></_>
        <_>
          <internalNodes>
            0 -1 216 1.1069518513977528e-03</internalNodes>
          <leafValues>
            1.7598937451839447e-01 -5.5921489000320435e-01</leafValues></_>
        <_>
          <internalNodes>
            0 -1 102 -1.7099571414291859e-03</internalNodes>
          <leafValues>
            -3.9064633846282959e-01 2.0849584043025970e-01</leafValues></_>
        <_>
          <internalNodes>
            0 -1 168 6.0387449339032173e-03</internalNodes>
          <leafValues>
            -2.0399907231330872e-01 4.5379319787025452e-01</leafValues></_>
        <_>
          <internalNodes>
            0 -1 9 1.3184634037315845e-02</internalNodes>
          <leafValues>
            1.0910893976688385e-01 -8.2507729530334473e-01</leafValues></_>
        <_>
          <internalNodes>
            0 -1 113 -1.8769089132547379e-02</internalNodes>
          <leafValues>
            -9.3970233201980591e-01 7.2535485029220581e-02</leafValues></_>
        <_>
          <internalNodes>
            0 -1 73 -6.9232629612088203e-03</internalNodes>
          <leafValues>
            2.8305935859680176e-01 -3.1593579053878784e-01</leafValues></_>
        <_>
          <internalNodes>
            0 -1 125 2.6647206395864487e-02</internalNodes>
          <leafValues>
            1.3405103981494904e-01 -6.3057678937911987e-01</leafValues></_>
        <_>
          <internalNodes>
            0 -1 17 2.9088335577398539e-03</internalNodes>
          <leafValues>
            -2.6897171139717102e-01 3.7055030465126038e-01</leafValues></_>
        <_>
          <internalNodes>
            0 -1 114 9.4358250498771667e-03</internalNodes>
          <leafValues>
            1.0662561655044556e-01 -8.8232475519180298e-01</leafValues></_>
        <_>
          <internalNodes>
            0 -1 247 3.1262222910299897e-04</internalNodes>
          <leafValues>
            1.4425984025001526e-01 -5.2537047863006592e-01</leafValues></_>
        <_>
          <internalNodes>
            0 -1 23 -1.5038684941828251e-03</internalNodes>
          <leafValues>
            5.4542165994644165e-01 -1.7241592705249786e-01</leafValues></_>
        <_>
          <internalNodes>
            0 -1 130 -4.8125581815838814e-04</internalNodes>
          <leafValues>
            4.0983337163925171e-01 -2.2583341598510742e-01</leafValues></_>
        <_>
          <internalNodes>
            0 -1 121 -9.3116872012615204e-03</internalNodes>
          <leafValues>
            -5.8734059333801270e-01 1.5107876062393188e-01</leafValues></_>
        <_>
          <internalNodes>
            0 -1 193 7.5464621186256409e-03</internalNodes>
          <leafValues>
            1.4490671455860138e-01 -5.4634302854537964e-01</leafValues></_>
        <_>
          <internalNodes>
            0 -1 250 -4.5499466359615326e-03</internalNodes>
          <leafValues>
            -6.0043853521347046e-01 1.2986961007118225e-01</leafValues></_>
        <_>
          <internalNodes>
            0 -1 27 5.3073681192472577e-04</internalNodes>
          <leafValues>
            -2.6542809605598450e-01 3.1734639406204224e-01</leafValues></_>
        <_>
          <internalNodes>
            0 -1 165 -1.9386080093681812e-03</internalNodes>
          <leafValues>
            3.7516546249389648e-01 -2.4737139046192169e-01</leafValues></_>
        <_>
          <internalNodes>
            0 -1 136 5.3035593591630459e-03</internalNodes>
          <leafValues>
            -2.6875546574592590e-01 3.1202724575996399e-01</leafValues></_>
        <_>
          <internalNodes>
            0 -1 38 2.6116983499377966e-03</internalNodes>
          <leafValues>
            -1.5438544750213623e-01 5.4676330089569092e-01</leafValues></_>
        <_>
          <internalNodes>
            0 -1 147 -8.4318465087562799e-04</internalNodes>
          <leafValues>
            4.7754409909248352e-01 -1.7416244745254517e-01</leafValues></_>
        <_>
          <internalNodes>
            0 -1 241 -6.8953970912843943e-04</internalNodes>
          <leafValues>
            -6.7076897621154785e-01 1.4340868592262268e-01</leafValues></_>
        <_>
          <internalNodes>
            0 -1 119 1.3307140907272696e-03</internalNodes>
          <leafValues>
            -2.9993033409118652e-01 3.0142125487327576e-01</leafValues></_>
        <_>
          <internalNodes>
            0 -1 112 1.8971029203385115e-03</internalNodes>
          <leafValues>
            1.2826061248779297e-01 -7.6711660623550415e-01</leafValues></_>
        <_>
          <internalNodes>
            0 -1 184 8.8410137686878443e-04</internalNodes>
          <leafValues>
            -2.6207512617111206e-01 3.5430499911308289e-01</leafValues></_>
        <_>
          <internalNodes>
            0 -1 189 3.3442171115893871e-05</internalNodes>
          <leafValues>
            -3.0190175771713257e-01 2.8202927112579346e-01</leafValues></_></weakClassifiers></_>
    <!-- stage 4 -->
    <_>
      <maxWeakCount>45</maxWeakCount>
      <stageThreshold>-2.8894519805908203e-01</stageThreshold>
      <weakClassifiers>
        <_>
          <internalNodes>
            0 -1 236 -1.8897477537393570e-02</internalNodes>
          <leafValues>
            1.5428571403026581e-01 -6.8327796459197998e-01</leafValues></_>
        <_>
          <internalNodes>
            0 -1 51 4.7538843005895615e-02</internalNodes>
          <leafValues>
            -3.1474983692169189e-01 4.2095959186553955e-01</leafValues></_>
        <_>
          <internalNodes>
            0 -1 19 2.1747439168393612e-03</internalNodes>
          <leafValues>
            2.1783731877803802e-01 -4.9297219514846802e-01</leafValues></_>
        <_>
          <internalNodes>
            0 -1 200 -1.3806786388158798e-02</internalNodes>
          <leafValues>
            5.9443354606628418e-01 -1.5005965530872345e-01</leafValues></_>
        <_>
          <internalNodes>
            0 -1 196 3.5851080901920795e-03</internalNodes>
          <leafValues>
            -2.4724547564983368e-01 3.1812739372253418e-01</leafValues></_>
        <_>
          <internalNodes>
            0 -1 78 -5.6362147442996502e-03</internalNodes>
          <leafValues>
            4.9458077549934387e-01 -1.5110102295875549e-01</leafValues></_>
        <_>
          <internalNodes>
            0 -1 146 -3.1668927520513535e-02</internalNodes>
          <leafValues>
            -8.0448728799819946e-01 1.3188754022121429e-01</leafValues></_>
        <_>
          <internalNodes>
            0 -1 148 2.7718738419935107e-04</internalNodes>
          <leafValues>
            -2.5241726636886597e-01 3.1896448135375977e-01</leafValues></_>
        <_>
          <internalNodes>
            0 -1 18 -4.1894502937793732e-03</internalNodes>
          <leafValues>
            -6.3227754831314087e-01 1.3959734141826630e-01</leafValues></_>
        <_>
          <internalNodes>
            0 -1 69 5.9757884591817856e-03</internalNodes>
          <leafValues>
            -2.9912364482879639e-01 2.7334663271903992e-01</leafValues></_>
        <_>
          <internalNodes>
            0 -1 197 -1.0682204738259315e-02</internalNodes>
          <leafValues>
            4.0708607435226440e-01 -1.8191193044185638e-01</leafValues></_>
        <_>
          <internalNodes>
            0 -1 44 2.4545177817344666e-02</internalNodes>
          <leafValues>
            1.0122843086719513e-01 -7.5768887996673584e-01</leafValues></_>
        <_>
          <internalNodes>
            0 -1 154 1.3516743201762438e-03</internalNodes>
          <leafValues>
            -1.9222800433635712e-01 3.6550778150558472e-01</leafValues></_>
        <_>
          <internalNodes>
            0 -1 199 -2.7512558153830469e-04</internalNodes>
          <leafValues>
            -4.0982499718666077e-01 1.7880249023437500e-01</leafValues></_>
        <_>
          <internalNodes>
            0 -1 79 1.1495534563437104e-03</internalNodes>
          <leafValues>
            -2.6703089475631714e-01 2.7886211872100830e-01</leafValues></_>
        <_>
          <internalNodes>
            0 -1 207 -1.1382339522242546e-02</internalNodes>
          <leafValues>
            6.5428155660629272e-01 -1.2679384648799896e-01</leafValues></_>
        <_>
          <internalNodes>
            0 -1 95 1.6752719879150391e-02</internalNodes>
          <leafValues>
            1.0371826589107513e-01 -9.0821492671966553e-01</leafValues></_>
        <_>
          <internalNodes>
            0 -1 139 6.2138158828020096e-03</internalNodes>
          <leafValues>
            -2.7613049745559692e-01 2.7781763672828674e-01</leafValues></_>
        <_>
          <internalNodes>
            0 -1 158 -4.1005725506693125e-04</internalNodes>
          <leafValues>
            -4.1747692227363586e-01 1.7096057534217834e-01</leafValues></_>
        <_>
          <internalNodes>
            0 -1 161 2.8717491659335792e-04</internalNodes>
          <leafValues>
            -2.0120510458946228e-01 4.0857478976249695e-01</leafValues></_>
        <_>
          <internalNodes>
            0 -1 40 -6.8291352363303304e-04</internalNodes>
          <leafValues>
            -5.4681092500686646e-01 1.4078782498836517e-01</leafValues></_>
        <_>
          <internalNodes>
            0 -1 91 1.5734236687421799e-02</internalNodes>
          <leafValues>
            -1.0485942661762238e-01 7.4688750505447388e-01</leafValues></_>
        <_>
          <internalNodes>
            0 -1 202 -2.4490212090313435e-03</internalNodes>
          <leafValues>
            3.1353163719177246e-01 -2.1895898878574371e-01</leafValues></_>
        <_>
          <internalNodes>
            0 -1 153 -3.1845066696405411e-03</internalNodes>
          <leafValues>
            3.1293019652366638e-01 -2.2306244075298309e-01</leafValues></_>
        <_>
          <internalNodes>
            0 -1 175 -2.2696208208799362e-02</internalNodes>
          <leafValues>
            -7.1257919073104858e-01 1.0421907901763916e-01</leafValues></_>
        <_>
          <internalNodes>
            0 -1 194 -1.8770445138216019e-02</internalNodes>
          <leafValues>
            8.1323736906051636e-01 -1.0404939949512482e-01</leafValues></_>
        <_>
          <internalNodes>
            0 -1 172 2.5037059094756842e-04</internalNodes>
          <leafValues>
            -1.9694539904594421e-01 3.7557366490364075e-01</leafValues></_>
        <_>
          <internalNodes>
            0 -1 178 1.4331063721328974e-03</internalNodes>
          <leafValues>
            1.3212507963180542e-01 -5.9005272388458252e-01</leafValues></_>
        <_>
          <internalNodes>
            0 -1 47 -7.9248257679864764e-04</internalNodes>
          <leafValues>
            -6.5709352493286133e-01 1.0568712651729584e-01</leafValues></_>
        <_>
          <internalNodes>
            0 -1 179 -3.8145931903272867e-03</internalNodes>
          <leafValues>
            -5.5660307407379150e-01 1.1338744312524796e-01</leafValues></_>
        <_>
          <internalNodes>
            0 -1 169 -1.0336750419810414e-03</internalNodes>
          <leafValues>
            2.3474380373954773e-01 -3.1173816323280334e-01</leafValues></_>
        <_>
          <internalNodes>
            0 -1 186 -1.3074919115751982e-03</internalNodes>
          <leafValues>
            3.9910903573036194e-01 -1.9091920554637909e-01</leafValues></_>
        <_>
          <internalNodes>
            0 -1 143 -5.3910114802420139e-03</internalNodes>
          <leafValues>
            -8.9790290594100952e-01 8.2519747316837311e-02</leafValues></_>
        <_>
          <internalNodes>
            0 -1 63 4.6444842591881752e-03</internalNodes>
          <leafValues>
            -1.8251433968544006e-01 4.0848851203918457e-01</leafValues></_>
        <_>
          <internalNodes>
            0 -1 4 3.3437773585319519e-02</internalNodes>
          <leafValues>
            -1.3816399872303009e-01 4.8500820994377136e-01</leafValues></_>
        <_>
          <internalNodes>
            0 -1 37 -7.4747512117028236e-03</internalNodes>
          <leafValues>
            4.6538150310516357e-01 -1.4674541354179382e-01</leafValues></_>
        <_>
          <internalNodes>
            0 -1 59 4.9624657258391380e-03</internalNodes>
          <leafValues>
            8.1357441842556000e-02 -9.6007513999938965e-01</leafValues></_>
        <_>
          <internalNodes>
            0 -1 242 -5.4955286032054573e-05</internalNodes>
          <leafValues>
            -3.7002342939376831e-01 1.7486490309238434e-01</leafValues></_>
        <_>
          <internalNodes>
            0 -1 144 -2.1948624635115266e-04</internalNodes>
          <leafValues>
            2.6727262139320374e-01 -2.5403532385826111e-01</leafValues></_>
        <_>
          <internalNodes>
            0 -1 24 7.4723199009895325e-02</internalNodes>
          <leafValues>
            -1.4809387922286987e-01 5.7155197858810425e-01</leafValues></_>
        <_>
          <internalNodes>
            0 -1 21 -6.4433580264449120e-03</internalNodes>
          <leafValues>
            -5.6876373291015625e-01 1.3508546352386475e-01</leafValues></_>
        <_>
          <internalNodes>
            0 -1 107 -1.0406833142042160e-02</internalNodes>
          <leafValues>
            3.9591488242149353e-01 -1.9011217355728149e-01</leafValues></_>
        <_>
          <internalNodes>
            0 -1 110 -9.5277960645034909e-04</internalNodes>
          <leafValues>
            3.8194578886032104e-01 -1.9634974002838135e-01</leafValues></_>
        <_>
          <internalNodes>
            0 -1 13 7.5664182077161968e-05</internalNodes>
          <leafValues>
            2.1495030820369720e-01 -3.5113739967346191e-01</leafValues></_>
        <_>
          <internalNodes>
            0 -1 138 2.8950266540050507e-02</internalNodes>
          <leafValues>
            8.9537031948566437e-02 -7.7834022045135498e-01</leafValues></_></weakClassifiers></_>
    <!-- stage 5 -->
    <_>
      <maxWeakCount>55</maxWeakCount>
      <stageThreshold>-3.0063454061746597e-02</stageThreshold>
      <weakClassifiers>
        <_>
          <internalNodes>
            0 -1 226 1.6659822314977646e-02</internalNodes>
          <leafValues>
            -5.9727627038955688e-01 4.7999998927116394e-01</leafValues></_>
        <_>
          <internalNodes>
            0 -1 30 -1.5664857346564531e-03</internalNodes>
          <leafValues>
            3.8850587606430054e-01 -2.6716852188110352e-01</leafValues></_>
        <_>
          <internalNodes>
            0 -1 1 -1.7796179745346308e-03</internalNodes>
          <leafValues>
            3.8785582780838013e-01 -2.0672723650932312e-01</leafValues></_>
        <_>
          <internalNodes>
            0 -1 8 -4.7113839536905289e-03</internalNodes>
          <leafValues>
            -7.1073788404464722e-01 1.0543429851531982e-01</leafValues></_>
        <_>
          <internalNodes>
            0 -1 68 2.9217589646577835e-02</internalNodes>
          <leafValues>
            -2.7729919552803040e-01 2.3661762475967407e-01</leafValues></_>
        <_>
          <internalNodes>
            0 -1 156 1.9472917774692178e-03</internalNodes>
          <leafValues>
            -1.7132146656513214e-01 3.8991698622703552e-01</leafValues></_>
        <_>
          <internalNodes>
            0 -1 195 4.0407717227935791e-02</internalNodes>
          <leafValues>
            -1.5005353093147278e-01 4.5434319972991943e-01</leafValues></_>
        <_>
          <internalNodes>
            0 -1 46 -2.8515863232314587e-04</internalNodes>
          <leafValues>
            -3.9974609017372131e-01 1.6208899021148682e-01</leafValues></_>
        <_>
          <internalNodes>
            0 -1 159 -7.3555514216423035e-02</internalNodes>
          <leafValues>
            -5.3819000720977783e-01 1.3157229125499725e-01</leafValues></_>
        <_>
          <internalNodes>
            0 -1 76 1.8460772698745131e-03</internalNodes>
          <leafValues>
            -2.1314761042594910e-01 3.5205885767936707e-01</leafValues></_>
        <_>
          <internalNodes>
            0 -1 77 1.1304234154522419e-02</internalNodes>
          <leafValues>
            1.3283257186412811e-01 -6.0433101654052734e-01</leafValues></_>
        <_>
          <internalNodes>
            0 -1 145 8.4828800754621625e-04</internalNodes>
          <leafValues>
            -3.1364464759826660e-01 2.1406820416450500e-01</leafValues></_>
        <_>
          <internalNodes>
            0 -1 141 4.5160062611103058e-02</internalNodes>
          <leafValues>
            1.0375326126813889e-01 -6.2020313739776611e-01</leafValues></_>
        <_>
          <internalNodes>
            0 -1 205 7.0353108458220959e-04</internalNodes>
          <leafValues>
            -2.2427949309349060e-01 3.2305985689163208e-01</leafValues></_>
        <_>
          <internalNodes>
            0 -1 162 -6.0193818062543869e-03</internalNodes>
          <leafValues>
            -8.6976343393325806e-01 7.4564866721630096e-02</leafValues></_>
        <_>
          <internalNodes>
            0 -1 222 -5.1263064146041870e-02</internalNodes>
          <leafValues>
            5.7612287998199463e-01 -1.3442166149616241e-01</leafValues></_>
        <_>
          <internalNodes>
            0 -1 185 -5.8326125144958496e-04</internalNodes>
          <leafValues>
            2.8966400027275085e-01 -2.2155612707138062e-01</leafValues></_>
        <_>
          <internalNodes>
            0 -1 64 4.3655239045619965e-02</internalNodes>
          <leafValues>
            7.1915462613105774e-02 -8.7608516216278076e-01</leafValues></_>
        <_>
          <internalNodes>
            0 -1 135 1.0716462275013328e-03</internalNodes>
          <leafValues>
            -1.9783408939838409e-01 3.4373554587364197e-01</leafValues></_>
        <_>
          <internalNodes>
            0 -1 58 -1.1555489618331194e-03</internalNodes>
          <leafValues>
            -7.4568748474121094e-01 9.8940305411815643e-02</leafValues></_>
        <_>
          <internalNodes>
            0 -1 215 -1.0097780032083392e-03</internalNodes>
          <leafValues>
            3.2024812698364258e-01 -2.1189571917057037e-01</leafValues></_>
        <_>
          <internalNodes>
            0 -1 75 3.0913114547729492e-02</internalNodes>
          <leafValues>
            -1.3217575848102570e-01 5.1064497232437134e-01</leafValues></_>
        <_>
          <internalNodes>
            0 -1 170 -1.6549702733755112e-02</internalNodes>
          <leafValues>
            2.4196194112300873e-01 -2.8743705153465271e-01</leafValues></_>
        <_>
          <internalNodes>
            0 -1 116 4.2915815720334649e-04</internalNodes>
          <leafValues>
            -1.9629187881946564e-01 3.4356084465980530e-01</leafValues></_>
        <_>
          <internalNodes>
            0 -1 177 -4.3721025576815009e-04</internalNodes>
          <leafValues>
            2.7374228835105896e-01 -2.5376620888710022e-01</leafValues></_>
        <_>
          <internalNodes>
            0 -1 124 -4.2721221689134836e-04</internalNodes>
          <leafValues>
            1.8870009481906891e-01 -3.5320982336997986e-01</leafValues></_>
        <_>
          <internalNodes>
            0 -1 65 2.0546286832541227e-03</internalNodes>
          <leafValues>
            -2.4554009735584259e-01 2.6678103208541870e-01</leafValues></_>
        <_>
          <internalNodes>
            0 -1 39 6.7094457335770130e-05</internalNodes>
          <leafValues>
            2.1053308248519897e-01 -3.4546163678169250e-01</leafValues></_>
        <_>
          <internalNodes>
            0 -1 243 -7.7347183832898736e-05</internalNodes>
          <leafValues>
            -3.6050117015838623e-01 1.8305796384811401e-01</leafValues></_>
        <_>
          <internalNodes>
            0 -1 180 -1.0515246540307999e-02</internalNodes>
          <leafValues>
            -6.2521123886108398e-01 9.5643311738967896e-02</leafValues></_>
        <_>
          <internalNodes>
            0 -1 182 1.1141503229737282e-02</internalNodes>
          <leafValues>
            5.8117628097534180e-02 -9.3296891450881958e-01</leafValues></_>
        <_>
          <internalNodes>
            0 -1 152 1.7203404568135738e-03</internalNodes>
          <leafValues>
            -2.4275521934032440e-01 2.9552263021469116e-01</leafValues></_>
        <_>
          <internalNodes>
            0 -1 137 7.9932715743780136e-03</internalNodes>
          <leafValues>
            9.1734275221824646e-02 -7.5171107053756714e-01</leafValues></_>
        <_>
          <internalNodes>
            0 -1 246 2.6425044052302837e-03</internalNodes>
          <leafValues>
            7.9832285642623901e-02 -6.4576280117034912e-01</leafValues></_>
        <_>
          <internalNodes>
            0 -1 52 -1.3078209757804871e-01</internalNodes>
          <leafValues>
            8.1202834844589233e-01 -8.5051886737346649e-02</leafValues></_>
        <_>
          <internalNodes>
            0 -1 83 -5.7633519172668457e-03</internalNodes>
          <leafValues>
            3.6794829368591309e-01 -1.5614844858646393e-01</leafValues></_>
        <_>
          <internalNodes>
            0 -1 131 8.0182608217000961e-03</internalNodes>
          <leafValues>
            1.1575581133365631e-01 -5.6623703241348267e-01</leafValues></_>
        <_>
          <internalNodes>
            0 -1 36 8.1945136189460754e-03</internalNodes>
          <leafValues>
            -2.0301865041255951e-01 3.4812545776367188e-01</leafValues></_>
        <_>
          <internalNodes>
            0 -1 103 -8.8871531188488007e-03</internalNodes>
          <leafValues>
            -5.7803499698638916e-01 1.1886140704154968e-01</leafValues></_>
        <_>
          <internalNodes>
            0 -1 150 1.5552690252661705e-02</internalNodes>
          <leafValues>
            1.1646302789449692e-01 -5.8967018127441406e-01</leafValues></_>
        <_>
          <internalNodes>
            0 -1 210 -1.0873775929212570e-02</internalNodes>
          <leafValues>
            -7.8283596038818359e-01 6.5620139241218567e-02</leafValues></_>
        <_>
          <internalNodes>
            0 -1 238 -1.5618500765413046e-04</internalNodes>
          <leafValues>
            2.4538797140121460e-01 -2.3618118464946747e-01</leafValues></_>
        <_>
          <internalNodes>
            0 -1 235 -2.8617642819881439e-03</internalNodes>
          <leafValues>
            4.2712676525115967e-01 -1.5922321379184723e-01</leafValues></_>
        <_>
          <internalNodes>
            0 -1 228 4.1904975660145283e-04</internalNodes>
          <leafValues>
            2.5608861446380615e-01 -2.3629096150398254e-01</leafValues></_>
        <_>
          <internalNodes>
            0 -1 211 8.1854015588760376e-03</internalNodes>
          <leafValues>
            -1.6989737749099731e-01 4.4986417889595032e-01</leafValues></_>
        <_>
          <internalNodes>
            0 -1 104 1.5430112835019827e-03</internalNodes>
          <leafValues>
            -1.7698177695274353e-01 3.5657036304473877e-01</leafValues></_>
        <_>
          <internalNodes>
            0 -1 218 6.2379660084843636e-03</internalNodes>
          <leafValues>
            -1.2750953435897827e-01 5.5970335006713867e-01</leafValues></_>
        <_>
          <internalNodes>
            0 -1 28 6.3548544421792030e-03</internalNodes>
          <leafValues>
            -1.7769071459770203e-01 3.7014338374137878e-01</leafValues></_>
        <_>
          <internalNodes>
            0 -1 31 -7.8425608808174729e-04</internalNodes>
          <leafValues>
            -6.2325853109359741e-01 1.0037199407815933e-01</leafValues></_>
        <_>
          <internalNodes>
            0 -1 0 -3.3727427944540977e-03</internalNodes>
          <leafValues>
            -9.0605139732360840e-01 6.0468282550573349e-02</leafValues></_>
        <_>
          <internalNodes>
            0 -1 223 1.1645089834928513e-03</internalNodes>
          <leafValues>
            1.4856600761413574e-01 -4.2526304721832275e-01</leafValues></_>
        <_>
          <internalNodes>
            0 -1 213 1.5667513944208622e-03</internalNodes>
          <leafValues>
            -1.6313226521015167e-01 3.8044613599777222e-01</leafValues></_>
        <_>
          <internalNodes>
            0 -1 99 9.7813662141561508e-03</internalNodes>
          <leafValues>
            1.2665951251983643e-01 -5.4309606552124023e-01</leafValues></_>
        <_>
          <internalNodes>
            0 -1 209 -1.4404917601495981e-04</internalNodes>
          <leafValues>
            2.4446980655193329e-01 -2.6198545098304749e-01</leafValues></_>
        <_>
          <internalNodes>
            0 -1 80 4.9972720444202423e-03</internalNodes>
          <leafValues>
            -1.4475600421428680e-01 4.9057644605636597e-01</leafValues></_></weakClassifiers></_>
    <!-- stage 6 -->
    <_>
      <maxWeakCount>37</maxWeakCount>
      <stageThreshold>-5.9486001729965210e-01</stageThreshold>
      <weakClassifiers>
        <_>
          <internalNodes>
            0 -1 115 3.2626658678054810e-02</internalNodes>
          <leafValues>
            -6.8057209253311157e-01 -7.9497911036014557e-02</leafValues></_>
        <_>
          <internalNodes>
            0 -1 111 -1.9839614629745483e-02</internalNodes>
          <leafValues>
            3.8684594631195068e-01 -3.2379734516143799e-01</leafValues></_>
        <_>
          <internalNodes>
            0 -1 61 9.9740354926325381e-05</internalNodes>
          <leafValues>
            2.3634117841720581e-01 -3.5930109024047852e-01</leafValues></_>
        <_>
          <internalNodes>
            0 -1 55 -7.5374683365225792e-03</internalNodes>
          <leafValues>
            4.2850160598754883e-01 -1.9226755201816559e-01</leafValues></_>
        <_>
          <internalNodes>
            0 -1 42 -3.1837697606533766e-03</internalNodes>
          <leafValues>
            3.8600814342498779e-01 -2.1980255842208862e-01</leafValues></_>
        <_>
          <internalNodes>
            0 -1 187 -1.2504352489486337e-03</internalNodes>
          <leafValues>
            -3.6720851063728333e-01 2.3892882466316223e-01</leafValues></_>
        <_>
          <internalNodes>
            0 -1 237 9.7320610657334328e-03</internalNodes>
          <leafValues>
            1.0206709057092667e-01 -8.3488827943801880e-01</leafValues></_>
        <_>
          <internalNodes>
            0 -1 26 3.9560105651617050e-03</internalNodes>
          <leafValues>
            1.4919686317443848e-01 -5.7644861936569214e-01</leafValues></_>
        <_>
          <internalNodes>
            0 -1 108 9.2781018465757370e-03</internalNodes>
          <leafValues>
            2.4220162630081177e-01 -3.4431481361389160e-01</leafValues></_>
        <_>
          <internalNodes>
            0 -1 106 2.0185943692922592e-02</internalNodes>
          <leafValues>
            -1.0706599056720734e-01 8.8661015033721924e-01</leafValues></_>
        <_>
          <internalNodes>
            0 -1 251 -2.6401327922940254e-03</internalNodes>
          <leafValues>
            -5.6817889213562012e-01 1.7277902364730835e-01</leafValues></_>
        <_>
          <internalNodes>
            0 -1 232 -1.1461144313216209e-03</internalNodes>
          <leafValues>
            4.0609413385391235e-01 -2.1460770070552826e-01</leafValues></_>
        <_>
          <internalNodes>
            0 -1 71 2.6979916729032993e-03</internalNodes>
          <leafValues>
            -3.1193381547927856e-01 3.2125917077064514e-01</leafValues></_>
        <_>
          <internalNodes>
            0 -1 163 -3.5407900810241699e-02</internalNodes>
          <leafValues>
            -5.0301641225814819e-01 1.8535721302032471e-01</leafValues></_>
        <_>
          <internalNodes>
            0 -1 151 -2.7723831590265036e-03</internalNodes>
          <leafValues>
            3.6708694696426392e-01 -2.4453859031200409e-01</leafValues></_>
        <_>
          <internalNodes>
            0 -1 191 -1.3901020865887403e-03</internalNodes>
          <leafValues>
            4.8434877395629883e-01 -1.7507603764533997e-01</leafValues></_>
        <_>
          <internalNodes>
            0 -1 94 1.6141138039529324e-03</internalNodes>
          <leafValues>
            1.2567767500877380e-01 -7.1333658695220947e-01</leafValues></_>
        <_>
          <internalNodes>
            0 -1 84 1.9436264410614967e-03</internalNodes>
          <leafValues>
            1.3859380781650543e-01 -5.3809857368469238e-01</leafValues></_>
        <_>
          <internalNodes>
            0 -1 173 -5.8767257723957300e-04</internalNodes>
          <leafValues>
            4.5084375143051147e-01 -1.9214497506618500e-01</leafValues></_>
        <_>
          <internalNodes>
            0 -1 167 2.8093443688703701e-05</internalNodes>
          <leafValues>
            -2.8428331017494202e-01 2.9906678199768066e-01</leafValues></_>
        <_>
          <internalNodes>
            0 -1 92 1.4476597243628930e-05</internalNodes>
          <leafValues>
            -3.2005017995834351e-01 2.6760789752006531e-01</leafValues></_>
        <_>
          <internalNodes>
            0 -1 198 -1.4482848928309977e-04</internalNodes>
          <leafValues>
            -4.2629805207252502e-01 2.3005151748657227e-01</leafValues></_>
        <_>
          <internalNodes>
            0 -1 70 7.1573231252841651e-05</internalNodes>
          <leafValues>
            2.7871736884117126e-01 -3.0758461356163025e-01</leafValues></_>
        <_>
          <internalNodes>
            0 -1 204 -9.5154106384143233e-04</internalNodes>
          <leafValues>
            3.4933704137802124e-01 -2.5497707724571228e-01</leafValues></_>
        <_>
          <internalNodes>
            0 -1 214 9.1359550133347511e-03</internalNodes>
          <leafValues>
            -1.7585574090480804e-01 5.6760257482528687e-01</leafValues></_>
        <_>
          <internalNodes>
            0 -1 132 1.3389432802796364e-02</internalNodes>
          <leafValues>
            1.4772684872150421e-01 -6.7248183488845825e-01</leafValues></_>
        <_>
          <internalNodes>
            0 -1 221 -8.7501446250826120e-04</internalNodes>
          <leafValues>
            -4.3198871612548828e-01 1.9895835220813751e-01</leafValues></_>
        <_>
          <internalNodes>
            0 -1 212 2.9763146303594112e-03</internalNodes>
          <leafValues>
            -2.1319526433944702e-01 4.8245134949684143e-01</leafValues></_>
        <_>
          <internalNodes>
            0 -1 164 -6.0027895960956812e-04</internalNodes>
          <leafValues>
            5.0943857431411743e-01 -1.6211153566837311e-01</leafValues></_>
        <_>
          <internalNodes>
            0 -1 72 -2.5138948112726212e-02</internalNodes>
          <leafValues>
            -3.8608661293983459e-01 2.3020499944686890e-01</leafValues></_>
        <_>
          <internalNodes>
            0 -1 217 1.1215385049581528e-02</internalNodes>
          <leafValues>
            -1.4577312767505646e-01 7.1895152330398560e-01</leafValues></_>
        <_>
          <internalNodes>
            0 -1 54 -7.6784901320934296e-03</internalNodes>
          <leafValues>
            7.7114248275756836e-01 -9.3693420290946960e-02</leafValues></_>
        <_>
          <internalNodes>
            0 -1 45 3.4419010626152158e-04</internalNodes>
          <leafValues>
            3.0739316344261169e-01 -3.1390562653541565e-01</leafValues></_>
        <_>
          <internalNodes>
            0 -1 32 -5.7328697293996811e-03</internalNodes>
          <leafValues>
            4.6246662735939026e-01 -2.0405125617980957e-01</leafValues></_>
        <_>
          <internalNodes>
            0 -1 62 3.9255758747458458e-03</internalNodes>
          <leafValues>
            -2.8678634762763977e-01 3.2822290062904358e-01</leafValues></_>
        <_>
          <internalNodes>
            0 -1 81 4.0228986181318760e-03</internalNodes>
          <leafValues>
            2.0738440752029419e-01 -4.5688000321388245e-01</leafValues></_>
        <_>
          <internalNodes>
            0 -1 127 1.2156086741015315e-03</internalNodes>
          <leafValues>
            -1.9590449333190918e-01 5.5271083116531372e-01</leafValues></_></weakClassifiers></_></stages>
  <features>
    <_>
      <rects>
        <_>
          0 0 3 1 -1.</_>
        <_>
          1 0 1 1 3.</_></rects>
      <tilted>0</tilted></_>
    <_>
      <rects>
        <_>
          0 0 2 4 -1.</_>
        <_>
          0 0 1 2 2.</_>
        <_>
          1 2 1 2 2.</_></rects>
      <tilted>0</tilted></_>
    <_>
      <rects>
        <_>
          0 0 24 14 -1.</_>
        <_>
          0 0 12 7 2.</_>
        <_>
          12 7 12 7 2.</_></rects>
      <tilted>0</tilted></_>
    <_>
      <rects>
        <_>
          0 1 4 8 -1.</_>
        <_>
          1 1 2 8 2.</_></rects>
      <tilted>0</tilted></_>
    <_>
      <rects>
        <_>
          0 1 4 18 -1.</_>
        <_>
          0 1 2 9 2.</_>
        <_>
          2 10 2 9 2.</_></rects>
      <tilted>0</tilted></_>
    <_>
      <rects>
        <_>
          0 2 3 7 -1.</_>
        <_>
          1 2 1 7 3.</_></rects>
      <tilted>0</tilted></_>
    <_>
      <rects>
        <_>
          0 2 4 7 -1.</_>
        <_>
          1 2 2 7 2.</_></rects>
      <tilted>0</tilted></_>
    <_>
      <rects>
        <_>
          0 2 4 8 -1.</_>
        <_>
          2 2 2 8 2.</_></rects>
      <tilted>0</tilted></_>
    <_>
      <rects>
        <_>
          0 2 3 2 -1.</_>
        <_>
          0 3 3 1 2.</_></rects>
      <tilted>0</tilted></_>
    <_>
      <rects>
        <_>
          0 2 3 6 -1.</_>
        <_>
          0 4 3 2 3.</_></rects>
      <tilted>0</tilted></_>
    <_>
      <rects>
        <_>
          0 3 1 8 -1.</_>
        <_>
          0 5 1 4 2.</_></rects>
      <tilted>0</tilted></_>
    <_>
      <rects>
        <_>
          0 3 24 6 -1.</_>
        <_>
          0 3 12 3 2.</_>
        <_>
          12 6 12 3 2.</_></rects>
      <tilted>0</tilted></_>
    <_>
      <rects>
        <_>
          0 3 24 20 -1.</_>
        <_>
          12 3 12 20 2.</_></rects>
      <tilted>0</tilted></_>
    <_>
      <rects>
        <_>
          0 5 2 2 -1.</_>
        <_>
          0 5 1 1 2.</_>
        <_>
          1 6 1 1 2.</_></rects>
      <tilted>0</tilted></_>
    <_>
      <rects>
        <_>
          0 5 24 4 -1.</_>
        <_>
          12 5 12 4 2.</_></rects>
      <tilted>0</tilted></_>
    <_>
      <rects>
        <_>
          0 6 4 12 -1.</_>
        <_>
          0 6 2 6 2.</_>
        <_>
          2 12 2 6 2.</_></rects>
      <tilted>0</tilted></_>
    <_>
      <rects>
        <_>
          0 8 2 15 -1.</_>
        <_>
          1 8 1 15 2.</_></rects>
      <tilted>0</tilted></_>
    <_>
      <rects>
        <_>
          0 9 3 3 -1.</_>
        <_>
          1 9 1 3 3.</_></rects>
      <tilted>0</tilted></_>
    <_>
      <rects>
        <_>
          0 9 1 9 -1.</_>
        <_>
          0 12 1 3 3.</_></rects>
      <tilted>0</tilted></_>
    <_>
      <rects>
        <_>
          0 9 1 12 -1.</_>
        <_>
          0 13 1 4 3.</_></rects>
      <tilted>0</tilted></_>
    <_>
      <rects>
        <_>
          0 10 3 8 -1.</_>
        <_>
          1 10 1 8 3.</_></rects>
      <tilted>0</tilted></_>
    <_>
      <rects>
        <_>
          0 10 3 8 -1.</_>
        <_>
          0 12 3 4 2.</_></rects>
      <tilted>0</tilted></_>
    <_>
      <rects>
        <_>
          0 11 1 12 -1.</_>
        <_>
          0 14 1 6 2.</_></rects>
      <tilted>0</tilted></_>
    <_>
      <rects>
        <_>
          0 13 3 1 -1.</_>
        <_>
          1 13 1 1 3.</_></rects>
      <tilted>0</tilted></_>
    <_>
      <rects>
        <_>
          0 14 12 6 -1.</_>
        <_>
          4 16 4 2 9.</_></rects>
      <tilted>0</tilted></_>
    <_>
      <rects>
        <_>
          0 15 1 3 -1.</_>
        <_>
          0 16 1 1 3.</_></rects>
      <tilted>0</tilted></_>
    <_>
      <rects>
        <_>
          0 15 2 8 -1.</_>
        <_>
          0 19 2 4 2.</_></rects>
      <tilted>0</tilted></_>
    <_>
      <rects>
        <_>
          0 15 16 2 -1.</_>
        <_>
          0 15 8 1 2.</_>
        <_>
          8 16 8 1 2.</_></rects>
      <tilted>0</tilted></_>
    <_>
      <rects>
        <_>
          0 16 3 7 -1.</_>
        <_>
          1 16 1 7 3.</_></rects>
      <tilted>0</tilted></_>
    <_>
      <rects>
        <_>
          0 19 6 1 -1.</_>
        <_>
          2 19 2 1 3.</_></rects>
      <tilted>0</tilted></_>
    <_>
      <rects>
        <_>
          0 20 2 4 -1.</_>
        <_>
          0 20 1 2 2.</_>
        <_>
          1 22 1 2 2.</_></rects>
      <tilted>0</tilted></_>
    <_>
      <rects>
        <_>
          1 0 2 1 -1.</_>
        <_>
          2 0 1 1 2.</_></rects>
      <tilted>0</tilted></_>
    <_>
      <rects>
        <_>
          1 0 6 1 -1.</_>
        <_>
          1 0 3 1 2.</_></rects>
      <tilted>1</tilted></_>
    <_>
      <rects>
        <_>
          1 0 22 3 -1.</_>
        <_>
          1 1 22 1 3.</_></rects>
      <tilted>0</tilted></_>
    <_>
      <rects>
        <_>
          1 0 22 4 -1.</_>
        <_>
          1 1 22 2 2.</_></rects>
      <tilted>0</tilted></_>
    <_>
      <rects>
        <_>
          1 1 3 18 -1.</_>
        <_>
          1 10 3 9 2.</_></rects>
      <tilted>0</tilted></_>
    <_>
      <rects>
        <_>
          1 2 6 3 -1.</_>
        <_>
          3 3 2 1 9.</_></rects>
      <tilted>0</tilted></_>
    <_>
      <rects>
        <_>
          1 3 2 16 -1.</_>
        <_>
          1 3 1 8 2.</_>
        <_>
          2 11 1 8 2.</_></rects>
      <tilted>0</tilted></_>
    <_>
      <rects>
        <_>
          1 3 4 1 -1.</_>
        <_>
          3 3 2 1 2.</_></rects>
      <tilted>0</tilted></_>
    <_>
      <rects>
        <_>
          1 4 1 2 -1.</_>
        <_>
          1 5 1 1 2.</_></rects>
      <tilted>0</tilted></_>
    <_>
      <rects>
        <_>
          1 4 2 2 -1.</_>
        <_>
          1 5 2 1 2.</_></rects>
      <tilted>0</tilted></_>
    <_>
      <rects>
        <_>
          1 5 3 16 -1.</_>
        <_>
          2 5 1 16 3.</_></rects>
      <tilted>0</tilted></_>
    <_>
      <rects>
        <_>
          1 6 4 6 -1.</_>
        <_>
          1 6 2 3 2.</_>
        <_>
          3 9 2 3 2.</_></rects>
      <tilted>0</tilted></_>
    <_>
      <rects>
        <_>
          1 7 3 6 -1.</_>
        <_>
          2 7 1 6 3.</_></rects>
      <tilted>0</tilted></_>
    <_>
      <rects>
        <_>
          1 7 15 2 -1.</_>
        <_>
          6 7 5 2 3.</_></rects>
      <tilted>0</tilted></_>
    <_>
      <rects>
        <_>
          1 9 3 2 -1.</_>
        <_>
          1 10 3 1 2.</_></rects>
      <tilted>0</tilted></_>
    <_>
      <rects>
        <_>
          1 14 1 6 -1.</_>
        <_>
          1 16 1 2 3.</_></rects>
      <tilted>0</tilted></_>
    <_>
      <rects>
        <_>
          1 18 1 2 -1.</_>
        <_>
          1 19 1 1 2.</_></rects>
      <tilted>0</tilted></_>
    <_>
      <rects>
        <_>
          2 0 6 1 -1.</_>
        <_>
          4 0 2 1 3.</_></rects>
      <tilted>0</tilted></_>
    <_>
      <rects>
        <_>
          2 0 15 4 -1.</_>
        <_>
          2 1 15 2 2.</_></rects>
      <tilted>0</tilted></_>
    <_>
      <rects>
        <_>
          2 0 17 6 -1.</_>
        <_>
          2 2 17 2 3.</_></rects>
      <tilted>0</tilted></_>
    <_>
      <rects>
        <_>
          2 1 2 20 -1.</_>
        <_>
          2 11 2 10 2.</_></rects>
      <tilted>0</tilted></_>
    <_>
      <rects>
        <_>
          2 1 20 12 -1.</_>
        <_>
          7 1 10 12 2.</_></rects>
      <tilted>0</tilted></_>
    <_>
      <rects>
        <_>
          2 1 19 3 -1.</_>
        <_>
          2 2 19 1 3.</_></rects>
      <tilted>0</tilted></_>
    <_>
      <rects>
        <_>
          2 2 4 2 -1.</_>
        <_>
          2 3 4 1 2.</_></rects>
      <tilted>0</tilted></_>
    <_>
      <rects>
        <_>
          2 17 9 4 -1.</_>
        <_>
          2 18 9 2 2.</_></rects>
      <tilted>0</tilted></_>
    <_>
      <rects>
        <_>
          2 22 6 2 -1.</_>
        <_>
          4 22 2 2 3.</_></rects>
      <tilted>0</tilted></_>
    <_>
      <rects>
        <_>
          3 0 3 1 -1.</_>
        <_>
          4 0 1 1 3.</_></rects>
      <tilted>0</tilted></_>
    <_>
      <rects>
        <_>
          3 0 2 2 -1.</_>
        <_>
          4 0 1 2 2.</_></rects>
      <tilted>0</tilted></_>
    <_>
      <rects>
        <_>
          3 0 3 3 -1.</_>
        <_>
          4 0 1 3 3.</_></rects>
      <tilted>0</tilted></_>
    <_>
      <rects>
        <_>
          3 0 4 3 -1.</_>
        <_>
          4 1 2 3 2.</_></rects>
      <tilted>1</tilted></_>
    <_>
      <rects>
        <_>
          3 0 6 1 -1.</_>
        <_>
          5 0 2 1 3.</_></rects>
      <tilted>0</tilted></_>
    <_>
      <rects>
        <_>
          3 0 8 7 -1.</_>
        <_>
          5 0 4 7 2.</_></rects>
      <tilted>0</tilted></_>
    <_>
      <rects>
        <_>
          3 0 6 4 -1.</_>
        <_>
          3 0 3 2 2.</_>
        <_>
          6 2 3 2 2.</_></rects>
      <tilted>0</tilted></_>
    <_>
      <rects>
        <_>
          3 0 9 9 -1.</_>
        <_>
          6 0 3 9 3.</_></rects>
      <tilted>0</tilted></_>
    <_>
      <rects>
        <_>
          3 1 9 3 -1.</_>
        <_>
          6 1 3 3 3.</_></rects>
      <tilted>0</tilted></_>
    <_>
      <rects>
        <_>
          3 1 12 11 -1.</_>
        <_>
          7 1 4 11 3.</_></rects>
      <tilted>0</tilted></_>
    <_>
      <rects>
        <_>
          3 2 21 10 -1.</_>
        <_>
          10 2 7 10 3.</_></rects>
      <tilted>0</tilted></_>
    <_>
      <rects>
        <_>
          3 4 7 14 -1.</_>
        <_>
          3 11 7 7 2.</_></rects>
      <tilted>0</tilted></_>
    <_>
      <rects>
        <_>
          3 5 12 3 -1.</_>
        <_>
          7 5 4 3 3.</_></rects>
      <tilted>0</tilted></_>
    <_>
      <rects>
        <_>
          3 6 2 2 -1.</_>
        <_>
          3 7 2 1 2.</_></rects>
      <tilted>0</tilted></_>
    <_>
      <rects>
        <_>
          3 6 8 5 -1.</_>
        <_>
          5 6 4 5 2.</_></rects>
      <tilted>0</tilted></_>
    <_>
      <rects>
        <_>
          3 10 15 12 -1.</_>
        <_>
          3 14 15 4 3.</_></rects>
      <tilted>0</tilted></_>
    <_>
      <rects>
        <_>
          3 13 12 7 -1.</_>
        <_>
          7 13 4 7 3.</_></rects>
      <tilted>0</tilted></_>
    <_>
      <rects>
        <_>
          3 13 12 3 -1.</_>
        <_>
          3 14 12 1 3.</_></rects>
      <tilted>0</tilted></_>
    <_>
      <rects>
        <_>
          3 20 17 4 -1.</_>
        <_>
          3 22 17 2 2.</_></rects>
      <tilted>0</tilted></_>
    <_>
      <rects>
        <_>
          3 21 2 3 -1.</_>
        <_>
          3 22 2 1 3.</_></rects>
      <tilted>0</tilted></_>
    <_>
      <rects>
        <_>
          4 0 8 4 -1.</_>
        <_>
          8 0 4 4 2.</_></rects>
      <tilted>0</tilted></_>
    <_>
      <rects>
        <_>
          4 1 2 4 -1.</_>
        <_>
          4 2 2 2 2.</_></rects>
      <tilted>0</tilted></_>
    <_>
      <rects>
        <_>
          4 1 12 3 -1.</_>
        <_>
          7 1 6 3 2.</_></rects>
      <tilted>0</tilted></_>
    <_>
      <rects>
        <_>
          4 1 4 2 -1.</_>
        <_>
          4 2 4 1 2.</_></rects>
      <tilted>0</tilted></_>
    <_>
      <rects>
        <_>
          4 2 6 3 -1.</_>
        <_>
          6 2 2 3 3.</_></rects>
      <tilted>0</tilted></_>
    <_>
      <rects>
        <_>
          4 2 6 5 -1.</_>
        <_>
          6 2 2 5 3.</_></rects>
      <tilted>0</tilted></_>
    <_>
      <rects>
        <_>
          4 4 2 18 -1.</_>
        <_>
          4 4 1 9 2.</_>
        <_>
          5 13 1 9 2.</_></rects>
      <tilted>0</tilted></_>
    <_>
      <rects>
        <_>
          4 9 2 3 -1.</_>
        <_>
          5 9 1 3 2.</_></rects>
      <tilted>0</tilted></_>
    <_>
      <rects>
        <_>
          4 9 14 3 -1.</_>
        <_>
          4 10 14 1 3.</_></rects>
      <tilted>0</tilted></_>
    <_>
      <rects>
        <_>
          4 17 8 6 -1.</_>
        <_>
          4 19 8 2 3.</_></rects>
      <tilted>0</tilted></_>
    <_>
      <rects>
        <_>
          4 18 14 3 -1.</_>
        <_>
          4 19 14 1 3.</_></rects>
      <tilted>0</tilted></_>
    <_>
      <rects>
        <_>
          4 21 17 3 -1.</_>
        <_>
          4 22 17 1 3.</_></rects>
      <tilted>0</tilted></_>
    <_>
      <rects>
        <_>
          4 23 2 1 -1.</_>
        <_>
          5 23 1 1 2.</_></rects>
      <tilted>0</tilted></_>
    <_>
      <rects>
        <_>
          5 0 1 3 -1.</_>
        <_>
          5 1 1 1 3.</_></rects>
      <tilted>0</tilted></_>
    <_>
      <rects>
        <_>
          5 1 2 5 -1.</_>
        <_>
          5 1 1 5 2.</_></rects>
      <tilted>1</tilted></_>
    <_>
      <rects>
        <_>
          5 1 4 2 -1.</_>
        <_>
          7 1 2 2 2.</_></rects>
      <tilted>0</tilted></_>
    <_>
      <rects>
        <_>
          5 1 3 3 -1.</_>
        <_>
          4 2 3 1 3.</_></rects>
      <tilted>1</tilted></_>
    <_>
      <rects>
        <_>
          5 2 4 1 -1.</_>
        <_>
          6 2 2 1 2.</_></rects>
      <tilted>0</tilted></_>
    <_>
      <rects>
        <_>
          5 2 8 6 -1.</_>
        <_>
          7 2 4 6 2.</_></rects>
      <tilted>0</tilted></_>
    <_>
      <rects>
        <_>
          5 2 11 4 -1.</_>
        <_>
          5 3 11 2 2.</_></rects>
      <tilted>0</tilted></_>
    <_>
      <rects>
        <_>
          5 10 14 9 -1.</_>
        <_>
          12 10 7 9 2.</_></rects>
      <tilted>0</tilted></_>
    <_>
      <rects>
        <_>
          5 21 12 3 -1.</_>
        <_>
          9 21 4 3 3.</_></rects>
      <tilted>0</tilted></_>
    <_>
      <rects>
        <_>
          6 0 1 6 -1.</_>
        <_>
          6 0 1 3 2.</_></rects>
      <tilted>1</tilted></_>
    <_>
      <rects>
        <_>
          6 0 6 7 -1.</_>
        <_>
          8 0 2 7 3.</_></rects>
      <tilted>0</tilted></_>
    <_>
      <rects>
        <_>
          6 1 6 5 -1.</_>
        <_>
          8 1 2 5 3.</_></rects>
      <tilted>0</tilted></_>
    <_>
      <rects>
        <_>
          6 1 6 6 -1.</_>
        <_>
          9 1 3 6 2.</_></rects>
      <tilted>0</tilted></_>
    <_>
      <rects>
        <_>
          6 1 13 2 -1.</_>
        <_>
          6 1 13 1 2.</_></rects>
      <tilted>1</tilted></_>
    <_>
      <rects>
        <_>
          6 2 6 2 -1.</_>
        <_>
          6 2 3 1 2.</_>
        <_>
          9 3 3 1 2.</_></rects>
      <tilted>0</tilted></_>
    <_>
      <rects>
        <_>
          6 10 6 3 -1.</_>
        <_>
          6 11 6 1 3.</_></rects>
      <tilted>0</tilted></_>
    <_>
      <rects>
        <_>
          6 13 12 5 -1.</_>
        <_>
          9 13 6 5 2.</_></rects>
      <tilted>0</tilted></_>
    <_>
      <rects>
        <_>
          6 15 10 4 -1.</_>
        <_>
          6 16 10 2 2.</_></rects>
      <tilted>0</tilted></_>
    <_>
      <rects>
        <_>
          6 15 16 8 -1.</_>
        <_>
          6 17 16 4 2.</_></rects>
      <tilted>0</tilted></_>
    <_>
      <rects>
        <_>
          6 21 10 3 -1.</_>
        <_>
          6 22 10 1 3.</_></rects>
      <tilted>0</tilted></_>
    <_>
      <rects>
        <_>
          7 0 2 8 -1.</_>
        <_>
          7 0 1 4 2.</_>
        <_>
          8 4 1 4 2.</_></rects>
      <tilted>0</tilted></_>
    <_>
      <rects>
        <_>
          7 0 4 7 -1.</_>
        <_>
          7 0 2 7 2.</_></rects>
      <tilted>1</tilted></_>
    <_>
      <rects>
        <_>
          7 1 4 2 -1.</_>
        <_>
          8 1 2 2 2.</_></rects>
      <tilted>0</tilted></_>
    <_>
      <rects>
        <_>
          7 2 4 22 -1.</_>
        <_>
          8 2 2 22 2.</_></rects>
      <tilted>0</tilted></_>
    <_>
      <rects>
        <_>
          7 2 9 3 -1.</_>
        <_>
          10 2 3 3 3.</_></rects>
      <tilted>0</tilted></_>
    <_>
      <rects>
        <_>
          7 4 15 6 -1.</_>
        <_>
          7 6 15 2 3.</_></rects>
      <tilted>0</tilted></_>
    <_>
      <rects>
        <_>
          7 6 2 2 -1.</_>
        <_>
          7 6 1 1 2.</_>
        <_>
          8 7 1 1 2.</_></rects>
      <tilted>0</tilted></_>
    <_>
      <rects>
        <_>
          7 7 10 12 -1.</_>
        <_>
          7 7 5 6 2.</_>
        <_>
          12 13 5 6 2.</_></rects>
      <tilted>0</tilted></_>
    <_>
      <rects>
        <_>
          7 9 16 3 -1.</_>
        <_>
          7 10 16 1 3.</_></rects>
      <tilted>0</tilted></_>
    <_>
      <rects>
        <_>
          7 13 12 2 -1.</_>
        <_>
          7 13 6 1 2.</_>
        <_>
          13 14 6 1 2.</_></rects>
      <tilted>0</tilted></_>
    <_>
      <rects>
        <_>
          7 13 12 3 -1.</_>
        <_>
          7 14 12 1 3.</_></rects>
      <tilted>0</tilted></_>
    <_>
      <rects>
        <_>
          7 14 2 8 -1.</_>
        <_>
          7 18 2 4 2.</_></rects>
      <tilted>0</tilted></_>
    <_>
      <rects>
        <_>
          7 19 15 3 -1.</_>
        <_>
          7 20 15 1 3.</_></rects>
      <tilted>0</tilted></_>
    <_>
      <rects>
        <_>
          8 1 8 4 -1.</_>
        <_>
          12 1 4 4 2.</_></rects>
      <tilted>0</tilted></_>
    <_>
      <rects>
        <_>
          8 2 4 4 -1.</_>
        <_>
          8 2 2 4 2.</_></rects>
      <tilted>1</tilted></_>
    <_>
      <rects>
        <_>
          8 2 8 17 -1.</_>
        <_>
          12 2 4 17 2.</_></rects>
      <tilted>0</tilted></_>
    <_>
      <rects>
        <_>
          8 3 8 6 -1.</_>
        <_>
          12 3 4 6 2.</_></rects>
      <tilted>0</tilted></_>
    <_>
      <rects>
        <_>
          8 5 3 1 -1.</_>
        <_>
          9 5 1 1 3.</_></rects>
      <tilted>0</tilted></_>
    <_>
      <rects>
        <_>
          8 6 12 4 -1.</_>
        <_>
          8 7 12 2 2.</_></rects>
      <tilted>0</tilted></_>
    <_>
      <rects>
        <_>
          8 9 13 3 -1.</_>
        <_>
          8 10 13 1 3.</_></rects>
      <tilted>0</tilted></_>
    <_>
      <rects>
        <_>
          8 17 2 2 -1.</_>
        <_>
          8 18 2 1 2.</_></rects>
      <tilted>0</tilted></_>
    <_>
      <rects>
        <_>
          8 23 15 1 -1.</_>
        <_>
          13 23 5 1 3.</_></rects>
      <tilted>0</tilted></_>
    <_>
      <rects>
        <_>
          9 0 4 7 -1.</_>
        <_>
          10 1 2 7 2.</_></rects>
      <tilted>1</tilted></_>
    <_>
      <rects>
        <_>
          9 0 8 3 -1.</_>
        <_>
          11 0 4 3 2.</_></rects>
      <tilted>0</tilted></_>
    <_>
      <rects>
        <_>
          9 0 9 5 -1.</_>
        <_>
          12 0 3 5 3.</_></rects>
      <tilted>0</tilted></_>
    <_>
      <rects>
        <_>
          9 3 3 3 -1.</_>
        <_>
          10 3 1 3 3.</_></rects>
      <tilted>0</tilted></_>
    <_>
      <rects>
        <_>
          9 4 2 16 -1.</_>
        <_>
          9 12 2 8 2.</_></rects>
      <tilted>0</tilted></_>
    <_>
      <rects>
        <_>
          9 4 3 3 -1.</_>
        <_>
          9 5 3 1 3.</_></rects>
      <tilted>0</tilted></_>
    <_>
      <rects>
        <_>
          9 6 2 16 -1.</_>
        <_>
          9 14 2 8 2.</_></rects>
      <tilted>0</tilted></_>
    <_>
      <rects>
        <_>
          9 8 12 8 -1.</_>
        <_>
          9 8 6 4 2.</_>
        <_>
          15 12 6 4 2.</_></rects>
      <tilted>0</tilted></_>
    <_>
      <rects>
        <_>
          9 11 8 3 -1.</_>
        <_>
          9 12 8 1 3.</_></rects>
      <tilted>0</tilted></_>
    <_>
      <rects>
        <_>
          9 13 6 9 -1.</_>
        <_>
          11 16 2 3 9.</_></rects>
      <tilted>0</tilted></_>
    <_>
      <rects>
        <_>
          9 13 3 3 -1.</_>
        <_>
          9 14 3 1 3.</_></rects>
      <tilted>0</tilted></_>
    <_>
      <rects>
        <_>
          9 21 3 3 -1.</_>
        <_>
          10 21 1 3 3.</_></rects>
      <tilted>0</tilted></_>
    <_>
      <rects>
        <_>
          10 1 1 2 -1.</_>
        <_>
          10 2 1 1 2.</_></rects>
      <tilted>0</tilted></_>
    <_>
      <rects>
        <_>
          10 2 9 3 -1.</_>
        <_>
          13 2 3 3 3.</_></rects>
      <tilted>0</tilted></_>
    <_>
      <rects>
        <_>
          10 7 5 10 -1.</_>
        <_>
          10 12 5 5 2.</_></rects>
      <tilted>0</tilted></_>
    <_>
      <rects>
        <_>
          10 11 1 2 -1.</_>
        <_>
          10 12 1 1 2.</_></rects>
      <tilted>0</tilted></_>
    <_>
      <rects>
        <_>
          10 16 2 2 -1.</_>
        <_>
          10 16 1 1 2.</_>
        <_>
          11 17 1 1 2.</_></rects>
      <tilted>0</tilted></_>
    <_>
      <rects>
        <_>
          11 1 12 7 -1.</_>
        <_>
          17 1 6 7 2.</_></rects>
      <tilted>0</tilted></_>
    <_>
      <rects>
        <_>
          11 1 8 6 -1.</_>
        <_>
          11 1 8 3 2.</_></rects>
      <tilted>1</tilted></_>
    <_>
      <rects>
        <_>
          11 2 2 6 -1.</_>
        <_>
          11 4 2 2 3.</_></rects>
      <tilted>0</tilted></_>
    <_>
      <rects>
        <_>
          11 4 3 3 -1.</_>
        <_>
          11 5 3 1 3.</_></rects>
      <tilted>0</tilted></_>
    <_>
      <rects>
        <_>
          11 11 6 6 -1.</_>
        <_>
          13 11 2 6 3.</_></rects>
      <tilted>0</tilted></_>
    <_>
      <rects>
        <_>
          11 15 1 3 -1.</_>
        <_>
          11 16 1 1 3.</_></rects>
      <tilted>0</tilted></_>
    <_>
      <rects>
        <_>
          11 17 1 2 -1.</_>
        <_>
          11 18 1 1 2.</_></rects>
      <tilted>0</tilted></_>
    <_>
      <rects>
        <_>
          11 18 12 2 -1.</_>
        <_>
          11 18 6 1 2.</_>
        <_>
          17 19 6 1 2.</_></rects>
      <tilted>0</tilted></_>
    <_>
      <rects>
        <_>
          11 22 12 2 -1.</_>
        <_>
          11 23 12 1 2.</_></rects>
      <tilted>0</tilted></_>
    <_>
      <rects>
        <_>
          11 23 9 1 -1.</_>
        <_>
          14 23 3 1 3.</_></rects>
      <tilted>0</tilted></_>
    <_>
      <rects>
        <_>
          12 0 10 8 -1.</_>
        <_>
          12 0 10 4 2.</_></rects>
      <tilted>1</tilted></_>
    <_>
      <rects>
        <_>
          12 3 6 11 -1.</_>
        <_>
          14 3 2 11 3.</_></rects>
      <tilted>0</tilted></_>
    <_>
      <rects>
        <_>
          12 4 2 2 -1.</_>
        <_>
          12 4 1 1 2.</_>
        <_>
          13 5 1 1 2.</_></rects>
      <tilted>0</tilted></_>
    <_>
      <rects>
        <_>
          12 4 4 3 -1.</_>
        <_>
          14 4 2 3 2.</_></rects>
      <tilted>0</tilted></_>
    <_>
      <rects>
        <_>
          12 10 12 12 -1.</_>
        <_>
          12 16 12 6 2.</_></rects>
      <tilted>0</tilted></_>
    <_>
      <rects>
        <_>
          12 14 2 2 -1.</_>
        <_>
          12 14 1 1 2.</_>
        <_>
          13 15 1 1 2.</_></rects>
      <tilted>0</tilted></_>
    <_>
      <rects>
        <_>
          12 15 5 3 -1.</_>
        <_>
          12 16 5 1 3.</_></rects>
      <tilted>0</tilted></_>
    <_>
      <rects>
        <_>
          12 17 5 3 -1.</_>
        <_>
          12 18 5 1 3.</_></rects>
      <tilted>0</tilted></_>
    <_>
      <rects>
        <_>
          12 20 3 1 -1.</_>
        <_>
          13 20 1 1 3.</_></rects>
      <tilted>0</tilted></_>
    <_>
      <rects>
        <_>
          12 20 3 3 -1.</_>
        <_>
          13 21 1 1 9.</_></rects>
      <tilted>0</tilted></_>
    <_>
      <rects>
        <_>
          13 0 6 5 -1.</_>
        <_>
          16 0 3 5 2.</_></rects>
      <tilted>0</tilted></_>
    <_>
      <rects>
        <_>
          13 3 10 9 -1.</_>
        <_>
          13 3 5 9 2.</_></rects>
      <tilted>1</tilted></_>
    <_>
      <rects>
        <_>
          13 3 10 10 -1.</_>
        <_>
          13 3 10 5 2.</_></rects>
      <tilted>1</tilted></_>
    <_>
      <rects>
        <_>
          13 4 2 2 -1.</_>
        <_>
          13 4 1 1 2.</_>
        <_>
          14 5 1 1 2.</_></rects>
      <tilted>0</tilted></_>
    <_>
      <rects>
        <_>
          13 5 2 2 -1.</_>
        <_>
          13 5 1 1 2.</_>
        <_>
          14 6 1 1 2.</_></rects>
      <tilted>0</tilted></_>
    <_>
      <rects>
        <_>
          13 8 5 3 -1.</_>
        <_>
          13 9 5 1 3.</_></rects>
      <tilted>0</tilted></_>
    <_>
      <rects>
        <_>
          13 11 6 5 -1.</_>
        <_>
          15 13 2 5 3.</_></rects>
      <tilted>1</tilted></_>
    <_>
      <rects>
        <_>
          13 12 8 8 -1.</_>
        <_>
          17 12 4 8 2.</_></rects>
      <tilted>0</tilted></_>
    <_>
      <rects>
        <_>
          13 21 3 3 -1.</_>
        <_>
          13 22 3 1 3.</_></rects>
      <tilted>0</tilted></_>
    <_>
      <rects>
        <_>
          14 1 6 1 -1.</_>
        <_>
          16 1 2 1 3.</_></rects>
      <tilted>0</tilted></_>
    <_>
      <rects>
        <_>
          14 1 4 3 -1.</_>
        <_>
          16 1 2 3 2.</_></rects>
      <tilted>0</tilted></_>
    <_>
      <rects>
        <_>
          14 1 6 4 -1.</_>
        <_>
          13 2 6 2 2.</_></rects>
      <tilted>1</tilted></_>
    <_>
      <rects>
        <_>
          14 1 9 3 -1.</_>
        <_>
          14 2 9 1 3.</_></rects>
      <tilted>0</tilted></_>
    <_>
      <rects>
        <_>
          14 2 2 4 -1.</_>
        <_>
          14 4 2 2 2.</_></rects>
      <tilted>0</tilted></_>
    <_>
      <rects>
        <_>
          14 5 1 3 -1.</_>
        <_>
          14 6 1 1 3.</_></rects>
      <tilted>0</tilted></_>
    <_>
      <rects>
        <_>
          14 5 6 1 -1.</_>
        <_>
          16 5 2 1 3.</_></rects>
      <tilted>0</tilted></_>
    <_>
      <rects>
        <_>
          14 10 8 2 -1.</_>
        <_>
          14 11 8 1 2.</_></rects>
      <tilted>0</tilted></_>
    <_>
      <rects>
        <_>
          14 18 4 2 -1.</_>
        <_>
          15 18 2 2 2.</_></rects>
      <tilted>0</tilted></_>
    <_>
      <rects>
        <_>
          15 0 8 1 -1.</_>
        <_>
          19 0 4 1 2.</_></rects>
      <tilted>0</tilted></_>
    <_>
      <rects>
        <_>
          15 6 2 2 -1.</_>
        <_>
          15 6 1 1 2.</_>
        <_>
          16 7 1 1 2.</_></rects>
      <tilted>0</tilted></_>
    <_>
      <rects>
        <_>
          15 9 2 2 -1.</_>
        <_>
          15 9 1 1 2.</_>
        <_>
          16 10 1 1 2.</_></rects>
      <tilted>0</tilted></_>
    <_>
      <rects>
        <_>
          15 11 4 3 -1.</_>
        <_>
          14 12 4 1 3.</_></rects>
      <tilted>1</tilted></_>
    <_>
      <rects>
        <_>
          15 16 1 3 -1.</_>
        <_>
          15 17 1 1 3.</_></rects>
      <tilted>0</tilted></_>
    <_>
      <rects>
        <_>
          16 2 3 6 -1.</_>
        <_>
          17 2 1 6 3.</_></rects>
      <tilted>0</tilted></_>
    <_>
      <rects>
        <_>
          16 3 4 4 -1.</_>
        <_>
          16 3 4 2 2.</_></rects>
      <tilted>1</tilted></_>
    <_>
      <rects>
        <_>
          16 7 3 3 -1.</_>
        <_>
          17 8 1 1 9.</_></rects>
      <tilted>0</tilted></_>
    <_>
      <rects>
        <_>
          16 8 5 16 -1.</_>
        <_>
          16 16 5 8 2.</_></rects>
      <tilted>0</tilted></_>
    <_>
      <rects>
        <_>
          16 12 6 6 -1.</_>
        <_>
          19 12 3 6 2.</_></rects>
      <tilted>0</tilted></_>
    <_>
      <rects>
        <_>
          16 20 5 4 -1.</_>
        <_>
          16 22 5 2 2.</_></rects>
      <tilted>0</tilted></_>
    <_>
      <rects>
        <_>
          16 23 3 1 -1.</_>
        <_>
          17 23 1 1 3.</_></rects>
      <tilted>0</tilted></_>
    <_>
      <rects>
        <_>
          17 0 3 2 -1.</_>
        <_>
          18 0 1 2 3.</_></rects>
      <tilted>0</tilted></_>
    <_>
      <rects>
        <_>
          17 0 5 3 -1.</_>
        <_>
          17 1 5 1 3.</_></rects>
      <tilted>0</tilted></_>
    <_>
      <rects>
        <_>
          17 1 2 3 -1.</_>
        <_>
          17 2 2 1 3.</_></rects>
      <tilted>0</tilted></_>
    <_>
      <rects>
        <_>
          17 3 6 2 -1.</_>
        <_>
          20 3 3 2 2.</_></rects>
      <tilted>0</tilted></_>
    <_>
      <rects>
        <_>
          17 5 5 3 -1.</_>
        <_>
          17 6 5 1 3.</_></rects>
      <tilted>0</tilted></_>
    <_>
      <rects>
        <_>
          17 8 6 2 -1.</_>
        <_>
          17 9 6 1 2.</_></rects>
      <tilted>0</tilted></_>
    <_>
      <rects>
        <_>
          17 18 2 6 -1.</_>
        <_>
          17 18 1 3 2.</_>
        <_>
          18 21 1 3 2.</_></rects>
      <tilted>0</tilted></_>
    <_>
      <rects>
        <_>
          17 23 6 1 -1.</_>
        <_>
          19 23 2 1 3.</_></rects>
      <tilted>0</tilted></_>
    <_>
      <rects>
        <_>
          18 3 1 20 -1.</_>
        <_>
          18 13 1 10 2.</_></rects>
      <tilted>0</tilted></_>
    <_>
      <rects>
        <_>
          18 3 6 9 -1.</_>
        <_>
          20 3 2 9 3.</_></rects>
      <tilted>0</tilted></_>
    <_>
      <rects>
        <_>
          18 4 3 4 -1.</_>
        <_>
          19 4 1 4 3.</_></rects>
      <tilted>0</tilted></_>
    <_>
      <rects>
        <_>
          18 7 4 2 -1.</_>
        <_>
          18 7 4 1 2.</_></rects>
      <tilted>1</tilted></_>
    <_>
      <rects>
        <_>
          18 10 2 8 -1.</_>
        <_>
          18 12 2 4 2.</_></rects>
      <tilted>0</tilted></_>
    <_>
      <rects>
        <_>
          18 12 3 8 -1.</_>
        <_>
          19 12 1 8 3.</_></rects>
      <tilted>0</tilted></_>
    <_>
      <rects>
        <_>
          18 21 4 2 -1.</_>
        <_>
          18 22 4 1 2.</_></rects>
      <tilted>0</tilted></_>
    <_>
      <rects>
        <_>
          19 3 1 16 -1.</_>
        <_>
          19 7 1 8 2.</_></rects>
      <tilted>0</tilted></_>
    <_>
      <rects>
        <_>
          19 3 4 1 -1.</_>
        <_>
          21 3 2 1 2.</_></rects>
      <tilted>0</tilted></_>
    <_>
      <rects>
        <_>
          19 23 4 1 -1.</_>
        <_>
          21 23 2 1 2.</_></rects>
      <tilted>0</tilted></_>
    <_>
      <rects>
        <_>
          20 0 1 20 -1.</_>
        <_>
          20 5 1 10 2.</_></rects>
      <tilted>0</tilted></_>
    <_>
      <rects>
        <_>
          20 0 4 4 -1.</_>
        <_>
          20 0 2 2 2.</_>
        <_>
          22 2 2 2 2.</_></rects>
      <tilted>0</tilted></_>
    <_>
      <rects>
        <_>
          20 1 4 20 -1.</_>
        <_>
          20 1 2 10 2.</_>
        <_>
          22 11 2 10 2.</_></rects>
      <tilted>0</tilted></_>
    <_>
      <rects>
        <_>
          20 1 4 22 -1.</_>
        <_>
          22 1 2 22 2.</_></rects>
      <tilted>0</tilted></_>
    <_>
      <rects>
        <_>
          20 2 2 12 -1.</_>
        <_>
          20 2 1 6 2.</_>
        <_>
          21 8 1 6 2.</_></rects>
      <tilted>0</tilted></_>
    <_>
      <rects>
        <_>
          20 2 4 20 -1.</_>
        <_>
          20 2 2 10 2.</_>
        <_>
          22 12 2 10 2.</_></rects>
      <tilted>0</tilted></_>
    <_>
      <rects>
        <_>
          20 5 4 2 -1.</_>
        <_>
          20 6 4 1 2.</_></rects>
      <tilted>0</tilted></_>
    <_>
      <rects>
        <_>
          20 6 3 1 -1.</_>
        <_>
          21 6 1 1 3.</_></rects>
      <tilted>0</tilted></_>
    <_>
      <rects>
        <_>
          20 6 3 9 -1.</_>
        <_>
          21 9 1 3 9.</_></rects>
      <tilted>0</tilted></_>
    <_>
      <rects>
        <_>
          20 8 2 4 -1.</_>
        <_>
          20 10 2 2 2.</_></rects>
      <tilted>0</tilted></_>
    <_>
      <rects>
        <_>
          20 9 4 12 -1.</_>
        <_>
          21 9 2 12 2.</_></rects>
      <tilted>0</tilted></_>
    <_>
      <rects>
        <_>
          20 10 1 8 -1.</_>
        <_>
          20 12 1 4 2.</_></rects>
      <tilted>0</tilted></_>
    <_>
      <rects>
        <_>
          20 15 4 5 -1.</_>
        <_>
          22 15 2 5 2.</_></rects>
      <tilted>0</tilted></_>
    <_>
      <rects>
        <_>
          21 1 3 21 -1.</_>
        <_>
          22 1 1 21 3.</_></rects>
      <tilted>0</tilted></_>
    <_>
      <rects>
        <_>
          21 2 1 16 -1.</_>
        <_>
          21 10 1 8 2.</_></rects>
      <tilted>0</tilted></_>
    <_>
      <rects>
        <_>
          21 8 1 14 -1.</_>
        <_>
          21 15 1 7 2.</_></rects>
      <tilted>0</tilted></_>
    <_>
      <rects>
        <_>
          21 11 3 9 -1.</_>
        <_>
          22 11 1 9 3.</_></rects>
      <tilted>0</tilted></_>
    <_>
      <rects>
        <_>
          21 12 3 6 -1.</_>
        <_>
          21 14 3 2 3.</_></rects>
      <tilted>0</tilted></_>
    <_>
      <rects>
        <_>
          21 20 3 3 -1.</_>
        <_>
          22 20 1 3 3.</_></rects>
      <tilted>0</tilted></_>
    <_>
      <rects>
        <_>
          22 0 2 20 -1.</_>
        <_>
          22 0 1 10 2.</_>
        <_>
          23 10 1 10 2.</_></rects>
      <tilted>0</tilted></_>
    <_>
      <rects>
        <_>
          22 2 2 6 -1.</_>
        <_>
          22 4 2 2 3.</_></rects>
      <tilted>0</tilted></_>
    <_>
      <rects>
        <_>
          22 4 2 3 -1.</_>
        <_>
          23 4 1 3 2.</_></rects>
      <tilted>0</tilted></_>
    <_>
      <rects>
        <_>
          22 13 2 6 -1.</_>
        <_>
          22 16 2 3 2.</_></rects>
      <tilted>0</tilted></_>
    <_>
      <rects>
        <_>
          22 14 1 6 -1.</_>
        <_>
          22 16 1 2 3.</_></rects>
      <tilted>0</tilted></_>
    <_>
      <rects>
        <_>
          22 15 1 3 -1.</_>
        <_>
          22 16 1 1 3.</_></rects>
      <tilted>0</tilted></_>
    <_>
      <rects>
        <_>
          22 16 1 4 -1.</_>
        <_>
          22 17 1 2 2.</_></rects>
      <tilted>0</tilted></_>
    <_>
      <rects>
        <_>
          22 18 1 3 -1.</_>
        <_>
          22 19 1 1 3.</_></rects>
      <tilted>0</tilted></_>
    <_>
      <rects>
        <_>
          23 0 1 9 -1.</_>
        <_>
          23 3 1 3 3.</_></rects>
      <tilted>0</tilted></_>
    <_>
      <rects>
        <_>
          23 4 1 12 -1.</_>
        <_>
          23 7 1 6 2.</_></rects>
      <tilted>0</tilted></_>
    <_>
      <rects>
        <_>
          23 5 1 8 -1.</_>
        <_>
          23 7 1 4 2.</_></rects>
      <tilted>0</tilted></_>
    <_>
      <rects>
        <_>
          23 6 1 3 -1.</_>
        <_>
          23 7 1 1 3.</_></rects>
      <tilted>0</tilted></_>
    <_>
      <rects>
        <_>
          23 8 1 4 -1.</_>
        <_>
          23 10 1 2 2.</_></rects>
      <tilted>0</tilted></_>
    <_>
      <rects>
        <_>
          23 9 1 6 -1.</_>
        <_>
          23 11 1 2 3.</_></rects>
      <tilted>0</tilted></_>
    <_>
      <rects>
        <_>
          23 9 1 12 -1.</_>
        <_>
          23 12 1 6 2.</_></rects>
      <tilted>0</tilted></_>
    <_>
      <rects>
        <_>
          23 21 1 2 -1.</_>
        <_>
          23 21 1 1 2.</_></rects>
      <tilted>1</tilted></_></features></cascade>
</opencv_storage>
