<?xml version="1.0"?>
<opencv_storage>
<stage4>
  <maxWeakCount>8</maxWeakCount>
  <stageThreshold>-1.3167674541473389e+00</stageThreshold>
  <weakClassifiers>
    <_>
      <internalNodes>
        0 -1 2841 -1.4080739580094814e-02</internalNodes>
      <leafValues>
        6.8316829204559326e-01 -6.7451381683349609e-01</leafValues></_>
    <_>
      <internalNodes>
        0 -1 9783 1.0698697529733181e-02</internalNodes>
      <leafValues>
        -4.1087758541107178e-01 7.1435910463333130e-01</leafValues></_>
    <_>
      <internalNodes>
        0 -1 6673 -1.0750947520136833e-02</internalNodes>
      <leafValues>
        5.5710488557815552e-01 -3.1266596913337708e-01</leafValues></_>
    <_>
      <internalNodes>
        0 -1 22592 1.1431245133280754e-02</internalNodes>
      <leafValues>
        -2.1605254709720612e-01 7.3477315902709961e-01</leafValues></_>
    <_>
      <internalNodes>
        0 -1 144278 -6.9000711664557457e-03</internalNodes>
      <leafValues>
        -6.6025400161743164e-01 2.5440344214439392e-01</leafValues></_>
    <_>
      <internalNodes>
        0 -1 98154 -9.3643702566623688e-03</internalNodes>
      <leafValues>
        5.9433186054229736e-01 -2.4207594990730286e-01</leafValues></_>
    <_>
      <internalNodes>
        0 -1 259439 1.6243841499090195e-02</internalNodes>
      <leafValues>
        -1.6234512627124786e-01 8.1434422731399536e-01</leafValues></_>
    <_>
      <internalNodes>
        0 -1 230531 1.3667620718479156e-02</internalNodes>
      <leafValues>
        -2.7266076207160950e-01 4.9224662780761719e-01</leafValues></_></weakClassifiers></stage4>
</opencv_storage>
