<?xml version="1.0"?>
<opencv_storage>
<stage10>
  <maxWeakCount>12</maxWeakCount>
  <stageThreshold>-1.3879239559173584e+00</stageThreshold>
  <weakClassifiers>
    <_>
      <internalNodes>
        0 -1 51845 2.4355918169021606e-02</internalNodes>
      <leafValues>
        -6.7973124980926514e-01 9.1891892254352570e-02</leafValues></_>
    <_>
      <internalNodes>
        0 -1 21353 -1.2845892924815416e-03</internalNodes>
      <leafValues>
        3.7785610556602478e-01 -3.4065794944763184e-01</leafValues></_>
    <_>
      <internalNodes>
        0 -1 261360 2.4369829334318638e-03</internalNodes>
      <leafValues>
        1.4913351833820343e-01 -7.4331653118133545e-01</leafValues></_>
    <_>
      <internalNodes>
        0 -1 194040 5.6601851247251034e-03</internalNodes>
      <leafValues>
        1.5938521921634674e-01 -6.7086589336395264e-01</leafValues></_>
    <_>
      <internalNodes>
        0 -1 4108 -7.6733762398362160e-04</internalNodes>
      <leafValues>
        3.8069745898246765e-01 -2.6668983697891235e-01</leafValues></_>
    <_>
      <internalNodes>
        0 -1 11598 1.0135928168892860e-02</internalNodes>
      <leafValues>
        -2.3200316727161407e-01 4.2557653784751892e-01</leafValues></_>
    <_>
      <internalNodes>
        0 -1 261296 -2.0125564187765121e-03</internalNodes>
      <leafValues>
        -4.9680882692337036e-01 2.1755342185497284e-01</leafValues></_>
    <_>
      <internalNodes>
        0 -1 99676 1.2752849608659744e-02</internalNodes>
      <leafValues>
        1.0785146802663803e-01 -8.6329859495162964e-01</leafValues></_>
    <_>
      <internalNodes>
        0 -1 219800 -2.4189320392906666e-03</internalNodes>
      <leafValues>
        3.7593647837638855e-01 -2.6933002471923828e-01</leafValues></_>
    <_>
      <internalNodes>
        0 -1 122665 1.6476590186357498e-02</internalNodes>
      <leafValues>
        -1.8160961568355560e-01 4.9929702281951904e-01</leafValues></_>
    <_>
      <internalNodes>
        0 -1 155816 -6.4471602672711015e-04</internalNodes>
      <leafValues>
        5.4740953445434570e-01 -1.7264015972614288e-01</leafValues></_>
    <_>
      <internalNodes>
        0 -1 261135 2.7845790609717369e-03</internalNodes>
      <leafValues>
        1.8991014361381531e-01 -5.8519393205642700e-01</leafValues></_></weakClassifiers></stage10>
</opencv_storage>
