<?xml version="1.0"?>
<opencv_storage>
<cascade>
  <stageType>BOOST</stageType>
  <featureType>HAAR</featureType>
  <height>24</height>
  <width>24</width>
  <stageParams>
    <boostType>GAB</boostType>
    <minHitRate>9.9500000476837158e-01</minHitRate>
    <maxFalseAlarm>5.0000000000000000e-01</maxFalseAlarm>
    <weightTrimRate>9.4999999999999996e-01</weightTrimRate>
    <maxDepth>1</maxDepth>
    <maxWeakCount>100</maxWeakCount></stageParams>
  <featureParams>
    <maxCatCount>0</maxCatCount>
    <featSize>1</featSize>
    <mode>ALL</mode></featureParams>
  <stageNum>11</stageNum>
  <stages>
    <!-- stage 0 -->
    <_>
      <maxWeakCount>4</maxWeakCount>
      <stageThreshold>-1.0944774150848389e+00</stageThreshold>
      <weakClassifiers>
        <_>
          <internalNodes>
            0 -1 31 -1.3621520251035690e-02</internalNodes>
          <leafValues>
            6.6013073921203613e-01 -7.4702703952789307e-01</leafValues></_>
        <_>
          <internalNodes>
            0 -1 75 2.3734658025205135e-03</internalNodes>
          <leafValues>
            -4.9000310897827148e-01 7.8743785619735718e-01</leafValues></_>
        <_>
          <internalNodes>
            0 -1 18 5.8498620055615902e-03</internalNodes>
          <leafValues>
            -6.3202929496765137e-01 4.2618182301521301e-01</leafValues></_>
        <_>
          <internalNodes>
            0 -1 70 -7.1502448990941048e-03</internalNodes>
          <leafValues>
            8.5949373245239258e-01 -2.8362908959388733e-01</leafValues></_></weakClassifiers></_>
    <!-- stage 1 -->
    <_>
      <maxWeakCount>6</maxWeakCount>
      <stageThreshold>-1.5994068384170532e+00</stageThreshold>
      <weakClassifiers>
        <_>
          <internalNodes>
            0 -1 7 1.7615525051951408e-02</internalNodes>
          <leafValues>
            -7.1458774805068970e-01 6.5151512622833252e-01</leafValues></_>
        <_>
          <internalNodes>
            0 -1 76 -4.0672849863767624e-03</internalNodes>
          <leafValues>
            7.2773301601409912e-01 -4.4467946887016296e-01</leafValues></_>
        <_>
          <internalNodes>
            0 -1 49 1.2054204707965255e-03</internalNodes>
          <leafValues>
            -3.5963046550750732e-01 7.8985625505447388e-01</leafValues></_>
        <_>
          <internalNodes>
            0 -1 34 6.1237225309014320e-03</internalNodes>
          <leafValues>
            -3.2250627875328064e-01 6.9804769754409790e-01</leafValues></_>
        <_>
          <internalNodes>
            0 -1 42 -1.9831079989671707e-02</internalNodes>
          <leafValues>
            9.2752832174301147e-01 -2.2839199006557465e-01</leafValues></_>
        <_>
          <internalNodes>
            0 -1 0 6.5552145242691040e-03</internalNodes>
          <leafValues>
            4.7038912773132324e-01 -5.5219793319702148e-01</leafValues></_></weakClassifiers></_>
    <!-- stage 2 -->
    <_>
      <maxWeakCount>8</maxWeakCount>
      <stageThreshold>-1.1958343982696533e+00</stageThreshold>
      <weakClassifiers>
        <_>
          <internalNodes>
            0 -1 88 -1.4183877967298031e-02</internalNodes>
          <leafValues>
            5.2702701091766357e-01 -7.1827954053878784e-01</leafValues></_>
        <_>
          <internalNodes>
            0 -1 36 1.7480854876339436e-03</internalNodes>
          <leafValues>
            -6.0905373096466064e-01 3.3272206783294678e-01</leafValues></_>
        <_>
          <internalNodes>
            0 -1 30 -7.7767655253410339e-02</internalNodes>
          <leafValues>
            7.9681295156478882e-01 -2.7889189124107361e-01</leafValues></_>
        <_>
          <internalNodes>
            0 -1 81 -2.2112760692834854e-02</internalNodes>
          <leafValues>
            7.9025352001190186e-01 -2.5777807831764221e-01</leafValues></_>
        <_>
          <internalNodes>
            0 -1 38 -8.4334522485733032e-02</internalNodes>
          <leafValues>
            -7.7615278959274292e-01 2.9135423898696899e-01</leafValues></_>
        <_>
          <internalNodes>
            0 -1 29 1.9584689289331436e-02</internalNodes>
          <leafValues>
            -2.1472872793674469e-01 8.5007017850875854e-01</leafValues></_>
        <_>
          <internalNodes>
            0 -1 68 -1.7231224104762077e-02</internalNodes>
          <leafValues>
            8.7100249528884888e-01 -2.0199766755104065e-01</leafValues></_>
        <_>
          <internalNodes>
            0 -1 83 -1.5718059614300728e-02</internalNodes>
          <leafValues>
            9.0923076868057251e-01 -1.4552670717239380e-01</leafValues></_></weakClassifiers></_>
    <!-- stage 3 -->
    <_>
      <maxWeakCount>8</maxWeakCount>
      <stageThreshold>-1.4339300394058228e+00</stageThreshold>
      <weakClassifiers>
        <_>
          <internalNodes>
            0 -1 25 -1.5901196748018265e-02</internalNodes>
          <leafValues>
            6.3934427499771118e-01 -6.9874477386474609e-01</leafValues></_>
        <_>
          <internalNodes>
            0 -1 6 -1.0704359970986843e-02</internalNodes>
          <leafValues>
            7.6298236846923828e-01 -3.8832101225852966e-01</leafValues></_>
        <_>
          <internalNodes>
            0 -1 9 1.8555391579866409e-02</internalNodes>
          <leafValues>
            -2.7873495221138000e-01 8.2817625999450684e-01</leafValues></_>
        <_>
          <internalNodes>
            0 -1 54 -5.4112441837787628e-02</internalNodes>
          <leafValues>
            -7.0841544866561890e-01 3.0901429057121277e-01</leafValues></_>
        <_>
          <internalNodes>
            0 -1 59 -1.9312599673867226e-02</internalNodes>
          <leafValues>
            8.0925494432449341e-01 -2.4170304834842682e-01</leafValues></_>
        <_>
          <internalNodes>
            0 -1 45 -1.4530630782246590e-02</internalNodes>
          <leafValues>
            7.8511136770248413e-01 -2.1860608458518982e-01</leafValues></_>
        <_>
          <internalNodes>
            0 -1 44 -7.0136889815330505e-02</internalNodes>
          <leafValues>
            9.5455646514892578e-01 -1.5550248324871063e-01</leafValues></_>
        <_>
          <internalNodes>
            0 -1 41 -7.5762145221233368e-02</internalNodes>
          <leafValues>
            -8.0826234817504883e-01 2.5238034129142761e-01</leafValues></_></weakClassifiers></_>
    <!-- stage 4 -->
    <_>
      <maxWeakCount>8</maxWeakCount>
      <stageThreshold>-1.3167674541473389e+00</stageThreshold>
      <weakClassifiers>
        <_>
          <internalNodes>
            0 -1 3 -1.4080739580094814e-02</internalNodes>
          <leafValues>
            6.8316829204559326e-01 -6.7451381683349609e-01</leafValues></_>
        <_>
          <internalNodes>
            0 -1 12 1.0698697529733181e-02</internalNodes>
          <leafValues>
            -4.1087758541107178e-01 7.1435910463333130e-01</leafValues></_>
        <_>
          <internalNodes>
            0 -1 11 -1.0750947520136833e-02</internalNodes>
          <leafValues>
            5.5710488557815552e-01 -3.1266596913337708e-01</leafValues></_>
        <_>
          <internalNodes>
            0 -1 22 1.1431245133280754e-02</internalNodes>
          <leafValues>
            -2.1605254709720612e-01 7.3477315902709961e-01</leafValues></_>
        <_>
          <internalNodes>
            0 -1 63 -6.9000711664557457e-03</internalNodes>
          <leafValues>
            -6.6025400161743164e-01 2.5440344214439392e-01</leafValues></_>
        <_>
          <internalNodes>
            0 -1 53 -9.3643702566623688e-03</internalNodes>
          <leafValues>
            5.9433186054229736e-01 -2.4207594990730286e-01</leafValues></_>
        <_>
          <internalNodes>
            0 -1 89 1.6243841499090195e-02</internalNodes>
          <leafValues>
            -1.6234512627124786e-01 8.1434422731399536e-01</leafValues></_>
        <_>
          <internalNodes>
            0 -1 74 1.3667620718479156e-02</internalNodes>
          <leafValues>
            -2.7266076207160950e-01 4.9224662780761719e-01</leafValues></_></weakClassifiers></_>
    <!-- stage 5 -->
    <_>
      <maxWeakCount>9</maxWeakCount>
      <stageThreshold>-1.3898845911026001e+00</stageThreshold>
      <weakClassifiers>
        <_>
          <internalNodes>
            0 -1 87 -2.6911027729511261e-02</internalNodes>
          <leafValues>
            6.2886595726013184e-01 -6.6360855102539062e-01</leafValues></_>
        <_>
          <internalNodes>
            0 -1 56 -2.9915740713477135e-02</internalNodes>
          <leafValues>
            7.3683524131774902e-01 -2.7730906009674072e-01</leafValues></_>
        <_>
          <internalNodes>
            0 -1 17 -2.5691378861665726e-02</internalNodes>
          <leafValues>
            7.4609988927841187e-01 -2.0096418261528015e-01</leafValues></_>
        <_>
          <internalNodes>
            0 -1 50 -2.1720789372920990e-02</internalNodes>
          <leafValues>
            7.0217227935791016e-01 -2.2096547484397888e-01</leafValues></_>
        <_>
          <internalNodes>
            0 -1 4 -1.2231241911649704e-02</internalNodes>
          <leafValues>
            7.5542300939559937e-01 -1.5578864514827728e-01</leafValues></_>
        <_>
          <internalNodes>
            0 -1 10 2.1914953365921974e-02</internalNodes>
          <leafValues>
            -1.8405379354953766e-01 8.1832611560821533e-01</leafValues></_>
        <_>
          <internalNodes>
            0 -1 48 -7.8698224388062954e-04</internalNodes>
          <leafValues>
            -8.3858841657638550e-01 2.2773699462413788e-01</leafValues></_>
        <_>
          <internalNodes>
            0 -1 82 1.1943925172090530e-02</internalNodes>
          <leafValues>
            -1.8449170887470245e-01 9.0241920948028564e-01</leafValues></_>
        <_>
          <internalNodes>
            0 -1 1 1.0261999070644379e-01</internalNodes>
          <leafValues>
            2.6955989003181458e-01 -7.0551729202270508e-01</leafValues></_></weakClassifiers></_>
    <!-- stage 6 -->
    <_>
      <maxWeakCount>10</maxWeakCount>
      <stageThreshold>-1.2825801372528076e+00</stageThreshold>
      <weakClassifiers>
        <_>
          <internalNodes>
            0 -1 23 1.0954727232456207e-01</internalNodes>
          <leafValues>
            -6.3672262430191040e-01 8.4615385532379150e-01</leafValues></_>
        <_>
          <internalNodes>
            0 -1 24 -3.4890055656433105e-02</internalNodes>
          <leafValues>
            8.1188768148422241e-01 -3.1022140383720398e-01</leafValues></_>
        <_>
          <internalNodes>
            0 -1 28 -4.0250148624181747e-02</internalNodes>
          <leafValues>
            6.6650372743606567e-01 -1.7103946208953857e-01</leafValues></_>
        <_>
          <internalNodes>
            0 -1 47 2.4401729926466942e-02</internalNodes>
          <leafValues>
            -1.6661290824413300e-01 7.2761392593383789e-01</leafValues></_>
        <_>
          <internalNodes>
            0 -1 58 -8.5344491526484489e-03</internalNodes>
          <leafValues>
            6.4371454715728760e-01 -2.3000711202621460e-01</leafValues></_>
        <_>
          <internalNodes>
            0 -1 67 5.9690773487091064e-03</internalNodes>
          <leafValues>
            -3.3264100551605225e-01 3.7693670392036438e-01</leafValues></_>
        <_>
          <internalNodes>
            0 -1 2 3.0758413486182690e-03</internalNodes>
          <leafValues>
            1.9841715693473816e-01 -6.5880966186523438e-01</leafValues></_>
        <_>
          <internalNodes>
            0 -1 19 -3.6544643808156252e-03</internalNodes>
          <leafValues>
            3.4710556268692017e-01 -3.7766358256340027e-01</leafValues></_>
        <_>
          <internalNodes>
            0 -1 79 2.0574696362018585e-02</internalNodes>
          <leafValues>
            -1.8739402294158936e-01 7.3518925905227661e-01</leafValues></_>
        <_>
          <internalNodes>
            0 -1 26 -4.7249422641471028e-04</internalNodes>
          <leafValues>
            -5.9069448709487915e-01 2.2172708809375763e-01</leafValues></_></weakClassifiers></_>
    <!-- stage 7 -->
    <_>
      <maxWeakCount>11</maxWeakCount>
      <stageThreshold>-1.7718081474304199e+00</stageThreshold>
      <weakClassifiers>
        <_>
          <internalNodes>
            0 -1 8 -3.4376508556306362e-03</internalNodes>
          <leafValues>
            1.6402116417884827e-01 -6.9853770732879639e-01</leafValues></_>
        <_>
          <internalNodes>
            0 -1 84 7.0128915831446648e-03</internalNodes>
          <leafValues>
            -3.3876594901084900e-01 5.7866907119750977e-01</leafValues></_>
        <_>
          <internalNodes>
            0 -1 37 -1.3642030768096447e-02</internalNodes>
          <leafValues>
            6.9585478305816650e-01 -1.9709619879722595e-01</leafValues></_>
        <_>
          <internalNodes>
            0 -1 66 1.2374786660075188e-02</internalNodes>
          <leafValues>
            -1.9250498712062836e-01 7.4737942218780518e-01</leafValues></_>
        <_>
          <internalNodes>
            0 -1 57 3.1230477616190910e-03</internalNodes>
          <leafValues>
            -4.0735566616058350e-01 3.5001155734062195e-01</leafValues></_>
        <_>
          <internalNodes>
            0 -1 46 -8.4981275722384453e-03</internalNodes>
          <leafValues>
            5.7512766122817993e-01 -2.5300884246826172e-01</leafValues></_>
        <_>
          <internalNodes>
            0 -1 71 4.0082363411784172e-03</internalNodes>
          <leafValues>
            -2.4358688294887543e-01 5.3338974714279175e-01</leafValues></_>
        <_>
          <internalNodes>
            0 -1 72 -1.0764108970761299e-02</internalNodes>
          <leafValues>
            4.0623205900192261e-01 -4.2134463787078857e-01</leafValues></_>
        <_>
          <internalNodes>
            0 -1 80 1.3586010318249464e-03</internalNodes>
          <leafValues>
            -2.5554692745208740e-01 5.4419308900833130e-01</leafValues></_>
        <_>
          <internalNodes>
            0 -1 51 -7.8924745321273804e-03</internalNodes>
          <leafValues>
            6.4626026153564453e-01 -1.8287278711795807e-01</leafValues></_>
        <_>
          <internalNodes>
            0 -1 16 1.6643649432808161e-03</internalNodes>
          <leafValues>
            -2.3690080642700195e-01 5.1830559968948364e-01</leafValues></_></weakClassifiers></_>
    <!-- stage 8 -->
    <_>
      <maxWeakCount>10</maxWeakCount>
      <stageThreshold>-1.8056824207305908e+00</stageThreshold>
      <weakClassifiers>
        <_>
          <internalNodes>
            0 -1 39 -1.3906968757510185e-02</internalNodes>
          <leafValues>
            2.0754717290401459e-01 -6.7791074514389038e-01</leafValues></_>
        <_>
          <internalNodes>
            0 -1 33 2.2658102214336395e-02</internalNodes>
          <leafValues>
            -4.3735477328300476e-01 2.7006298303604126e-01</leafValues></_>
        <_>
          <internalNodes>
            0 -1 13 4.5892368070781231e-03</internalNodes>
          <leafValues>
            -2.3371393978595734e-01 5.4421097040176392e-01</leafValues></_>
        <_>
          <internalNodes>
            0 -1 43 7.1087023243308067e-03</internalNodes>
          <leafValues>
            -1.7865175008773804e-01 5.9017235040664673e-01</leafValues></_>
        <_>
          <internalNodes>
            0 -1 86 -1.5341563150286674e-02</internalNodes>
          <leafValues>
            5.6656289100646973e-01 -1.9589677453041077e-01</leafValues></_>
        <_>
          <internalNodes>
            0 -1 20 -2.8060786426067352e-02</internalNodes>
          <leafValues>
            5.6952559947967529e-01 -1.8897129595279694e-01</leafValues></_>
        <_>
          <internalNodes>
            0 -1 62 9.3932691961526871e-03</internalNodes>
          <leafValues>
            1.8494287133216858e-01 -6.8395221233367920e-01</leafValues></_>
        <_>
          <internalNodes>
            0 -1 61 -1.1624270118772984e-03</internalNodes>
          <leafValues>
            5.1447844505310059e-01 -2.2177430987358093e-01</leafValues></_>
        <_>
          <internalNodes>
            0 -1 85 -8.0260168761014938e-03</internalNodes>
          <leafValues>
            5.6745517253875732e-01 -1.9201387465000153e-01</leafValues></_>
        <_>
          <internalNodes>
            0 -1 32 2.4786651134490967e-02</internalNodes>
          <leafValues>
            -4.4226273894309998e-01 2.6715922355651855e-01</leafValues></_></weakClassifiers></_>
    <!-- stage 9 -->
    <_>
      <maxWeakCount>8</maxWeakCount>
      <stageThreshold>-1.3371697664260864e+00</stageThreshold>
      <weakClassifiers>
        <_>
          <internalNodes>
            0 -1 77 -1.0803628712892532e-02</internalNodes>
          <leafValues>
            -4.0160641074180603e-03 -7.1049457788467407e-01</leafValues></_>
        <_>
          <internalNodes>
            0 -1 93 5.6452874559909105e-04</internalNodes>
          <leafValues>
            9.9026076495647430e-02 -5.8104294538497925e-01</leafValues></_>
        <_>
          <internalNodes>
            0 -1 64 2.4991948157548904e-02</internalNodes>
          <leafValues>
            -3.1756582856178284e-01 3.5944417119026184e-01</leafValues></_>
        <_>
          <internalNodes>
            0 -1 78 3.5486707929521799e-03</internalNodes>
          <leafValues>
            -1.9812914729118347e-01 5.9174865484237671e-01</leafValues></_>
        <_>
          <internalNodes>
            0 -1 27 2.8306107968091965e-02</internalNodes>
          <leafValues>
            1.7244349420070648e-01 -1.</leafValues></_>
        <_>
          <internalNodes>
            0 -1 15 -1.2599672190845013e-03</internalNodes>
          <leafValues>
            4.1699314117431641e-01 -3.0035629868507385e-01</leafValues></_>
        <_>
          <internalNodes>
            0 -1 40 -7.8602470457553864e-03</internalNodes>
          <leafValues>
            -6.9961357116699219e-01 1.8574655055999756e-01</leafValues></_>
        <_>
          <internalNodes>
            0 -1 52 -2.1174354478716850e-03</internalNodes>
          <leafValues>
            3.9704844355583191e-01 -3.0512049794197083e-01</leafValues></_></weakClassifiers></_>
    <!-- stage 10 -->
    <_>
      <maxWeakCount>12</maxWeakCount>
      <stageThreshold>-1.3879239559173584e+00</stageThreshold>
      <weakClassifiers>
        <_>
          <internalNodes>
            0 -1 35 2.4355918169021606e-02</internalNodes>
          <leafValues>
            -6.7973124980926514e-01 9.1891892254352570e-02</leafValues></_>
        <_>
          <internalNodes>
            0 -1 21 -1.2845892924815416e-03</internalNodes>
          <leafValues>
            3.7785610556602478e-01 -3.4065794944763184e-01</leafValues></_>
        <_>
          <internalNodes>
            0 -1 92 2.4369829334318638e-03</internalNodes>
          <leafValues>
            1.4913351833820343e-01 -7.4331653118133545e-01</leafValues></_>
        <_>
          <internalNodes>
            0 -1 69 5.6601851247251034e-03</internalNodes>
          <leafValues>
            1.5938521921634674e-01 -6.7086589336395264e-01</leafValues></_>
        <_>
          <internalNodes>
            0 -1 5 -7.6733762398362160e-04</internalNodes>
          <leafValues>
            3.8069745898246765e-01 -2.6668983697891235e-01</leafValues></_>
        <_>
          <internalNodes>
            0 -1 14 1.0135928168892860e-02</internalNodes>
          <leafValues>
            -2.3200316727161407e-01 4.2557653784751892e-01</leafValues></_>
        <_>
          <internalNodes>
            0 -1 91 -2.0125564187765121e-03</internalNodes>
          <leafValues>
            -4.9680882692337036e-01 2.1755342185497284e-01</leafValues></_>
        <_>
          <internalNodes>
            0 -1 55 1.2752849608659744e-02</internalNodes>
          <leafValues>
            1.0785146802663803e-01 -8.6329859495162964e-01</leafValues></_>
        <_>
          <internalNodes>
            0 -1 73 -2.4189320392906666e-03</internalNodes>
          <leafValues>
            3.7593647837638855e-01 -2.6933002471923828e-01</leafValues></_>
        <_>
          <internalNodes>
            0 -1 60 1.6476590186357498e-02</internalNodes>
          <leafValues>
            -1.8160961568355560e-01 4.9929702281951904e-01</leafValues></_>
        <_>
          <internalNodes>
            0 -1 65 -6.4471602672711015e-04</internalNodes>
          <leafValues>
            5.4740953445434570e-01 -1.7264015972614288e-01</leafValues></_>
        <_>
          <internalNodes>
            0 -1 90 2.7845790609717369e-03</internalNodes>
          <leafValues>
            1.8991014361381531e-01 -5.8519393205642700e-01</leafValues></_></weakClassifiers></_></stages>
  <features>
    <_>
      <rects>
        <_>
          0 0 1 18 -1.</_>
        <_>
          0 9 1 9 2.</_></rects>
      <tilted>0</tilted></_>
    <_>
      <rects>
        <_>
          0 1 24 16 -1.</_>
        <_>
          12 1 12 16 2.</_></rects>
      <tilted>0</tilted></_>
    <_>
      <rects>
        <_>
          0 2 1 9 -1.</_>
        <_>
          0 5 1 3 3.</_></rects>
      <tilted>0</tilted></_>
    <_>
      <rects>
        <_>
          0 2 2 7 -1.</_>
        <_>
          1 2 1 7 2.</_></rects>
      <tilted>0</tilted></_>
    <_>
      <rects>
        <_>
          0 2 3 7 -1.</_>
        <_>
          1 2 1 7 3.</_></rects>
      <tilted>0</tilted></_>
    <_>
      <rects>
        <_>
          0 3 3 1 -1.</_>
        <_>
          1 3 1 1 3.</_></rects>
      <tilted>0</tilted></_>
    <_>
      <rects>
        <_>
          0 3 4 6 -1.</_>
        <_>
          1 3 2 6 2.</_></rects>
      <tilted>0</tilted></_>
    <_>
      <rects>
        <_>
          0 4 20 4 -1.</_>
        <_>
          0 5 20 2 2.</_></rects>
      <tilted>0</tilted></_>
    <_>
      <rects>
        <_>
          0 5 2 3 -1.</_>
        <_>
          1 5 1 3 2.</_></rects>
      <tilted>0</tilted></_>
    <_>
      <rects>
        <_>
          0 5 4 16 -1.</_>
        <_>
          1 5 2 16 2.</_></rects>
      <tilted>0</tilted></_>
    <_>
      <rects>
        <_>
          0 5 2 18 -1.</_>
        <_>
          1 5 1 18 2.</_></rects>
      <tilted>0</tilted></_>
    <_>
      <rects>
        <_>
          0 5 6 5 -1.</_>
        <_>
          2 5 2 5 3.</_></rects>
      <tilted>0</tilted></_>
    <_>
      <rects>
        <_>
          0 8 2 12 -1.</_>
        <_>
          1 8 1 12 2.</_></rects>
      <tilted>0</tilted></_>
    <_>
      <rects>
        <_>
          0 10 3 3 -1.</_>
        <_>
          1 10 1 3 3.</_></rects>
      <tilted>0</tilted></_>
    <_>
      <rects>
        <_>
          0 10 4 7 -1.</_>
        <_>
          1 10 2 7 2.</_></rects>
      <tilted>0</tilted></_>
    <_>
      <rects>
        <_>
          0 20 2 4 -1.</_>
        <_>
          0 20 1 2 2.</_>
        <_>
          1 22 1 2 2.</_></rects>
      <tilted>0</tilted></_>
    <_>
      <rects>
        <_>
          0 20 4 1 -1.</_>
        <_>
          2 20 2 1 2.</_></rects>
      <tilted>0</tilted></_>
    <_>
      <rects>
        <_>
          1 0 17 3 -1.</_>
        <_>
          1 1 17 1 3.</_></rects>
      <tilted>0</tilted></_>
    <_>
      <rects>
        <_>
          1 1 3 18 -1.</_>
        <_>
          1 10 3 9 2.</_></rects>
      <tilted>0</tilted></_>
    <_>
      <rects>
        <_>
          1 1 10 1 -1.</_>
        <_>
          1 1 5 1 2.</_></rects>
      <tilted>1</tilted></_>
    <_>
      <rects>
        <_>
          1 1 16 3 -1.</_>
        <_>
          1 2 16 1 3.</_></rects>
      <tilted>0</tilted></_>
    <_>
      <rects>
        <_>
          1 3 3 1 -1.</_>
        <_>
          2 3 1 1 3.</_></rects>
      <tilted>0</tilted></_>
    <_>
      <rects>
        <_>
          1 4 4 11 -1.</_>
        <_>
          2 4 2 11 2.</_></rects>
      <tilted>0</tilted></_>
    <_>
      <rects>
        <_>
          1 8 21 6 -1.</_>
        <_>
          1 10 21 2 3.</_></rects>
      <tilted>0</tilted></_>
    <_>
      <rects>
        <_>
          1 9 20 4 -1.</_>
        <_>
          1 10 20 2 2.</_></rects>
      <tilted>0</tilted></_>
    <_>
      <rects>
        <_>
          1 22 17 2 -1.</_>
        <_>
          1 23 17 1 2.</_></rects>
      <tilted>0</tilted></_>
    <_>
      <rects>
        <_>
          2 0 4 1 -1.</_>
        <_>
          3 0 2 1 2.</_></rects>
      <tilted>0</tilted></_>
    <_>
      <rects>
        <_>
          2 0 12 5 -1.</_>
        <_>
          5 0 6 5 2.</_></rects>
      <tilted>0</tilted></_>
    <_>
      <rects>
        <_>
          2 0 8 6 -1.</_>
        <_>
          2 2 8 2 3.</_></rects>
      <tilted>0</tilted></_>
    <_>
      <rects>
        <_>
          2 0 15 4 -1.</_>
        <_>
          2 1 15 2 2.</_></rects>
      <tilted>0</tilted></_>
    <_>
      <rects>
        <_>
          2 0 22 6 -1.</_>
        <_>
          2 2 22 2 3.</_></rects>
      <tilted>0</tilted></_>
    <_>
      <rects>
        <_>
          2 1 19 3 -1.</_>
        <_>
          2 2 19 1 3.</_></rects>
      <tilted>0</tilted></_>
    <_>
      <rects>
        <_>
          2 4 14 18 -1.</_>
        <_>
          2 13 14 9 2.</_></rects>
      <tilted>0</tilted></_>
    <_>
      <rects>
        <_>
          2 5 20 4 -1.</_>
        <_>
          7 5 10 4 2.</_></rects>
      <tilted>0</tilted></_>
    <_>
      <rects>
        <_>
          2 6 19 4 -1.</_>
        <_>
          2 7 19 2 2.</_></rects>
      <tilted>0</tilted></_>
    <_>
      <rects>
        <_>
          3 1 1 18 -1.</_>
        <_>
          3 10 1 9 2.</_></rects>
      <tilted>0</tilted></_>
    <_>
      <rects>
        <_>
          3 2 8 6 -1.</_>
        <_>
          7 2 4 6 2.</_></rects>
      <tilted>0</tilted></_>
    <_>
      <rects>
        <_>
          3 9 13 3 -1.</_>
        <_>
          3 10 13 1 3.</_></rects>
      <tilted>0</tilted></_>
    <_>
      <rects>
        <_>
          3 10 16 14 -1.</_>
        <_>
          11 10 8 14 2.</_></rects>
      <tilted>0</tilted></_>
    <_>
      <rects>
        <_>
          4 0 3 4 -1.</_>
        <_>
          5 1 1 4 3.</_></rects>
      <tilted>1</tilted></_>
    <_>
      <rects>
        <_>
          4 0 8 6 -1.</_>
        <_>
          6 0 4 6 2.</_></rects>
      <tilted>0</tilted></_>
    <_>
      <rects>
        <_>
          4 0 20 16 -1.</_>
        <_>
          4 0 10 8 2.</_>
        <_>
          14 8 10 8 2.</_></rects>
      <tilted>0</tilted></_>
    <_>
      <rects>
        <_>
          4 0 20 3 -1.</_>
        <_>
          4 1 20 1 3.</_></rects>
      <tilted>0</tilted></_>
    <_>
      <rects>
        <_>
          4 1 5 3 -1.</_>
        <_>
          4 2 5 1 3.</_></rects>
      <tilted>0</tilted></_>
    <_>
      <rects>
        <_>
          4 5 18 6 -1.</_>
        <_>
          4 7 18 2 3.</_></rects>
      <tilted>0</tilted></_>
    <_>
      <rects>
        <_>
          4 9 14 4 -1.</_>
        <_>
          4 10 14 2 2.</_></rects>
      <tilted>0</tilted></_>
    <_>
      <rects>
        <_>
          4 13 10 3 -1.</_>
        <_>
          4 14 10 1 3.</_></rects>
      <tilted>0</tilted></_>
    <_>
      <rects>
        <_>
          4 21 15 3 -1.</_>
        <_>
          4 22 15 1 3.</_></rects>
      <tilted>0</tilted></_>
    <_>
      <rects>
        <_>
          4 23 3 1 -1.</_>
        <_>
          5 23 1 1 3.</_></rects>
      <tilted>0</tilted></_>
    <_>
      <rects>
        <_>
          5 0 1 3 -1.</_>
        <_>
          5 1 1 1 3.</_></rects>
      <tilted>0</tilted></_>
    <_>
      <rects>
        <_>
          5 2 12 4 -1.</_>
        <_>
          5 3 12 2 2.</_></rects>
      <tilted>0</tilted></_>
    <_>
      <rects>
        <_>
          5 15 3 3 -1.</_>
        <_>
          6 16 1 1 9.</_></rects>
      <tilted>0</tilted></_>
    <_>
      <rects>
        <_>
          5 15 6 6 -1.</_>
        <_>
          7 15 2 6 3.</_></rects>
      <tilted>0</tilted></_>
    <_>
      <rects>
        <_>
          5 22 18 2 -1.</_>
        <_>
          5 23 18 1 2.</_></rects>
      <tilted>0</tilted></_>
    <_>
      <rects>
        <_>
          6 0 6 24 -1.</_>
        <_>
          6 12 6 12 2.</_></rects>
      <tilted>0</tilted></_>
    <_>
      <rects>
        <_>
          6 1 8 6 -1.</_>
        <_>
          8 1 4 6 2.</_></rects>
      <tilted>0</tilted></_>
    <_>
      <rects>
        <_>
          6 1 14 3 -1.</_>
        <_>
          6 2 14 1 3.</_></rects>
      <tilted>0</tilted></_>
    <_>
      <rects>
        <_>
          6 3 15 4 -1.</_>
        <_>
          11 3 5 4 3.</_></rects>
      <tilted>0</tilted></_>
    <_>
      <rects>
        <_>
          6 21 10 3 -1.</_>
        <_>
          6 22 10 1 3.</_></rects>
      <tilted>0</tilted></_>
    <_>
      <rects>
        <_>
          7 8 13 3 -1.</_>
        <_>
          7 9 13 1 3.</_></rects>
      <tilted>0</tilted></_>
    <_>
      <rects>
        <_>
          7 8 17 4 -1.</_>
        <_>
          7 9 17 2 2.</_></rects>
      <tilted>0</tilted></_>
    <_>
      <rects>
        <_>
          8 13 1 3 -1.</_>
        <_>
          8 14 1 1 3.</_></rects>
      <tilted>0</tilted></_>
    <_>
      <rects>
        <_>
          9 0 6 10 -1.</_>
        <_>
          12 0 3 10 2.</_></rects>
      <tilted>0</tilted></_>
    <_>
      <rects>
        <_>
          9 1 8 4 -1.</_>
        <_>
          13 1 4 4 2.</_></rects>
      <tilted>0</tilted></_>
    <_>
      <rects>
        <_>
          9 2 14 14 -1.</_>
        <_>
          9 2 7 7 2.</_>
        <_>
          16 9 7 7 2.</_></rects>
      <tilted>0</tilted></_>
    <_>
      <rects>
        <_>
          9 19 2 2 -1.</_>
        <_>
          9 19 1 1 2.</_>
        <_>
          10 20 1 1 2.</_></rects>
      <tilted>0</tilted></_>
    <_>
      <rects>
        <_>
          10 9 7 3 -1.</_>
        <_>
          10 10 7 1 3.</_></rects>
      <tilted>0</tilted></_>
    <_>
      <rects>
        <_>
          11 5 12 3 -1.</_>
        <_>
          15 6 4 1 9.</_></rects>
      <tilted>0</tilted></_>
    <_>
      <rects>
        <_>
          12 0 10 3 -1.</_>
        <_>
          12 1 10 1 3.</_></rects>
      <tilted>0</tilted></_>
    <_>
      <rects>
        <_>
          13 0 6 4 -1.</_>
        <_>
          15 0 2 4 3.</_></rects>
      <tilted>0</tilted></_>
    <_>
      <rects>
        <_>
          13 8 5 3 -1.</_>
        <_>
          13 9 5 1 3.</_></rects>
      <tilted>0</tilted></_>
    <_>
      <rects>
        <_>
          13 13 3 3 -1.</_>
        <_>
          14 14 1 1 9.</_></rects>
      <tilted>0</tilted></_>
    <_>
      <rects>
        <_>
          14 1 7 12 -1.</_>
        <_>
          14 1 7 6 2.</_></rects>
      <tilted>1</tilted></_>
    <_>
      <rects>
        <_>
          15 7 3 4 -1.</_>
        <_>
          15 9 3 2 2.</_></rects>
      <tilted>0</tilted></_>
    <_>
      <rects>
        <_>
          16 11 8 12 -1.</_>
        <_>
          18 11 4 12 2.</_></rects>
      <tilted>0</tilted></_>
    <_>
      <rects>
        <_>
          17 1 2 3 -1.</_>
        <_>
          17 2 2 1 3.</_></rects>
      <tilted>0</tilted></_>
    <_>
      <rects>
        <_>
          18 0 3 4 -1.</_>
        <_>
          18 1 3 2 2.</_></rects>
      <tilted>0</tilted></_>
    <_>
      <rects>
        <_>
          18 2 6 3 -1.</_>
        <_>
          20 2 2 3 3.</_></rects>
      <tilted>0</tilted></_>
    <_>
      <rects>
        <_>
          19 2 2 3 -1.</_>
        <_>
          19 3 2 1 3.</_></rects>
      <tilted>0</tilted></_>
    <_>
      <rects>
        <_>
          20 2 3 17 -1.</_>
        <_>
          21 2 1 17 3.</_></rects>
      <tilted>0</tilted></_>
    <_>
      <rects>
        <_>
          20 10 3 1 -1.</_>
        <_>
          21 10 1 1 3.</_></rects>
      <tilted>0</tilted></_>
    <_>
      <rects>
        <_>
          20 10 4 9 -1.</_>
        <_>
          22 10 2 9 2.</_></rects>
      <tilted>0</tilted></_>
    <_>
      <rects>
        <_>
          21 2 2 8 -1.</_>
        <_>
          22 2 1 8 2.</_></rects>
      <tilted>0</tilted></_>
    <_>
      <rects>
        <_>
          21 11 3 9 -1.</_>
        <_>
          22 11 1 9 3.</_></rects>
      <tilted>0</tilted></_>
    <_>
      <rects>
        <_>
          21 13 3 6 -1.</_>
        <_>
          22 13 1 6 3.</_></rects>
      <tilted>0</tilted></_>
    <_>
      <rects>
        <_>
          21 14 3 7 -1.</_>
        <_>
          22 14 1 7 3.</_></rects>
      <tilted>0</tilted></_>
    <_>
      <rects>
        <_>
          22 0 2 20 -1.</_>
        <_>
          22 0 1 10 2.</_>
        <_>
          23 10 1 10 2.</_></rects>
      <tilted>0</tilted></_>
    <_>
      <rects>
        <_>
          22 0 2 22 -1.</_>
        <_>
          22 0 1 11 2.</_>
        <_>
          23 11 1 11 2.</_></rects>
      <tilted>0</tilted></_>
    <_>
      <rects>
        <_>
          22 1 2 20 -1.</_>
        <_>
          22 1 1 10 2.</_>
        <_>
          23 11 1 10 2.</_></rects>
      <tilted>0</tilted></_>
    <_>
      <rects>
        <_>
          22 1 2 18 -1.</_>
        <_>
          23 1 1 18 2.</_></rects>
      <tilted>0</tilted></_>
    <_>
      <rects>
        <_>
          23 2 1 8 -1.</_>
        <_>
          23 6 1 4 2.</_></rects>
      <tilted>0</tilted></_>
    <_>
      <rects>
        <_>
          23 6 1 9 -1.</_>
        <_>
          23 9 1 3 3.</_></rects>
      <tilted>0</tilted></_>
    <_>
      <rects>
        <_>
          23 8 1 6 -1.</_>
        <_>
          23 10 1 2 3.</_></rects>
      <tilted>0</tilted></_>
    <_>
      <rects>
        <_>
          23 12 1 8 -1.</_>
        <_>
          23 14 1 4 2.</_></rects>
      <tilted>0</tilted></_></features></cascade>
</opencv_storage>
