<?xml version="1.0"?>
<opencv_storage>
<stage5>
  <maxWeakCount>9</maxWeakCount>
  <stageThreshold>-1.3898845911026001e+00</stageThreshold>
  <weakClassifiers>
    <_>
      <internalNodes>
        0 -1 259270 -2.6911027729511261e-02</internalNodes>
      <leafValues>
        6.2886595726013184e-01 -6.6360855102539062e-01</leafValues></_>
    <_>
      <internalNodes>
        0 -1 100545 -2.9915740713477135e-02</internalNodes>
      <leafValues>
        7.3683524131774902e-01 -2.7730906009674072e-01</leafValues></_>
    <_>
      <internalNodes>
        0 -1 18692 -2.5691378861665726e-02</internalNodes>
      <leafValues>
        7.4609988927841187e-01 -2.0096418261528015e-01</leafValues></_>
    <_>
      <internalNodes>
        0 -1 86285 -2.1720789372920990e-02</internalNodes>
      <leafValues>
        7.0217227935791016e-01 -2.2096547484397888e-01</leafValues></_>
    <_>
      <internalNodes>
        0 -1 2843 -1.2231241911649704e-02</internalNodes>
      <leafValues>
        7.5542300939559937e-01 -1.5578864514827728e-01</leafValues></_>
    <_>
      <internalNodes>
        0 -1 6633 2.1914953365921974e-02</internalNodes>
      <leafValues>
        -1.8405379354953766e-01 8.1832611560821533e-01</leafValues></_>
    <_>
      <internalNodes>
        0 -1 82851 -7.8698224388062954e-04</internalNodes>
      <leafValues>
        -8.3858841657638550e-01 2.2773699462413788e-01</leafValues></_>
    <_>
      <internalNodes>
        0 -1 256784 1.1943925172090530e-02</internalNodes>
      <leafValues>
        -1.8449170887470245e-01 9.0241920948028564e-01</leafValues></_>
    <_>
      <internalNodes>
        0 -1 2510 1.0261999070644379e-01</internalNodes>
      <leafValues>
        2.6955989003181458e-01 -7.0551729202270508e-01</leafValues></_></weakClassifiers></stage5>
</opencv_storage>
