<?xml version="1.0"?>
<opencv_storage>
<stage7>
  <maxWeakCount>11</maxWeakCount>
  <stageThreshold>-1.7718081474304199e+00</stageThreshold>
  <weakClassifiers>
    <_>
      <internalNodes>
        0 -1 6564 -3.4376508556306362e-03</internalNodes>
      <leafValues>
        1.6402116417884827e-01 -6.9853770732879639e-01</leafValues></_>
    <_>
      <internalNodes>
        0 -1 258679 7.0128915831446648e-03</internalNodes>
      <leafValues>
        -3.3876594901084900e-01 5.7866907119750977e-01</leafValues></_>
    <_>
      <internalNodes>
        0 -1 61073 -1.3642030768096447e-02</internalNodes>
      <leafValues>
        6.9585478305816650e-01 -1.9709619879722595e-01</leafValues></_>
    <_>
      <internalNodes>
        0 -1 165027 1.2374786660075188e-02</internalNodes>
      <leafValues>
        -1.9250498712062836e-01 7.4737942218780518e-01</leafValues></_>
    <_>
      <internalNodes>
        0 -1 102412 3.1230477616190910e-03</internalNodes>
      <leafValues>
        -4.0735566616058350e-01 3.5001155734062195e-01</leafValues></_>
    <_>
      <internalNodes>
        0 -1 80035 -8.4981275722384453e-03</internalNodes>
      <leafValues>
        5.7512766122817993e-01 -2.5300884246826172e-01</leafValues></_>
    <_>
      <internalNodes>
        0 -1 202482 4.0082363411784172e-03</internalNodes>
      <leafValues>
        -2.4358688294887543e-01 5.3338974714279175e-01</leafValues></_>
    <_>
      <internalNodes>
        0 -1 205925 -1.0764108970761299e-02</internalNodes>
      <leafValues>
        4.0623205900192261e-01 -4.2134463787078857e-01</leafValues></_>
    <_>
      <internalNodes>
        0 -1 254742 1.3586010318249464e-03</internalNodes>
      <leafValues>
        -2.5554692745208740e-01 5.4419308900833130e-01</leafValues></_>
    <_>
      <internalNodes>
        0 -1 96147 -7.8924745321273804e-03</internalNodes>
      <leafValues>
        6.4626026153564453e-01 -1.8287278711795807e-01</leafValues></_>
    <_>
      <internalNodes>
        0 -1 17039 1.6643649432808161e-03</internalNodes>
      <leafValues>
        -2.3690080642700195e-01 5.1830559968948364e-01</leafValues></_></weakClassifiers></stage7>
</opencv_storage>
