<?xml version="1.0"?>
<opencv_storage>
<cascade>
  <stageType>BOOST</stageType>
  <featureType>HAAR</featureType>
  <height>50</height>
  <width>50</width>
  <stageParams>
    <boostType>GAB</boostType>
    <minHitRate>9.9500000476837158e-01</minHitRate>
    <maxFalseAlarm>5.0000000000000000e-01</maxFalseAlarm>
    <weightTrimRate>9.4999999999999996e-01</weightTrimRate>
    <maxDepth>1</maxDepth>
    <maxWeakCount>100</maxWeakCount></stageParams>
  <featureParams>
    <maxCatCount>0</maxCatCount>
    <featSize>1</featSize>
    <mode>ALL</mode></featureParams>
  <stageNum>5</stageNum>
  <stages>
    <!-- stage 0 -->
    <_>
      <maxWeakCount>3</maxWeakCount>
      <stageThreshold>-8.7749904394149780e-01</stageThreshold>
      <weakClassifiers>
        <_>
          <internalNodes>
            0 -1 2 3.3480962738394737e-03</internalNodes>
          <leafValues>
            -9.0769231319427490e-01 1.</leafValues></_>
        <_>
          <internalNodes>
            0 -1 14 -1.3182567199692130e-03</internalNodes>
          <leafValues>
            9.4037121534347534e-01 -7.8512114286422729e-01</leafValues></_>
        <_>
          <internalNodes>
            0 -1 9 6.8229795433580875e-03</internalNodes>
          <leafValues>
            -7.2968512773513794e-01 8.1531447172164917e-01</leafValues></_></weakClassifiers></_>
    <!-- stage 1 -->
    <_>
      <maxWeakCount>3</maxWeakCount>
      <stageThreshold>-9.0775036811828613e-01</stageThreshold>
      <weakClassifiers>
        <_>
          <internalNodes>
            0 -1 3 5.2930582314729691e-03</internalNodes>
          <leafValues>
            -9.0769231319427490e-01 1.</leafValues></_>
        <_>
          <internalNodes>
            0 -1 7 3.4955837763845921e-03</internalNodes>
          <leafValues>
            -8.5939562320709229e-01 7.6930904388427734e-01</leafValues></_>
        <_>
          <internalNodes>
            0 -1 12 4.2395183118060231e-04</internalNodes>
          <leafValues>
            -7.3749339580535889e-01 8.5933756828308105e-01</leafValues></_></weakClassifiers></_>
    <!-- stage 2 -->
    <_>
      <maxWeakCount>3</maxWeakCount>
      <stageThreshold>-8.7062507867813110e-01</stageThreshold>
      <weakClassifiers>
        <_>
          <internalNodes>
            0 -1 13 -1.9337336998432875e-03</internalNodes>
          <leafValues>
            8.3333331346511841e-01 -8.9961391687393188e-01</leafValues></_>
        <_>
          <internalNodes>
            0 -1 8 8.7435729801654816e-04</internalNodes>
          <leafValues>
            -7.6311200857162476e-01 7.2499310970306396e-01</leafValues></_>
        <_>
          <internalNodes>
            0 -1 10 5.3445424418896437e-04</internalNodes>
          <leafValues>
            -6.1905121803283691e-01 7.9210084676742554e-01</leafValues></_></weakClassifiers></_>
    <!-- stage 3 -->
    <_>
      <maxWeakCount>3</maxWeakCount>
      <stageThreshold>-9.2294341325759888e-01</stageThreshold>
      <weakClassifiers>
        <_>
          <internalNodes>
            0 -1 0 -7.9085873439908028e-03</internalNodes>
          <leafValues>
            6.9230771064758301e-01 -8.9883267879486084e-01</leafValues></_>
        <_>
          <internalNodes>
            0 -1 4 7.9437382519245148e-03</internalNodes>
          <leafValues>
            -7.2682386636734009e-01 7.3469328880310059e-01</leafValues></_>
        <_>
          <internalNodes>
            0 -1 11 -5.3730414947494864e-04</internalNodes>
          <leafValues>
            7.0271313190460205e-01 -6.9455224275588989e-01</leafValues></_></weakClassifiers></_>
    <!-- stage 4 -->
    <_>
      <maxWeakCount>4</maxWeakCount>
      <stageThreshold>-1.5842276811599731e+00</stageThreshold>
      <weakClassifiers>
        <_>
          <internalNodes>
            0 -1 6 1.0591648519039154e-02</internalNodes>
          <leafValues>
            -8.6415094137191772e-01 8.8888889551162720e-01</leafValues></_>
        <_>
          <internalNodes>
            0 -1 5 1.4199443161487579e-02</internalNodes>
          <leafValues>
            -6.9747799634933472e-01 1.</leafValues></_>
        <_>
          <internalNodes>
            0 -1 15 6.0400273650884628e-04</internalNodes>
          <leafValues>
            -5.1255041360855103e-01 8.2709217071533203e-01</leafValues></_>
        <_>
          <internalNodes>
            0 -1 1 -1.1919230746570975e-04</internalNodes>
          <leafValues>
            -1. 4.8995175957679749e-01</leafValues></_></weakClassifiers></_></stages>
  <features>
    <_>
      <rects>
        <_>
          0 3 4 11 -1.</_>
        <_>
          2 3 2 11 2.</_></rects>
      <tilted>0</tilted></_>
    <_>
      <rects>
        <_>
          0 10 1 15 -1.</_>
        <_>
          0 15 1 5 3.</_></rects>
      <tilted>0</tilted></_>
    <_>
      <rects>
        <_>
          0 14 3 13 -1.</_>
        <_>
          1 14 1 13 3.</_></rects>
      <tilted>0</tilted></_>
    <_>
      <rects>
        <_>
          0 18 3 26 -1.</_>
        <_>
          1 18 1 26 3.</_></rects>
      <tilted>0</tilted></_>
    <_>
      <rects>
        <_>
          0 20 4 20 -1.</_>
        <_>
          2 20 2 20 2.</_></rects>
      <tilted>0</tilted></_>
    <_>
      <rects>
        <_>
          0 45 45 4 -1.</_>
        <_>
          0 46 45 2 2.</_></rects>
      <tilted>0</tilted></_>
    <_>
      <rects>
        <_>
          0 47 47 3 -1.</_>
        <_>
          0 48 47 1 3.</_></rects>
      <tilted>0</tilted></_>
    <_>
      <rects>
        <_>
          7 17 3 9 -1.</_>
        <_>
          8 20 1 3 9.</_></rects>
      <tilted>0</tilted></_>
    <_>
      <rects>
        <_>
          14 10 3 1 -1.</_>
        <_>
          15 11 1 1 3.</_></rects>
      <tilted>1</tilted></_>
    <_>
      <rects>
        <_>
          17 15 13 6 -1.</_>
        <_>
          17 18 13 3 2.</_></rects>
      <tilted>0</tilted></_>
    <_>
      <rects>
        <_>
          20 42 3 3 -1.</_>
        <_>
          21 43 1 1 9.</_></rects>
      <tilted>0</tilted></_>
    <_>
      <rects>
        <_>
          22 1 4 1 -1.</_>
        <_>
          23 2 2 1 2.</_></rects>
      <tilted>1</tilted></_>
    <_>
      <rects>
        <_>
          27 1 1 2 -1.</_>
        <_>
          27 1 1 1 2.</_></rects>
      <tilted>1</tilted></_>
    <_>
      <rects>
        <_>
          46 9 3 6 -1.</_>
        <_>
          47 9 1 6 3.</_></rects>
      <tilted>0</tilted></_>
    <_>
      <rects>
        <_>
          46 23 4 5 -1.</_>
        <_>
          47 23 2 5 2.</_></rects>
      <tilted>0</tilted></_>
    <_>
      <rects>
        <_>
          47 22 3 2 -1.</_>
        <_>
          48 22 1 2 3.</_></rects>
      <tilted>0</tilted></_></features></cascade>
</opencv_storage>
