<?xml version="1.0"?>
<opencv_storage>
<cascade>
  <stageType>BOOST</stageType>
  <featureType>HAAR</featureType>
  <height>24</height>
  <width>24</width>
  <stageParams>
    <boostType>GAB</boostType>
    <minHitRate>9.9500000476837158e-01</minHitRate>
    <maxFalseAlarm>5.0000000000000000e-01</maxFalseAlarm>
    <weightTrimRate>9.4999999999999996e-01</weightTrimRate>
    <maxDepth>1</maxDepth>
    <maxWeakCount>100</maxWeakCount></stageParams>
  <featureParams>
    <maxCatCount>0</maxCatCount>
    <featSize>1</featSize>
    <mode>ALL</mode></featureParams>
  <stageNum>10</stageNum>
  <stages>
    <!-- stage 0 -->
    <_>
      <maxWeakCount>5</maxWeakCount>
      <stageThreshold>-9.4633752107620239e-01</stageThreshold>
      <weakClassifiers>
        <_>
          <internalNodes>
            0 -1 19 -4.2309347540140152e-02</internalNodes>
          <leafValues>
            8.9576548337936401e-01 -6.4634960889816284e-01</leafValues></_>
        <_>
          <internalNodes>
            0 -1 16 1.1911344714462757e-02</internalNodes>
          <leafValues>
            -4.4752389192581177e-01 7.6887112855911255e-01</leafValues></_>
        <_>
          <internalNodes>
            0 -1 75 5.2029648795723915e-03</internalNodes>
          <leafValues>
            -3.4360513091087341e-01 8.7035959959030151e-01</leafValues></_>
        <_>
          <internalNodes>
            0 -1 60 -1.3729361817240715e-02</internalNodes>
          <leafValues>
            7.9872703552246094e-01 -2.9505863785743713e-01</leafValues></_>
        <_>
          <internalNodes>
            0 -1 39 5.9263138100504875e-03</internalNodes>
          <leafValues>
            -3.0758592486381531e-01 8.4980159997940063e-01</leafValues></_></weakClassifiers></_>
    <!-- stage 1 -->
    <_>
      <maxWeakCount>6</maxWeakCount>
      <stageThreshold>-1.1214777231216431e+00</stageThreshold>
      <weakClassifiers>
        <_>
          <internalNodes>
            0 -1 66 1.5085594728589058e-02</internalNodes>
          <leafValues>
            -5.7744652032852173e-01 7.8210115432739258e-01</leafValues></_>
        <_>
          <internalNodes>
            0 -1 85 9.1344658285379410e-03</internalNodes>
          <leafValues>
            -5.7311600446701050e-01 4.5756962895393372e-01</leafValues></_>
        <_>
          <internalNodes>
            0 -1 71 -5.7573076337575912e-03</internalNodes>
          <leafValues>
            7.6098084449768066e-01 -3.7651178240776062e-01</leafValues></_>
        <_>
          <internalNodes>
            0 -1 57 8.3400402218103409e-03</internalNodes>
          <leafValues>
            -1.6588130593299866e-01 8.6479353904724121e-01</leafValues></_>
        <_>
          <internalNodes>
            0 -1 52 -5.4856282658874989e-03</internalNodes>
          <leafValues>
            8.3079725503921509e-01 -2.6929834485054016e-01</leafValues></_>
        <_>
          <internalNodes>
            0 -1 7 -8.2705933600664139e-03</internalNodes>
          <leafValues>
            8.4236824512481689e-01 -1.8989852070808411e-01</leafValues></_></weakClassifiers></_>
    <!-- stage 2 -->
    <_>
      <maxWeakCount>8</maxWeakCount>
      <stageThreshold>-1.3641990423202515e+00</stageThreshold>
      <weakClassifiers>
        <_>
          <internalNodes>
            0 -1 26 -7.0921391248703003e-02</internalNodes>
          <leafValues>
            6.6782009601593018e-01 -5.8438122272491455e-01</leafValues></_>
        <_>
          <internalNodes>
            0 -1 35 -4.2269814759492874e-02</internalNodes>
          <leafValues>
            -7.5264227390289307e-01 2.8214761614799500e-01</leafValues></_>
        <_>
          <internalNodes>
            0 -1 89 1.0601643472909927e-02</internalNodes>
          <leafValues>
            -3.5065421462059021e-01 6.6942137479782104e-01</leafValues></_>
        <_>
          <internalNodes>
            0 -1 20 5.0622504204511642e-03</internalNodes>
          <leafValues>
            -4.1481405496597290e-01 4.3799474835395813e-01</leafValues></_>
        <_>
          <internalNodes>
            0 -1 50 7.9020624980330467e-03</internalNodes>
          <leafValues>
            -2.4086666107177734e-01 7.5569504499435425e-01</leafValues></_>
        <_>
          <internalNodes>
            0 -1 92 -3.0622700229287148e-02</internalNodes>
          <leafValues>
            8.2720029354095459e-01 -1.1853229254484177e-01</leafValues></_>
        <_>
          <internalNodes>
            0 -1 100 1.7474772408604622e-02</internalNodes>
          <leafValues>
            -1.5211831033229828e-01 8.6343330144882202e-01</leafValues></_>
        <_>
          <internalNodes>
            0 -1 30 3.0331971123814583e-02</internalNodes>
          <leafValues>
            -5.4873138666152954e-01 3.5799154639244080e-01</leafValues></_></weakClassifiers></_>
    <!-- stage 3 -->
    <_>
      <maxWeakCount>9</maxWeakCount>
      <stageThreshold>-1.2156816720962524e+00</stageThreshold>
      <weakClassifiers>
        <_>
          <internalNodes>
            0 -1 36 -1.6556095331907272e-02</internalNodes>
          <leafValues>
            7.6326531171798706e-01 -5.6398713588714600e-01</leafValues></_>
        <_>
          <internalNodes>
            0 -1 4 -2.4737492203712463e-02</internalNodes>
          <leafValues>
            7.2324138879776001e-01 -3.1579509377479553e-01</leafValues></_>
        <_>
          <internalNodes>
            0 -1 90 -4.4812381267547607e-02</internalNodes>
          <leafValues>
            8.3774477243423462e-01 -1.7808537185192108e-01</leafValues></_>
        <_>
          <internalNodes>
            0 -1 19 -6.2943711876869202e-02</internalNodes>
          <leafValues>
            7.3790091276168823e-01 -2.2798846662044525e-01</leafValues></_>
        <_>
          <internalNodes>
            0 -1 28 2.0333614200353622e-02</internalNodes>
          <leafValues>
            -1.4751642942428589e-01 8.2338720560073853e-01</leafValues></_>
        <_>
          <internalNodes>
            0 -1 2 -1.3986010104417801e-02</internalNodes>
          <leafValues>
            7.7747416496276855e-01 -1.8401396274566650e-01</leafValues></_>
        <_>
          <internalNodes>
            0 -1 13 1.0672587901353836e-02</internalNodes>
          <leafValues>
            -1.6252689063549042e-01 7.9998701810836792e-01</leafValues></_>
        <_>
          <internalNodes>
            0 -1 40 -4.9741707742214203e-02</internalNodes>
          <leafValues>
            8.1368464231491089e-01 -1.4860960841178894e-01</leafValues></_>
        <_>
          <internalNodes>
            0 -1 45 1.0117907077074051e-02</internalNodes>
          <leafValues>
            -2.4883559346199036e-01 7.1284127235412598e-01</leafValues></_></weakClassifiers></_>
    <!-- stage 4 -->
    <_>
      <maxWeakCount>10</maxWeakCount>
      <stageThreshold>-1.2295935153961182e+00</stageThreshold>
      <weakClassifiers>
        <_>
          <internalNodes>
            0 -1 0 1.6559664160013199e-02</internalNodes>
          <leafValues>
            -5.7648628950119019e-01 5.7095712423324585e-01</leafValues></_>
        <_>
          <internalNodes>
            0 -1 88 -2.2295299917459488e-02</internalNodes>
          <leafValues>
            5.3317767381668091e-01 -3.1783071160316467e-01</leafValues></_>
        <_>
          <internalNodes>
            0 -1 97 1.2806920334696770e-02</internalNodes>
          <leafValues>
            -2.0367999374866486e-01 7.3883062601089478e-01</leafValues></_>
        <_>
          <internalNodes>
            0 -1 96 -1.1948401108384132e-02</internalNodes>
          <leafValues>
            8.0034035444259644e-01 -1.3934297859668732e-01</leafValues></_>
        <_>
          <internalNodes>
            0 -1 76 -5.1761448383331299e-02</internalNodes>
          <leafValues>
            -8.0656820535659790e-01 1.8565538525581360e-01</leafValues></_>
        <_>
          <internalNodes>
            0 -1 67 -6.3922032713890076e-03</internalNodes>
          <leafValues>
            -6.1754643917083740e-01 2.1897616982460022e-01</leafValues></_>
        <_>
          <internalNodes>
            0 -1 62 -1.8042374402284622e-02</internalNodes>
          <leafValues>
            7.9599988460540771e-01 -1.6999180614948273e-01</leafValues></_>
        <_>
          <internalNodes>
            0 -1 15 -1.8855683505535126e-02</internalNodes>
          <leafValues>
            8.8402557373046875e-01 -1.2422468513250351e-01</leafValues></_>
        <_>
          <internalNodes>
            0 -1 46 -2.5092761963605881e-02</internalNodes>
          <leafValues>
            8.3673804998397827e-01 -1.1461067944765091e-01</leafValues></_>
        <_>
          <internalNodes>
            0 -1 54 8.0548033118247986e-02</internalNodes>
          <leafValues>
            1.5315732359886169e-01 -9.0756869316101074e-01</leafValues></_></weakClassifiers></_>
    <!-- stage 5 -->
    <_>
      <maxWeakCount>15</maxWeakCount>
      <stageThreshold>-1.1023482084274292e+00</stageThreshold>
      <weakClassifiers>
        <_>
          <internalNodes>
            0 -1 98 -2.1126046776771545e-02</internalNodes>
          <leafValues>
            6.2553191184997559e-01 -5.3482425212860107e-01</leafValues></_>
        <_>
          <internalNodes>
            0 -1 9 -1.5269768424332142e-02</internalNodes>
          <leafValues>
            5.4859399795532227e-01 -2.6339903473854065e-01</leafValues></_>
        <_>
          <internalNodes>
            0 -1 10 2.4989465251564980e-02</internalNodes>
          <leafValues>
            -2.3107206821441650e-01 7.1513879299163818e-01</leafValues></_>
        <_>
          <internalNodes>
            0 -1 24 -9.8416268825531006e-02</internalNodes>
          <leafValues>
            8.3184576034545898e-01 -9.1271728277206421e-02</leafValues></_>
        <_>
          <internalNodes>
            0 -1 41 -1.9641797989606857e-02</internalNodes>
          <leafValues>
            6.2409776449203491e-01 -1.5371026098728180e-01</leafValues></_>
        <_>
          <internalNodes>
            0 -1 12 -9.3135598581284285e-04</internalNodes>
          <leafValues>
            -6.1764854192733765e-01 1.8442724645137787e-01</leafValues></_>
        <_>
          <internalNodes>
            0 -1 3 -3.2679386436939240e-02</internalNodes>
          <leafValues>
            9.0945637226104736e-01 -1.0980107635259628e-01</leafValues></_>
        <_>
          <internalNodes>
            0 -1 11 2.4647122249007225e-02</internalNodes>
          <leafValues>
            -1.5676847100257874e-01 7.3290264606475830e-01</leafValues></_>
        <_>
          <internalNodes>
            0 -1 102 1.2294142507016659e-03</internalNodes>
          <leafValues>
            2.1022097766399384e-01 -5.5265235900878906e-01</leafValues></_>
        <_>
          <internalNodes>
            0 -1 34 -9.5024332404136658e-02</internalNodes>
          <leafValues>
            7.7603948116302490e-01 -1.3641859591007233e-01</leafValues></_>
        <_>
          <internalNodes>
            0 -1 33 -3.3922791481018066e-02</internalNodes>
          <leafValues>
            6.4441990852355957e-01 -1.6332586109638214e-01</leafValues></_>
        <_>
          <internalNodes>
            0 -1 86 -4.9992099404335022e-02</internalNodes>
          <leafValues>
            5.8666980266571045e-01 -1.7716433107852936e-01</leafValues></_>
        <_>
          <internalNodes>
            0 -1 82 -1.1894589988514781e-03</internalNodes>
          <leafValues>
            -7.1033996343612671e-01 2.0888915657997131e-01</leafValues></_>
        <_>
          <internalNodes>
            0 -1 94 1.1574949137866497e-02</internalNodes>
          <leafValues>
            -2.0540295541286469e-01 6.7714893817901611e-01</leafValues></_>
        <_>
          <internalNodes>
            0 -1 31 -2.1208623424172401e-02</internalNodes>
          <leafValues>
            7.4374538660049438e-01 -1.3932485878467560e-01</leafValues></_></weakClassifiers></_>
    <!-- stage 6 -->
    <_>
      <maxWeakCount>13</maxWeakCount>
      <stageThreshold>-1.6194726228713989e+00</stageThreshold>
      <weakClassifiers>
        <_>
          <internalNodes>
            0 -1 18 -2.8952455148100853e-02</internalNodes>
          <leafValues>
            5.8798283338546753e-01 -5.2776002883911133e-01</leafValues></_>
        <_>
          <internalNodes>
            0 -1 84 -2.0847501233220100e-02</internalNodes>
          <leafValues>
            6.1046826839447021e-01 -2.7090367674827576e-01</leafValues></_>
        <_>
          <internalNodes>
            0 -1 1 3.0627548694610596e-02</internalNodes>
          <leafValues>
            -4.8201581835746765e-01 2.9648506641387939e-01</leafValues></_>
        <_>
          <internalNodes>
            0 -1 42 -2.0288711413741112e-02</internalNodes>
          <leafValues>
            8.1788909435272217e-01 -1.5358610451221466e-01</leafValues></_>
        <_>
          <internalNodes>
            0 -1 65 9.9111180752515793e-03</internalNodes>
          <leafValues>
            -1.4973655343055725e-01 8.0414384603500366e-01</leafValues></_>
        <_>
          <internalNodes>
            0 -1 6 -7.1827434003353119e-03</internalNodes>
          <leafValues>
            5.8248353004455566e-01 -1.7384919524192810e-01</leafValues></_>
        <_>
          <internalNodes>
            0 -1 53 5.2877315320074558e-03</internalNodes>
          <leafValues>
            -2.8758701682090759e-01 3.9748570322990417e-01</leafValues></_>
        <_>
          <internalNodes>
            0 -1 14 1.2278942158445716e-03</internalNodes>
          <leafValues>
            2.4184611439704895e-01 -5.5241870880126953e-01</leafValues></_>
        <_>
          <internalNodes>
            0 -1 23 -8.6655933409929276e-03</internalNodes>
          <leafValues>
            5.1378268003463745e-01 -2.4419349431991577e-01</leafValues></_>
        <_>
          <internalNodes>
            0 -1 72 6.5498212352395058e-03</internalNodes>
          <leafValues>
            -1.9899372756481171e-01 5.4971182346343994e-01</leafValues></_>
        <_>
          <internalNodes>
            0 -1 63 -1.2564255855977535e-02</internalNodes>
          <leafValues>
            8.4357768297195435e-01 -1.3009749352931976e-01</leafValues></_>
        <_>
          <internalNodes>
            0 -1 59 1.3593823648989201e-02</internalNodes>
          <leafValues>
            2.0028851926326752e-01 -5.8333528041839600e-01</leafValues></_>
        <_>
          <internalNodes>
            0 -1 55 -8.2370229065418243e-03</internalNodes>
          <leafValues>
            5.8276355266571045e-01 -2.0169028639793396e-01</leafValues></_></weakClassifiers></_>
    <!-- stage 7 -->
    <_>
      <maxWeakCount>10</maxWeakCount>
      <stageThreshold>-1.3095964193344116e+00</stageThreshold>
      <weakClassifiers>
        <_>
          <internalNodes>
            0 -1 17 4.4668205082416534e-03</internalNodes>
          <leafValues>
            -5.6690645217895508e-01 2.3902438580989838e-01</leafValues></_>
        <_>
          <internalNodes>
            0 -1 83 1.3202706351876259e-02</internalNodes>
          <leafValues>
            -4.0583798289299011e-01 3.5032668709754944e-01</leafValues></_>
        <_>
          <internalNodes>
            0 -1 87 2.6203300803899765e-03</internalNodes>
          <leafValues>
            -2.1782876551151276e-01 5.4476076364517212e-01</leafValues></_>
        <_>
          <internalNodes>
            0 -1 5 1.4567960985004902e-02</internalNodes>
          <leafValues>
            -2.9491296410560608e-01 3.6934512853622437e-01</leafValues></_>
        <_>
          <internalNodes>
            0 -1 49 1.1366336606442928e-02</internalNodes>
          <leafValues>
            -1.6353724896907806e-01 6.5085411071777344e-01</leafValues></_>
        <_>
          <internalNodes>
            0 -1 37 -1.8615757580846548e-03</internalNodes>
          <leafValues>
            5.4749286174774170e-01 -2.0548766851425171e-01</leafValues></_>
        <_>
          <internalNodes>
            0 -1 103 2.0845872350037098e-03</internalNodes>
          <leafValues>
            2.0975990593433380e-01 -6.7399120330810547e-01</leafValues></_>
        <_>
          <internalNodes>
            0 -1 58 -6.5050078555941582e-03</internalNodes>
          <leafValues>
            4.7885939478874207e-01 -2.3345986008644104e-01</leafValues></_>
        <_>
          <internalNodes>
            0 -1 70 1.5852071810513735e-03</internalNodes>
          <leafValues>
            -2.5964319705963135e-01 5.2878201007843018e-01</leafValues></_>
        <_>
          <internalNodes>
            0 -1 74 -4.6819727867841721e-03</internalNodes>
          <leafValues>
            -8.5237842798233032e-01 1.1593861877918243e-01</leafValues></_></weakClassifiers></_>
    <!-- stage 8 -->
    <_>
      <maxWeakCount>15</maxWeakCount>
      <stageThreshold>-1.4310233592987061e+00</stageThreshold>
      <weakClassifiers>
        <_>
          <internalNodes>
            0 -1 29 5.0986830145120621e-02</internalNodes>
          <leafValues>
            -6.4272892475128174e-01 3.7900876253843307e-02</leafValues></_>
        <_>
          <internalNodes>
            0 -1 99 -1.4947768300771713e-02</internalNodes>
          <leafValues>
            5.8397918939590454e-01 -2.4635489284992218e-01</leafValues></_>
        <_>
          <internalNodes>
            0 -1 64 -6.3377083279192448e-04</internalNodes>
          <leafValues>
            5.7726925611495972e-01 -1.6334207355976105e-01</leafValues></_>
        <_>
          <internalNodes>
            0 -1 69 -4.4934800826013088e-03</internalNodes>
          <leafValues>
            4.2052346467971802e-01 -2.1459312736988068e-01</leafValues></_>
        <_>
          <internalNodes>
            0 -1 68 -5.0862007774412632e-03</internalNodes>
          <leafValues>
            2.8270030021667480e-01 -2.9520836472511292e-01</leafValues></_>
        <_>
          <internalNodes>
            0 -1 77 -1.5911732334643602e-03</internalNodes>
          <leafValues>
            5.3342992067337036e-01 -1.6469158232212067e-01</leafValues></_>
        <_>
          <internalNodes>
            0 -1 61 2.5433875620365143e-02</internalNodes>
          <leafValues>
            1.5629388391971588e-01 -8.2184356451034546e-01</leafValues></_>
        <_>
          <internalNodes>
            0 -1 44 1.1675941059365869e-03</internalNodes>
          <leafValues>
            -2.6393276453018188e-01 3.9162397384643555e-01</leafValues></_>
        <_>
          <internalNodes>
            0 -1 51 -1.5141714364290237e-02</internalNodes>
          <leafValues>
            -8.6527657508850098e-01 1.3319614529609680e-01</leafValues></_>
        <_>
          <internalNodes>
            0 -1 95 5.1645589992403984e-03</internalNodes>
          <leafValues>
            -1.9689823687076569e-01 5.0201576948165894e-01</leafValues></_>
        <_>
          <internalNodes>
            0 -1 25 -4.8597017303109169e-03</internalNodes>
          <leafValues>
            -7.4552112817764282e-01 1.5546549856662750e-01</leafValues></_>
        <_>
          <internalNodes>
            0 -1 93 -1.8539873883128166e-02</internalNodes>
          <leafValues>
            4.7577133774757385e-01 -2.1664755046367645e-01</leafValues></_>
        <_>
          <internalNodes>
            0 -1 91 1.0005324147641659e-03</internalNodes>
          <leafValues>
            -2.1083912253379822e-01 3.7036180496215820e-01</leafValues></_>
        <_>
          <internalNodes>
            0 -1 38 2.5163320824503899e-03</internalNodes>
          <leafValues>
            -1.2169428914785385e-01 6.0474675893783569e-01</leafValues></_>
        <_>
          <internalNodes>
            0 -1 105 2.2059716866351664e-04</internalNodes>
          <leafValues>
            1.8309479951858521e-01 -4.6086022257804871e-01</leafValues></_></weakClassifiers></_>
    <!-- stage 9 -->
    <_>
      <maxWeakCount>16</maxWeakCount>
      <stageThreshold>-1.2810666561126709e+00</stageThreshold>
      <weakClassifiers>
        <_>
          <internalNodes>
            0 -1 8 -1.1192590929567814e-02</internalNodes>
          <leafValues>
            3.6625513434410095e-01 -5.0032114982604980e-01</leafValues></_>
        <_>
          <internalNodes>
            0 -1 32 -2.7357261627912521e-02</internalNodes>
          <leafValues>
            5.5296099185943604e-01 -2.0221857726573944e-01</leafValues></_>
        <_>
          <internalNodes>
            0 -1 21 1.5948165208101273e-02</internalNodes>
          <leafValues>
            -1.4838077127933502e-01 6.2571328878402710e-01</leafValues></_>
        <_>
          <internalNodes>
            0 -1 80 1.1282645165920258e-02</internalNodes>
          <leafValues>
            -2.6384198665618896e-01 3.2182183861732483e-01</leafValues></_>
        <_>
          <internalNodes>
            0 -1 48 7.7307410538196564e-02</internalNodes>
          <leafValues>
            1.0741993784904480e-01 -7.4297481775283813e-01</leafValues></_>
        <_>
          <internalNodes>
            0 -1 47 -2.7510341256856918e-02</internalNodes>
          <leafValues>
            -5.2945876121520996e-01 1.5236386656761169e-01</leafValues></_>
        <_>
          <internalNodes>
            0 -1 104 -2.9081096872687340e-03</internalNodes>
          <leafValues>
            -5.6737118959426880e-01 1.3314333558082581e-01</leafValues></_>
        <_>
          <internalNodes>
            0 -1 43 2.7995593845844269e-03</internalNodes>
          <leafValues>
            -1.7664481699466705e-01 5.4934716224670410e-01</leafValues></_>
        <_>
          <internalNodes>
            0 -1 27 -7.6797474175691605e-03</internalNodes>
          <leafValues>
            4.7872036695480347e-01 -1.6052332520484924e-01</leafValues></_>
        <_>
          <internalNodes>
            0 -1 81 1.3302614912390709e-02</internalNodes>
          <leafValues>
            -4.0945473313331604e-01 1.9732372462749481e-01</leafValues></_>
        <_>
          <internalNodes>
            0 -1 79 -4.2205918580293655e-03</internalNodes>
          <leafValues>
            4.4313415884971619e-01 -1.9004876911640167e-01</leafValues></_>
        <_>
          <internalNodes>
            0 -1 78 6.1767175793647766e-04</internalNodes>
          <leafValues>
            -1.5352910757064819e-01 4.8755279183387756e-01</leafValues></_>
        <_>
          <internalNodes>
            0 -1 22 3.3961900044232607e-04</internalNodes>
          <leafValues>
            1.8032298982143402e-01 -4.4506913423538208e-01</leafValues></_>
        <_>
          <internalNodes>
            0 -1 73 -1.8458306789398193e-02</internalNodes>
          <leafValues>
            5.4652506113052368e-01 -1.7087174952030182e-01</leafValues></_>
        <_>
          <internalNodes>
            0 -1 101 4.5627225190401077e-03</internalNodes>
          <leafValues>
            1.5500818192958832e-01 -5.9526062011718750e-01</leafValues></_>
        <_>
          <internalNodes>
            0 -1 56 -5.5695292539894581e-03</internalNodes>
          <leafValues>
            4.9249947071075439e-01 -1.9952775537967682e-01</leafValues></_></weakClassifiers></_></stages>
  <features>
    <_>
      <rects>
        <_>
          0 0 2 22 -1.</_>
        <_>
          0 0 1 11 2.</_>
        <_>
          1 11 1 11 2.</_></rects>
      <tilted>0</tilted></_>
    <_>
      <rects>
        <_>
          0 0 11 22 -1.</_>
        <_>
          0 11 11 11 2.</_></rects>
      <tilted>0</tilted></_>
    <_>
      <rects>
        <_>
          0 1 3 11 -1.</_>
        <_>
          1 1 1 11 3.</_></rects>
      <tilted>0</tilted></_>
    <_>
      <rects>
        <_>
          0 1 3 22 -1.</_>
        <_>
          1 1 1 22 3.</_></rects>
      <tilted>0</tilted></_>
    <_>
      <rects>
        <_>
          0 1 6 8 -1.</_>
        <_>
          2 1 2 8 3.</_></rects>
      <tilted>0</tilted></_>
    <_>
      <rects>
        <_>
          0 1 4 22 -1.</_>
        <_>
          0 1 2 11 2.</_>
        <_>
          2 12 2 11 2.</_></rects>
      <tilted>0</tilted></_>
    <_>
      <rects>
        <_>
          0 2 3 6 -1.</_>
        <_>
          1 2 1 6 3.</_></rects>
      <tilted>0</tilted></_>
    <_>
      <rects>
        <_>
          0 2 3 8 -1.</_>
        <_>
          1 2 1 8 3.</_></rects>
      <tilted>0</tilted></_>
    <_>
      <rects>
        <_>
          0 3 2 5 -1.</_>
        <_>
          1 3 1 5 2.</_></rects>
      <tilted>0</tilted></_>
    <_>
      <rects>
        <_>
          0 3 6 4 -1.</_>
        <_>
          2 3 2 4 3.</_></rects>
      <tilted>0</tilted></_>
    <_>
      <rects>
        <_>
          0 3 4 14 -1.</_>
        <_>
          2 3 2 14 2.</_></rects>
      <tilted>0</tilted></_>
    <_>
      <rects>
        <_>
          0 4 3 19 -1.</_>
        <_>
          1 4 1 19 3.</_></rects>
      <tilted>0</tilted></_>
    <_>
      <rects>
        <_>
          0 5 1 4 -1.</_>
        <_>
          0 7 1 2 2.</_></rects>
      <tilted>0</tilted></_>
    <_>
      <rects>
        <_>
          0 8 3 9 -1.</_>
        <_>
          1 8 1 9 3.</_></rects>
      <tilted>0</tilted></_>
    <_>
      <rects>
        <_>
          0 9 1 6 -1.</_>
        <_>
          0 11 1 2 3.</_></rects>
      <tilted>0</tilted></_>
    <_>
      <rects>
        <_>
          0 9 3 14 -1.</_>
        <_>
          1 9 1 14 3.</_></rects>
      <tilted>0</tilted></_>
    <_>
      <rects>
        <_>
          0 11 6 7 -1.</_>
        <_>
          2 11 2 7 3.</_></rects>
      <tilted>0</tilted></_>
    <_>
      <rects>
        <_>
          0 14 3 4 -1.</_>
        <_>
          1 14 1 4 3.</_></rects>
      <tilted>0</tilted></_>
    <_>
      <rects>
        <_>
          0 22 21 2 -1.</_>
        <_>
          0 23 21 1 2.</_></rects>
      <tilted>0</tilted></_>
    <_>
      <rects>
        <_>
          1 0 22 6 -1.</_>
        <_>
          1 2 22 2 3.</_></rects>
      <tilted>0</tilted></_>
    <_>
      <rects>
        <_>
          1 2 10 6 -1.</_>
        <_>
          6 2 5 6 2.</_></rects>
      <tilted>0</tilted></_>
    <_>
      <rects>
        <_>
          1 3 2 16 -1.</_>
        <_>
          1 3 1 8 2.</_>
        <_>
          2 11 1 8 2.</_></rects>
      <tilted>0</tilted></_>
    <_>
      <rects>
        <_>
          1 5 1 2 -1.</_>
        <_>
          1 6 1 1 2.</_></rects>
      <tilted>0</tilted></_>
    <_>
      <rects>
        <_>
          1 5 6 3 -1.</_>
        <_>
          3 5 2 3 3.</_></rects>
      <tilted>0</tilted></_>
    <_>
      <rects>
        <_>
          1 6 21 6 -1.</_>
        <_>
          1 8 21 2 3.</_></rects>
      <tilted>0</tilted></_>
    <_>
      <rects>
        <_>
          1 8 1 12 -1.</_>
        <_>
          1 11 1 6 2.</_></rects>
      <tilted>0</tilted></_>
    <_>
      <rects>
        <_>
          2 0 20 6 -1.</_>
        <_>
          2 2 20 2 3.</_></rects>
      <tilted>0</tilted></_>
    <_>
      <rects>
        <_>
          2 1 6 3 -1.</_>
        <_>
          2 2 6 1 3.</_></rects>
      <tilted>0</tilted></_>
    <_>
      <rects>
        <_>
          2 1 16 3 -1.</_>
        <_>
          2 2 16 1 3.</_></rects>
      <tilted>0</tilted></_>
    <_>
      <rects>
        <_>
          2 2 4 18 -1.</_>
        <_>
          2 11 4 9 2.</_></rects>
      <tilted>0</tilted></_>
    <_>
      <rects>
        <_>
          2 4 21 12 -1.</_>
        <_>
          2 10 21 6 2.</_></rects>
      <tilted>0</tilted></_>
    <_>
      <rects>
        <_>
          2 10 15 4 -1.</_>
        <_>
          2 11 15 2 2.</_></rects>
      <tilted>0</tilted></_>
    <_>
      <rects>
        <_>
          2 22 20 2 -1.</_>
        <_>
          2 23 20 1 2.</_></rects>
      <tilted>0</tilted></_>
    <_>
      <rects>
        <_>
          3 0 21 4 -1.</_>
        <_>
          3 1 21 2 2.</_></rects>
      <tilted>0</tilted></_>
    <_>
      <rects>
        <_>
          3 1 17 6 -1.</_>
        <_>
          3 3 17 2 3.</_></rects>
      <tilted>0</tilted></_>
    <_>
      <rects>
        <_>
          3 4 18 9 -1.</_>
        <_>
          12 4 9 9 2.</_></rects>
      <tilted>0</tilted></_>
    <_>
      <rects>
        <_>
          3 22 16 2 -1.</_>
        <_>
          3 23 16 1 2.</_></rects>
      <tilted>0</tilted></_>
    <_>
      <rects>
        <_>
          4 0 1 4 -1.</_>
        <_>
          4 1 1 2 2.</_></rects>
      <tilted>0</tilted></_>
    <_>
      <rects>
        <_>
          4 1 1 3 -1.</_>
        <_>
          4 2 1 1 3.</_></rects>
      <tilted>0</tilted></_>
    <_>
      <rects>
        <_>
          4 5 13 3 -1.</_>
        <_>
          4 6 13 1 3.</_></rects>
      <tilted>0</tilted></_>
    <_>
      <rects>
        <_>
          4 7 16 6 -1.</_>
        <_>
          4 9 16 2 3.</_></rects>
      <tilted>0</tilted></_>
    <_>
      <rects>
        <_>
          4 9 15 4 -1.</_>
        <_>
          4 10 15 2 2.</_></rects>
      <tilted>0</tilted></_>
    <_>
      <rects>
        <_>
          4 16 16 3 -1.</_>
        <_>
          4 17 16 1 3.</_></rects>
      <tilted>0</tilted></_>
    <_>
      <rects>
        <_>
          5 1 1 3 -1.</_>
        <_>
          5 2 1 1 3.</_></rects>
      <tilted>0</tilted></_>
    <_>
      <rects>
        <_>
          5 4 3 2 -1.</_>
        <_>
          6 4 1 2 3.</_></rects>
      <tilted>0</tilted></_>
    <_>
      <rects>
        <_>
          5 8 9 4 -1.</_>
        <_>
          5 9 9 2 2.</_></rects>
      <tilted>0</tilted></_>
    <_>
      <rects>
        <_>
          5 8 16 3 -1.</_>
        <_>
          5 9 16 1 3.</_></rects>
      <tilted>0</tilted></_>
    <_>
      <rects>
        <_>
          6 0 12 14 -1.</_>
        <_>
          12 0 6 14 2.</_></rects>
      <tilted>0</tilted></_>
    <_>
      <rects>
        <_>
          6 0 12 24 -1.</_>
        <_>
          12 0 6 24 2.</_></rects>
      <tilted>0</tilted></_>
    <_>
      <rects>
        <_>
          6 0 7 3 -1.</_>
        <_>
          6 1 7 1 3.</_></rects>
      <tilted>0</tilted></_>
    <_>
      <rects>
        <_>
          6 1 5 3 -1.</_>
        <_>
          6 2 5 1 3.</_></rects>
      <tilted>0</tilted></_>
    <_>
      <rects>
        <_>
          6 3 10 3 -1.</_>
        <_>
          11 3 5 3 2.</_></rects>
      <tilted>0</tilted></_>
    <_>
      <rects>
        <_>
          6 7 8 3 -1.</_>
        <_>
          6 8 8 1 3.</_></rects>
      <tilted>0</tilted></_>
    <_>
      <rects>
        <_>
          6 8 1 6 -1.</_>
        <_>
          4 10 1 2 3.</_></rects>
      <tilted>1</tilted></_>
    <_>
      <rects>
        <_>
          6 8 7 14 -1.</_>
        <_>
          6 15 7 7 2.</_></rects>
      <tilted>0</tilted></_>
    <_>
      <rects>
        <_>
          6 13 6 3 -1.</_>
        <_>
          6 14 6 1 3.</_></rects>
      <tilted>0</tilted></_>
    <_>
      <rects>
        <_>
          6 21 6 3 -1.</_>
        <_>
          6 22 6 1 3.</_></rects>
      <tilted>0</tilted></_>
    <_>
      <rects>
        <_>
          7 7 13 3 -1.</_>
        <_>
          7 8 13 1 3.</_></rects>
      <tilted>0</tilted></_>
    <_>
      <rects>
        <_>
          7 16 9 3 -1.</_>
        <_>
          7 17 9 1 3.</_></rects>
      <tilted>0</tilted></_>
    <_>
      <rects>
        <_>
          8 0 8 10 -1.</_>
        <_>
          12 0 4 10 2.</_></rects>
      <tilted>0</tilted></_>
    <_>
      <rects>
        <_>
          8 0 13 6 -1.</_>
        <_>
          8 2 13 2 3.</_></rects>
      <tilted>0</tilted></_>
    <_>
      <rects>
        <_>
          8 1 12 4 -1.</_>
        <_>
          12 1 4 4 3.</_></rects>
      <tilted>0</tilted></_>
    <_>
      <rects>
        <_>
          8 9 10 3 -1.</_>
        <_>
          8 10 10 1 3.</_></rects>
      <tilted>0</tilted></_>
    <_>
      <rects>
        <_>
          8 12 9 3 -1.</_>
        <_>
          8 13 9 1 3.</_></rects>
      <tilted>0</tilted></_>
    <_>
      <rects>
        <_>
          9 14 2 2 -1.</_>
        <_>
          9 14 1 1 2.</_>
        <_>
          10 15 1 1 2.</_></rects>
      <tilted>0</tilted></_>
    <_>
      <rects>
        <_>
          9 16 6 3 -1.</_>
        <_>
          9 17 6 1 3.</_></rects>
      <tilted>0</tilted></_>
    <_>
      <rects>
        <_>
          9 21 14 3 -1.</_>
        <_>
          9 22 14 1 3.</_></rects>
      <tilted>0</tilted></_>
    <_>
      <rects>
        <_>
          10 0 9 6 -1.</_>
        <_>
          13 0 3 6 3.</_></rects>
      <tilted>0</tilted></_>
    <_>
      <rects>
        <_>
          10 3 12 5 -1.</_>
        <_>
          16 3 6 5 2.</_></rects>
      <tilted>0</tilted></_>
    <_>
      <rects>
        <_>
          10 13 9 3 -1.</_>
        <_>
          10 14 9 1 3.</_></rects>
      <tilted>0</tilted></_>
    <_>
      <rects>
        <_>
          10 16 2 3 -1.</_>
        <_>
          10 17 2 1 3.</_></rects>
      <tilted>0</tilted></_>
    <_>
      <rects>
        <_>
          10 21 9 3 -1.</_>
        <_>
          10 22 9 1 3.</_></rects>
      <tilted>0</tilted></_>
    <_>
      <rects>
        <_>
          11 12 8 3 -1.</_>
        <_>
          11 13 8 1 3.</_></rects>
      <tilted>0</tilted></_>
    <_>
      <rects>
        <_>
          12 0 9 3 -1.</_>
        <_>
          12 1 9 1 3.</_></rects>
      <tilted>0</tilted></_>
    <_>
      <rects>
        <_>
          12 1 4 3 -1.</_>
        <_>
          14 1 2 3 2.</_></rects>
      <tilted>0</tilted></_>
    <_>
      <rects>
        <_>
          12 1 8 4 -1.</_>
        <_>
          12 2 8 2 2.</_></rects>
      <tilted>0</tilted></_>
    <_>
      <rects>
        <_>
          12 2 6 20 -1.</_>
        <_>
          12 12 6 10 2.</_></rects>
      <tilted>0</tilted></_>
    <_>
      <rects>
        <_>
          12 11 1 3 -1.</_>
        <_>
          12 12 1 1 3.</_></rects>
      <tilted>0</tilted></_>
    <_>
      <rects>
        <_>
          13 6 2 2 -1.</_>
        <_>
          13 6 1 1 2.</_>
        <_>
          14 7 1 1 2.</_></rects>
      <tilted>0</tilted></_>
    <_>
      <rects>
        <_>
          13 8 8 2 -1.</_>
        <_>
          13 9 8 1 2.</_></rects>
      <tilted>0</tilted></_>
    <_>
      <rects>
        <_>
          14 2 8 14 -1.</_>
        <_>
          14 2 4 7 2.</_>
        <_>
          18 9 4 7 2.</_></rects>
      <tilted>0</tilted></_>
    <_>
      <rects>
        <_>
          14 4 10 12 -1.</_>
        <_>
          14 10 10 6 2.</_></rects>
      <tilted>0</tilted></_>
    <_>
      <rects>
        <_>
          14 22 2 2 -1.</_>
        <_>
          15 22 1 2 2.</_></rects>
      <tilted>0</tilted></_>
    <_>
      <rects>
        <_>
          16 2 6 18 -1.</_>
        <_>
          16 2 3 9 2.</_>
        <_>
          19 11 3 9 2.</_></rects>
      <tilted>0</tilted></_>
    <_>
      <rects>
        <_>
          18 3 6 6 -1.</_>
        <_>
          20 3 2 6 3.</_></rects>
      <tilted>0</tilted></_>
    <_>
      <rects>
        <_>
          18 5 4 10 -1.</_>
        <_>
          18 10 4 5 2.</_></rects>
      <tilted>0</tilted></_>
    <_>
      <rects>
        <_>
          18 8 6 16 -1.</_>
        <_>
          21 8 3 16 2.</_></rects>
      <tilted>0</tilted></_>
    <_>
      <rects>
        <_>
          19 2 4 6 -1.</_>
        <_>
          20 2 2 6 2.</_></rects>
      <tilted>0</tilted></_>
    <_>
      <rects>
        <_>
          20 0 4 20 -1.</_>
        <_>
          20 0 2 10 2.</_>
        <_>
          22 10 2 10 2.</_></rects>
      <tilted>0</tilted></_>
    <_>
      <rects>
        <_>
          20 10 4 11 -1.</_>
        <_>
          21 10 2 11 2.</_></rects>
      <tilted>0</tilted></_>
    <_>
      <rects>
        <_>
          20 10 4 12 -1.</_>
        <_>
          22 10 2 12 2.</_></rects>
      <tilted>0</tilted></_>
    <_>
      <rects>
        <_>
          20 11 4 1 -1.</_>
        <_>
          21 11 2 1 2.</_></rects>
      <tilted>0</tilted></_>
    <_>
      <rects>
        <_>
          20 12 4 11 -1.</_>
        <_>
          22 12 2 11 2.</_></rects>
      <tilted>0</tilted></_>
    <_>
      <rects>
        <_>
          21 0 3 21 -1.</_>
        <_>
          22 0 1 21 3.</_></rects>
      <tilted>0</tilted></_>
    <_>
      <rects>
        <_>
          21 1 3 9 -1.</_>
        <_>
          22 1 1 9 3.</_></rects>
      <tilted>0</tilted></_>
    <_>
      <rects>
        <_>
          21 4 3 3 -1.</_>
        <_>
          22 4 1 3 3.</_></rects>
      <tilted>0</tilted></_>
    <_>
      <rects>
        <_>
          21 4 3 8 -1.</_>
        <_>
          22 4 1 8 3.</_></rects>
      <tilted>0</tilted></_>
    <_>
      <rects>
        <_>
          21 10 3 9 -1.</_>
        <_>
          22 10 1 9 3.</_></rects>
      <tilted>0</tilted></_>
    <_>
      <rects>
        <_>
          22 0 2 20 -1.</_>
        <_>
          22 0 1 10 2.</_>
        <_>
          23 10 1 10 2.</_></rects>
      <tilted>0</tilted></_>
    <_>
      <rects>
        <_>
          22 1 2 16 -1.</_>
        <_>
          22 1 1 8 2.</_>
        <_>
          23 9 1 8 2.</_></rects>
      <tilted>0</tilted></_>
    <_>
      <rects>
        <_>
          22 2 2 18 -1.</_>
        <_>
          23 2 1 18 2.</_></rects>
      <tilted>0</tilted></_>
    <_>
      <rects>
        <_>
          22 12 2 6 -1.</_>
        <_>
          22 14 2 2 3.</_></rects>
      <tilted>0</tilted></_>
    <_>
      <rects>
        <_>
          23 3 1 6 -1.</_>
        <_>
          23 5 1 2 3.</_></rects>
      <tilted>0</tilted></_>
    <_>
      <rects>
        <_>
          23 5 1 4 -1.</_>
        <_>
          23 7 1 2 2.</_></rects>
      <tilted>0</tilted></_>
    <_>
      <rects>
        <_>
          23 5 1 8 -1.</_>
        <_>
          23 7 1 4 2.</_></rects>
      <tilted>0</tilted></_>
    <_>
      <rects>
        <_>
          23 6 1 3 -1.</_>
        <_>
          23 7 1 1 3.</_></rects>
      <tilted>0</tilted></_></features></cascade>
</opencv_storage>
